{"learner":{"attributes":{},"feature_names":["rsi","atr","atr_pct","adx","volume_ratio","bb_width","bb_position","macd_hist","hour"],"feature_types":[],"gradient_booster":{"model":{"gbtree_model_param":{"num_parallel_tree":"1","num_trees":"100"},"iteration_indptr":[0,1,2,3,4,5,6,7,8,9,10,11,12,13,14,15,16,17,18,19,20,21,22,23,24,25,26,27,28,29,30,31,32,33,34,35,36,37,38,39,40,41,42,43,44,45,46,47,48,49,50,51,52,53,54,55,56,57,58,59,60,61,62,63,64,65,66,67,68,69,70,71,72,73,74,75,76,77,78,79,80,81,82,83,84,85,86,87,88,89,90,91,92,93,94,95,96,97,98,99,100],"tree_info":[0,0,0,0,0,0,0,0,0,0,0,0,0,0,0,0,0,0,0,0,0,0,0,0,0,0,0,0,0,0,0,0,0,0,0,0,0,0,0,0,0,0,0,0,0,0,0,0,0,0,0,0,0,0,0,0,0,0,0,0,0,0,0,0,0,0,0,0,0,0,0,0,0,0,0,0,0,0,0,0,0,0,0,0,0,0,0,0,0,0,0,0,0,0,0,0,0,0,0,0],"trees":[{"base_weights":[8.220159E-2,-1.5244432E-1,7.709343E-1,3.5779643E-1,-3.5790145E-1,1.3018868E0,-2.1262453E-1,1.2978387E-1,-1.6938107E-1,3.1860647E-1,-6.40781E-1,5.7742815E-3,1.572666E-1,-9.7542815E-2,5.288271E-1,7.36243E-2,-1.07722774E-1,7.406241E-2,-8.831169E-2,-1.3590096E-1,-2.7268494E-2,1.1574953E-1,-4.6941046E-2],"categories":[],"categories_nodes":[],"categories_segments":[],"categories_sizes":[],"default_left":[0,0,0,0,0,0,0,0,0,0,0,0,0,0,0,0,0,0,0,0,0,0,0],"id":0,"left_children":[1,3,5,7,9,11,13,-1,15,17,19,-1,-1,-1,21,-1,-1,-1,-1,-1,-1,-1,-1],"loss_changes":[8.291484E0,4.1704865E0,7.0751224E0,5.953475E0,5.5608E0,2.8046093E0,3.5832229E0,0E0,7.614871E0,5.178416E0,4.93542E0,0E0,0E0,0E0,2.676197E0,0E0,0E0,0E0,0E0,0E0,0E0,0E0,0E0],"parents":[2147483647,0,0,1,1,2,2,3,3,4,4,5,5,6,6,8,8,9,9,10,10,14,14],"right_children":[2,4,6,8,10,12,14,-1,16,18,20,-1,-1,-1,22,-1,-1,-1,-1,-1,-1,-1,-1],"split_conditions":[6.04649E1,7.208E-1,6.67052E1,3.62009E1,1.98515E0,3.91517E1,2.729571E0,1.2978387E-1,3.57636E1,1.7216E0,6.92E-4,5.7742815E-3,1.572666E-1,-9.7542815E-2,7.55113E1,7.36243E-2,-1.07722774E-1,7.406241E-2,-8.831169E-2,-1.3590096E-1,-2.7268494E-2,1.1574953E-1,-4.6941046E-2],"split_indices":[0,4,0,0,1,3,1,0,3,4,2,0,0,0,0,0,0,0,0,0,0,0,0],"split_type":[0,0,0,0,0,0,0,0,0,0,0,0,0,0,0,0,0,0,0,0,0,0,0],"sum_hessian":[4.957883E1,3.756081E1,1.2018019E1,1.056982E1,2.6990992E1,7.594595E0,4.423424E0,3.2725227E0,7.2972975E0,7.921171E0,1.906982E1,1.5743244E0,6.0202703E0,2.0247748E0,2.3986487E0,3.747748E0,3.5495496E0,6.1463966E0,1.7747748E0,5.5495496E0,1.352027E1,1.373874E0,1.0247748E0],"tree_param":{"num_deleted":"0","num_feature":"9","num_nodes":"23","size_leaf_vector":"1"}},{"base_weights":[5.78078E-2,-1.3420673E-1,6.4413095E-1,3.6179316E-1,-4.8287418E-1,1.3649912E-1,1.1051082E-1,4.133726E-2,1.2370058E-1,1.0416017E-1,-6.10217E-1,-1.08747445E-1,4.8882997E-1,5.9544362E-2,-5.559626E-2,-8.148419E-2,1.3399775E-2,7.57674E-2,-1.6248249E-2],"categories":[],"categories_nodes":[],"categories_segments":[],"categories_sizes":[],"default_left":[0,0,0,0,0,0,0,0,0,0,0,0,0,0,0,0,0,0,0],"id":1,"left_children":[1,3,5,7,9,-1,11,13,-1,-1,15,-1,17,-1,-1,-1,-1,-1,-1],"loss_changes":[5.5597425E0,6.6512623E0,4.528945E0,4.4449E0,4.9879146E0,0E0,4.193138E0,4.557068E0,0E0,0E0,3.3561525E0,0E0,1.319027E0,0E0,0E0,0E0,0E0,0E0,0E0],"parents":[2147483647,0,0,1,1,2,2,3,3,4,4,6,6,7,7,10,10,12,12],"right_children":[2,4,6,8,10,-1,12,14,-1,-1,16,-1,18,-1,-1,-1,-1,-1,-1],"split_conditions":[2.482766E0,2.048353E0,2.637083E0,1.33175E-1,-3.74E-2,1.3649912E-1,2.71286E0,-1.98023E-1,1.2370058E-1,1.0416017E-1,8.63E-1,-1.08747445E-1,7.30341E-1,5.9544362E-2,-5.559626E-2,-8.148419E-2,1.3399775E-2,7.57674E-2,-1.6248249E-2],"split_indices":[1,1,1,7,6,0,1,7,0,0,6,0,7,0,0,0,0,0,0],"split_type":[0,0,0,0,0,0,0,0,0,0,0,0,0,0,0,0,0,0,0],"sum_hessian":[4.7615845E1,3.6449974E1,1.116587E1,1.5030526E1,2.1419449E1,4.0869207E0,7.078949E0,1.1768693E1,3.2618327E0,1.0977921E0,2.0321655E1,1.2490903E0,5.829859E0,6.1067023E0,5.661991E0,1.5864693E1,4.4569635E0,4.0109463E0,1.8189124E0],"tree_param":{"num_deleted":"0","num_feature":"9","num_nodes":"19","size_leaf_vector":"1"}},{"base_weights":[5.4513425E-2,2.115204E-1,-6.943497E-1,7.9377145E-2,1.0555198E0,-1.2945832E-1,9.0270385E-2,1.1662076E-1,-5.6040555E-2,3.329326E-2,1.21060126E-1,-2.4035128E-2,5.0099697E-2],"categories":[],"categories_nodes":[],"categories_segments":[],"categories_sizes":[],"default_left":[0,0,0,0,0,0,0,0,0,0,0,0,0],"id":2,"left_children":[1,3,5,7,9,-1,-1,-1,11,-1,-1,-1,-1],"loss_changes":[5.69285E0,4.3506155E0,9.229456E0,5.284069E0,1.9099426E-1,0E0,0E0,0E0,3.4555328E0,0E0,0E0,0E0,0E0],"parents":[2147483647,0,0,1,1,2,2,3,3,4,4,8,8],"right_children":[2,4,6,8,10,-1,-1,-1,12,-1,-1,-1,-1],"split_conditions":[1.6388E0,1.376E0,2.7158E0,2.95003E1,-1.50504E-1,-1.2945832E-1,9.0270385E-2,1.1662076E-1,6.20997E1,3.329326E-2,1.21060126E-1,-2.4035128E-2,5.0099697E-2],"split_indices":[4,4,4,0,7,0,0,0,0,0,0,0,0],"split_type":[0,0,0,0,0,0,0,0,0,0,0,0,0],"sum_hessian":[4.616903E1,3.8760113E1,7.408918E0,3.445899E1,4.3011246E0,5.5226784E0,1.8862398E0,2.9744916E0,3.1484497E1,1.31603E0,2.9850945E0,2.4084135E1,7.4003606E0],"tree_param":{"num_deleted":"0","num_feature":"9","num_nodes":"13","size_leaf_vector":"1"}},{"base_weights":[-4.925679E-2,-1.6535158E-1,8.571352E-1,-1.2695277E-2,-8.585276E-1,1.1388075E-1,5.610835E-3,1.0891584E-1,-8.413142E-2,5.495421E-2,-1.3054721E-1,-8.027921E-2,1.833239E-3,-6.3590996E-2,6.992789E-2],"categories":[],"categories_nodes":[],"categories_segments":[],"categories_sizes":[],"default_left":[0,0,0,0,0,0,0,0,0,0,0,0,0,0,0],"id":3,"left_children":[1,3,5,7,9,-1,-1,-1,11,13,-1,-1,-1,-1,-1],"loss_changes":[5.350552E0,4.721115E0,1.2407022E0,3.0561478E0,3.3607368E0,0E0,0E0,0E0,2.6875763E0,2.0499482E0,0E0,0E0,0E0,0E0,0E0],"parents":[2147483647,0,0,1,1,2,2,3,3,4,4,8,8,9,9],"right_children":[2,4,6,8,10,-1,-1,-1,12,14,-1,-1,-1,-1,-1],"split_conditions":[9.658E-1,1.5291E0,1.6388E0,3.263E-1,2.174E-3,1.1388075E-1,5.610835E-3,1.0891584E-1,2.97898E1,3.31026E1,-1.3054721E-1,-8.027921E-2,1.833239E-3,-6.3590996E-2,6.992789E-2],"split_indices":[6,4,4,4,5,0,0,0,3,3,0,0,0,0,0],"split_type":[0,0,0,0,0,0,0,0,0,0,0,0,0,0,0],"sum_hessian":[4.850065E1,4.371855E1,4.782099E0,3.666273E1,7.0558205E0,3.2260194E0,1.5560793E0,1.3648133E0,3.5297916E1,2.6062057E0,4.449615E0,3.5517523E0,3.1746164E1,1.263984E0,1.3422216E0],"tree_param":{"num_deleted":"0","num_feature":"9","num_nodes":"15","size_leaf_vector":"1"}},{"base_weights":[1.1033077E-1,-3.524237E-2,5.075169E-1,2.7386722E-1,-3.6870146E-1,1.0554383E0,-4.8476347E-1,6.925714E-2,1.2754487E-1,2.7462348E-1,-6.7069775E-1,9.601898E-4,1.1871517E0,-1.0965985E-1,3.5869607E-1,4.1810706E-2,-1.0716534E-1,-8.2607396E-2,8.293835E-2,1.1111689E-2,-9.815352E-2,1.4972526E-1,5.878163E-3,5.5382457E-2,-1.4121899E-3],"categories":[],"categories_nodes":[],"categories_segments":[],"categories_sizes":[],"default_left":[0,0,0,0,0,0,0,0,0,0,0,0,0,0,0,0,0,0,0,0,0,0,0,0,0],"id":4,"left_children":[1,3,5,7,9,11,13,15,-1,17,19,-1,21,-1,23,-1,-1,-1,-1,-1,-1,-1,-1,-1,-1],"loss_changes":[2.9873064E0,4.071167E0,8.035928E0,4.125565E0,3.866819E0,1.2601385E0,3.2876713E0,7.6645756E0,0E0,4.815975E0,3.3144932E0,0E0,2.777772E0,0E0,2.3417175E-1,0E0,0E0,0E0,0E0,0E0,0E0,0E0,0E0,0E0,0E0],"parents":[2147483647,0,0,1,1,2,2,3,3,4,4,5,5,6,6,7,7,9,9,10,10,12,12,14,14],"right_children":[2,4,6,8,10,12,14,16,-1,18,20,-1,22,-1,24,-1,-1,-1,-1,-1,-1,-1,-1,-1,-1],"split_conditions":[6.04649E1,4.29371E1,6.79499E1,5.4736E1,1.811E-3,1.921963E0,7.29881E1,3.818E-3,1.2754487E-1,-9.6345E-2,6.65E-1,9.601898E-4,6.51297E1,-1.0965985E-1,5.9451E1,4.1810706E-2,-1.0716534E-1,-8.2607396E-2,8.293835E-2,1.1111689E-2,-9.815352E-2,1.4972526E-1,5.878163E-3,5.5382457E-2,-1.4121899E-3],"split_indices":[0,0,0,3,5,1,0,5,0,7,4,0,0,0,3,0,0,0,0,0,0,0,0,0,0],"split_type":[0,0,0,0,0,0,0,0,0,0,0,0,0,0,0,0,0,0,0,0,0,0,0,0,0],"sum_hessian":[5.0356613E1,3.7517357E1,1.2839258E1,1.956226E1,1.7955095E1,8.230731E0,4.6085277E0,1.7131638E1,2.4306228E0,5.764966E0,1.2190129E1,1.040646E0,7.190085E0,2.497067E0,2.1114607E0,1.3605186E1,3.5264509E0,1.7680058E0,3.9969602E0,3.6506305E0,8.539499E0,5.383629E0,1.8064562E0,1.0673258E0,1.0441349E0],"tree_param":{"num_deleted":"0","num_feature":"9","num_nodes":"25","size_leaf_vector":"1"}},{"base_weights":[-5.662833E-2,-2.4941853E-1,4.8404163E-1,2.457345E-1,-5.1546156E-1,8.47026E-1,-4.4528353E-1,1.2253833E0,-2.186894E-1,1.10288076E-1,-6.517274E-1,5.067065E-1,1.280164E-1,-1.09414816E-1,6.4744554E-2,1.3624029E-1,3.7047792E-2,-6.519203E-2,5.9787344E-2,-1.4504484E-2,-1.01336196E-1,8.1282504E-2,-4.2162742E-2],"categories":[],"categories_nodes":[],"categories_segments":[],"categories_sizes":[],"default_left":[0,0,0,0,0,0,0,0,0,0,0,0,0,0,0,0,0,0,0,0,0,0,0],"id":5,"left_children":[1,3,5,7,9,11,13,15,17,-1,19,21,-1,-1,-1,-1,-1,-1,-1,-1,-1,-1,-1],"loss_changes":[5.5394516E0,5.261689E0,5.1012726E0,6.7746415E0,6.3817616E0,8.8661623E-1,3.9621496E0,5.176449E-2,4.122083E0,0E0,4.308138E0,2.470583E0,0E0,0E0,0E0,0E0,0E0,0E0,0E0,0E0,0E0,0E0,0E0],"parents":[2147483647,0,0,1,1,2,2,3,3,4,4,5,5,6,6,7,7,8,8,10,10,11,11],"right_children":[2,4,6,8,10,12,14,16,18,-1,20,22,-1,-1,-1,-1,-1,-1,-1,-1,-1,-1,-1],"split_conditions":[6.01358E1,7.933E-1,7.82933E-1,3.62009E1,-2.76E-2,3.311E-3,1.3E1,5.299E-3,6.535E-1,1.10288076E-1,2.054691E0,2.686E-3,1.280164E-1,-1.09414816E-1,6.4744554E-2,1.3624029E-1,3.7047792E-2,-6.519203E-2,5.9787344E-2,-1.4504484E-2,-1.01336196E-1,8.1282504E-2,-4.2162742E-2],"split_indices":[0,4,7,0,6,5,8,5,4,0,1,5,0,0,0,0,0,0,0,0,0,0,0],"split_type":[0,0,0,0,0,0,0,0,0,0,0,0,0,0,0,0,0,0,0,0,0,0,0],"sum_hessian":[5.0985207E1,3.7980824E1,1.3004383E1,1.3301229E1,2.4679596E1,9.415391E0,3.588992E0,3.7508144E0,9.550414E0,1.3657575E0,2.3313839E1,6.487761E0,2.9276295E0,2.2510285E0,1.3379636E0,2.721067E0,1.0297475E0,6.371576E0,3.178838E0,1.029321E1,1.3020629E1,4.972502E0,1.5152589E0],"tree_param":{"num_deleted":"0","num_feature":"9","num_nodes":"23","size_leaf_vector":"1"}},{"base_weights":[-2.3700796E-2,-9.8332755E-2,9.197761E-1,-3.037518E-1,1.94788E-1,1.1392734E-1,1.7479321E-2,-6.5039426E-2,-9.5403004E-1,5.9699506E-1,-1.4457007E-1,6.034273E-2,-3.5573572E-2,-1.3112162E-1,9.310408E-3,1.1498689E-1,9.940061E-3,-5.4288864E-2,2.8556893E-2],"categories":[],"categories_nodes":[],"categories_segments":[],"categories_sizes":[],"default_left":[0,0,0,0,0,0,0,0,0,0,0,0,0,0,0,0,0,0,0],"id":6,"left_children":[1,3,5,7,9,-1,-1,11,13,15,17,-1,-1,-1,-1,-1,-1,-1,-1],"loss_changes":[3.4918604E0,2.8089938E0,3.9569807E-1,4.166709E0,2.7378948E0,0E0,0E0,4.2954187E0,2.8306994E0,2.3850641E0,2.0982146E0,0E0,0E0,0E0,0E0,0E0,0E0,0E0,0E0],"parents":[2147483647,0,0,1,1,2,2,3,3,4,4,7,7,8,8,9,9,10,10],"right_children":[2,4,6,8,10,-1,-1,12,14,16,18,-1,-1,-1,-1,-1,-1,-1,-1],"split_conditions":[1.4E1,1.1418E0,1.2564E0,9.399E-1,1.4192E0,1.1392734E-1,1.7479321E-2,2E0,6.04649E1,-2.34273E-1,6.74E-4,6.034273E-2,-3.5573572E-2,-1.3112162E-1,9.310408E-3,1.1498689E-1,9.940061E-3,-5.4288864E-2,2.8556893E-2],"split_indices":[8,4,4,4,4,0,0,8,0,7,2,0,0,0,0,0,0,0,0],"split_type":[0,0,0,0,0,0,0,0,0,0,0,0,0,0,0,0,0,0,0],"sum_hessian":[4.730629E1,4.466864E1,2.6376524E0,2.6241985E1,1.8426653E1,1.6285614E0,1.009091E0,2.000011E1,6.241875E0,8.085056E0,1.0341597E1,5.735445E0,1.4264666E1,4.4662166E0,1.7756588E0,3.2088594E0,4.876197E0,5.2333083E0,5.108288E0],"tree_param":{"num_deleted":"0","num_feature":"9","num_nodes":"19","size_leaf_vector":"1"}},{"base_weights":[-3.2383803E-2,-2.0870768E-1,4.376208E-1,5.1904595E-1,-3.7021467E-1,9.130951E-1,-3.4944558E-1,1.2648606E-1,-3.3225924E-1,1.9407576E-1,-6.3597614E-1,1.0790241E0,3.1932878E-1,-8.6280596E-1,4.0168017E-1,-7.590768E-2,3.280833E-2,4.5300156E-2,-9.642615E-2,-9.501388E-2,1.959915E-2,6.622653E-3,1.3123718E-1,-3.78533E-2,9.2320524E-2,1.1166291E-3,-1.20029606E-1,1.0763873E-2,4.9603116E-2],"categories":[],"categories_nodes":[],"categories_segments":[],"categories_sizes":[],"default_left":[0,0,0,0,0,0,0,0,0,0,0,0,0,0,0,0,0,0,0,0,0,0,0,0,0,0,0,0,0],"id":7,"left_children":[1,3,5,7,9,11,13,-1,15,17,19,21,23,25,27,-1,-1,-1,-1,-1,-1,-1,-1,-1,-1,-1,-1,-1,-1],"loss_changes":[4.108976E0,4.4153857E0,5.3893385E0,4.8278975E0,4.620759E0,5.148444E-1,2.592917E0,0E0,1.3859326E0,3.5463762E0,5.5759983E0,1.4250002E0,1.7509263E0,1.1278012E0,3.1153262E-2,0E0,0E0,0E0,0E0,0E0,0E0,0E0,0E0,0E0,0E0,0E0,0E0,0E0,0E0],"parents":[2147483647,0,0,1,1,2,2,3,3,4,4,5,5,6,6,8,8,9,9,10,10,11,11,12,12,13,13,14,14],"right_children":[2,4,6,8,10,12,14,-1,16,18,20,22,24,26,28,-1,-1,-1,-1,-1,-1,-1,-1,-1,-1,-1,-1,-1,-1],"split_conditions":[6.04649E1,3.41768E1,6.79499E1,7.567E-1,6.41E-4,6.51297E1,1.0271E0,1.2648606E-1,1.1115E0,1.633E0,7.88E-4,1.99705E0,6.61295E1,5.305E-1,4.27949E1,-7.590768E-2,3.280833E-2,4.5300156E-2,-9.642615E-2,-9.501388E-2,1.959915E-2,6.622653E-3,1.3123718E-1,-3.78533E-2,9.2320524E-2,1.1166291E-3,-1.20029606E-1,1.0763873E-2,4.9603116E-2],"split_indices":[0,0,0,4,2,0,4,0,4,4,2,1,0,4,3,0,0,0,0,0,0,0,0,0,0,0,0,0,0],"split_type":[0,0,0,0,0,0,0,0,0,0,0,0,0,0,0,0,0,0,0,0,0,0,0,0,0,0,0,0,0],"sum_hessian":[4.7479477E1,3.4930954E1,1.2548524E1,5.9420767E0,2.8988876E1,7.7229133E0,4.8256106E0,2.9083383E0,3.0337381E0,9.367862E0,1.9621014E1,5.3973594E0,2.325554E0,2.7781723E0,2.0474384E0,1.7518783E0,1.28186E0,8.154082E0,1.2137799E0,1.41396475E1,5.481367E0,1.2510866E0,4.1462727E0,1.2519342E0,1.0736198E0,1.0433089E0,1.7348634E0,1.0174441E0,1.0299944E0],"tree_param":{"num_deleted":"0","num_feature":"9","num_nodes":"29","size_leaf_vector":"1"}},{"base_weights":[2.2326102E-2,-6.51649E-2,9.2167526E-1,-1.430151E-1,8.7237763E-1,3.6430924E-4,1.2012198E-1,1.0860973E-1,-2.0971917E-1,1.1100538E-1,1.2766267E-2,-1.1664616E-2,-9.537215E-2],"categories":[],"categories_nodes":[],"categories_segments":[],"categories_sizes":[],"default_left":[0,0,0,0,0,0,0,0,0,0,0,0,0],"id":8,"left_children":[1,3,5,7,9,-1,-1,-1,11,-1,-1,-1,-1],"loss_changes":[3.8865843E0,3.427712E0,1.1190362E0,3.723935E0,4.9733663E-1,0E0,0E0,0E0,2.7476654E0,0E0,0E0,0E0,0E0],"parents":[2147483647,0,0,1,1,2,2,3,3,4,4,8,8],"right_children":[2,4,6,8,10,-1,-1,-1,12,-1,-1,-1,-1],"split_conditions":[9.658E-1,1.4E1,3.23452E-1,-3.58E-2,1.599E-1,3.6430924E-4,1.2012198E-1,1.0860973E-1,6.57789E-1,1.1100538E-1,1.2766267E-2,-1.1664616E-2,-9.537215E-2],"split_indices":[6,8,7,6,6,0,0,0,7,0,0,0,0],"split_type":[0,0,0,0,0,0,0,0,0,0,0,0,0],"sum_hessian":[4.7630936E1,4.4253395E1,3.3775423E0,4.1642967E1,2.6104267E0,1.0248705E0,2.3526716E0,1.3569531E0,4.0286015E1,1.6069822E0,1.0034444E0,3.6834843E1,3.4511733E0],"tree_param":{"num_deleted":"0","num_feature":"9","num_nodes":"13","size_leaf_vector":"1"}},{"base_weights":[8.1540294E-2,1.6630147E-1,-6.89954E-1,-3.3832237E-2,5.766833E-1,-1.0186342E-1,1.8845709E-2,-2.93093E-1,3.885446E-1,9.1490364E-1,1.18774936E-1,1.0994398E-2,-7.460113E-2,-6.598671E-2,5.869732E-2,1.4889616E-1,2.9030284E-2,-7.426803E-2,4.953918E-2],"categories":[],"categories_nodes":[],"categories_segments":[],"categories_sizes":[],"default_left":[0,0,0,0,0,0,0,0,0,0,0,0,0,0,0,0,0,0,0],"id":9,"left_children":[1,3,5,7,9,-1,-1,11,13,15,17,-1,-1,-1,-1,-1,-1,-1,-1],"loss_changes":[3.399316E0,3.8026452E0,1.6835806E0,3.607879E0,2.2384572E0,0E0,0E0,3.795158E0,3.0014496E0,2.6397E0,2.8296072E0,0E0,0E0,0E0,0E0,0E0,0E0,0E0,0E0],"parents":[2147483647,0,0,1,1,2,2,3,3,4,4,7,7,8,8,9,9,10,10],"right_children":[2,4,6,8,10,-1,-1,12,14,16,18,-1,-1,-1,-1,-1,-1,-1,-1],"split_conditions":[7.30341E-1,2.319561E0,9.852E-1,6.682E-1,9.169E-1,-1.0186342E-1,1.8845709E-2,-1.98023E-1,2.95247E1,8.14E-4,1.1115E0,1.0994398E-2,-7.460113E-2,-6.598671E-2,5.869732E-2,1.4889616E-1,2.9030284E-2,-7.426803E-2,4.953918E-2],"split_indices":[7,1,4,6,4,0,0,7,3,2,4,0,0,0,0,0,0,0,0],"split_type":[0,0,0,0,0,0,0,0,0,0,0,0,0,0,0,0,0,0,0],"sum_hessian":[4.9228428E1,4.506207E1,4.1663575E0,3.0907E1,1.4155068E1,2.9157293E0,1.2506284E0,1.9341194E1,1.1565806E1,7.5675316E0,6.5875373E0,1.0634849E1,8.706345E0,1.4705558E0,1.009525E1,3.222206E0,4.3453255E0,1.7082319E0,4.8793054E0],"tree_param":{"num_deleted":"0","num_feature":"9","num_nodes":"19","size_leaf_vector":"1"}},{"base_weights":[2.35186E-2,-1.6381158E-1,5.3413564E-1,-2.2532439E-2,-8.630289E-1,8.236089E-1,-4.7738633E-1,-1.2753823E-1,1.2212048E-1,-1.1039739E-1,-1.3196036E-1,9.438427E-1,4.5134467E-3,7.6201498E-3,-9.036651E-2,1.0208676E-1,-2.1359038E-2,3.4835145E-2,-5.3288646E-2,3.3585634E-2,1.0164881E-1],"categories":[],"categories_nodes":[],"categories_segments":[],"categories_sizes":[],"default_left":[0,0,0,0,0,0,0,0,0,0,0,0,0,0,0,0,0,0,0,0,0],"id":10,"left_children":[1,3,5,7,9,11,13,15,-1,17,-1,19,-1,-1,-1,-1,-1,-1,-1,-1,-1],"loss_changes":[4.96843E0,3.743914E0,4.472127E0,4.428931E0,2.04561E0,1.0055046E0,9.496896E-1,3.2892385E0,0E0,8.638107E-1,0E0,8.479977E-2,0E0,0E0,0E0,0E0,0E0,0E0,0E0,0E0,0E0],"parents":[2147483647,0,0,1,1,2,2,3,3,4,4,5,5,6,6,7,7,9,9,11,11],"right_children":[2,4,6,8,10,12,14,16,-1,18,-1,20,-1,-1,-1,-1,-1,-1,-1,-1,-1],"split_conditions":[6.01358E1,7.15E-1,7.82933E-1,6.682E-1,5.8649E1,6.98571E1,8.91E-1,-3.58E-2,1.2212048E-1,5E0,-1.3196036E-1,1.50925E-1,4.5134467E-3,7.6201498E-3,-9.036651E-2,1.0208676E-1,-2.1359038E-2,3.4835145E-2,-5.3288646E-2,3.3585634E-2,1.0164881E-1],"split_indices":[0,6,7,6,0,0,6,6,0,8,0,7,0,0,0,0,0,0,0,0,0],"split_type":[0,0,0,0,0,0,0,0,0,0,0,0,0,0,0,0,0,0,0,0,0],"sum_hessian":[5.0026974E1,3.7096546E1,1.2930427E1,3.1719702E1,5.376844E0,1.0197827E1,2.7325995E0,3.0077763E1,1.6419388E0,2.49908E0,2.8777637E0,8.649503E0,1.5483251E0,1.5460539E0,1.1865457E0,1.3394058E0,2.8738358E1,1.2822548E0,1.2168251E0,1.523361E0,7.1261415E0],"tree_param":{"num_deleted":"0","num_feature":"9","num_nodes":"21","size_leaf_vector":"1"}},{"base_weights":[1.066239E-1,-4.9344577E-2,5.467755E-1,1.8839264E-1,-3.4707642E-1,9.561856E-1,3.2300416E-2,-6.0131077E-2,9.8522E-1,-9.558674E-1,-1.1930579E-2,2.770412E-2,1.1434693E0,-5.692218E-1,8.7383814E-2,-5.520001E-2,3.016527E-2,6.4115934E-3,1.21399246E-1,-3.0957554E-2,-1.1182077E-1,2.364046E-2,-6.511221E-2,1.3622719E-1,1.4774241E-2,1.725698E-2,-8.451982E-2],"categories":[],"categories_nodes":[],"categories_segments":[],"categories_sizes":[],"default_left":[0,0,0,0,0,0,0,0,0,0,0,0,0,0,0,0,0,0,0,0,0,0,0,0,0,0,0],"id":11,"left_children":[1,3,5,7,9,11,13,15,17,19,21,-1,23,25,-1,-1,-1,-1,-1,-1,-1,-1,-1,-1,-1,-1,-1],"loss_changes":[3.1859336E0,2.5351987E0,2.5224376E0,4.0296626E0,3.2212484E0,5.373664E-1,3.7405562E0,3.0538268E0,9.387212E-1,2.4270868E-1,1.9366703E0,0E0,8.7589407E-1,1.0346859E0,0E0,0E0,0E0,0E0,0E0,0E0,0E0,0E0,0E0,0E0,0E0,0E0,0E0],"parents":[2147483647,0,0,1,1,2,2,3,3,4,4,5,5,6,6,7,7,8,8,9,9,10,10,12,12,13,13],"right_children":[2,4,6,8,10,12,14,16,18,20,22,-1,24,26,-1,-1,-1,-1,-1,-1,-1,-1,-1,-1,-1,-1,-1],"split_conditions":[1.3E1,2.617E-3,4.295E-1,2.521E-3,3.335E-3,-7.59528E-1,6.04649E1,4.73901E1,-4.69486E-1,3.68455E1,7.82933E-1,2.770412E-2,2.9123E-2,1.863E-3,8.7383814E-2,-5.520001E-2,3.016527E-2,6.4115934E-3,1.21399246E-1,-3.0957554E-2,-1.1182077E-1,2.364046E-2,-6.511221E-2,1.3622719E-1,1.4774241E-2,1.725698E-2,-8.451982E-2],"split_indices":[8,5,6,5,5,7,0,0,7,3,7,0,7,5,0,0,0,0,0,0,0,0,0,0,0,0,0],"split_type":[0,0,0,0,0,0,0,0,0,0,0,0,0,0,0,0,0,0,0,0,0,0,0,0,0,0,0],"sum_hessian":[4.501549E1,3.3893253E1,1.112224E1,1.904954E1,1.4843712E1,5.7154346E0,5.406806E0,1.5225403E1,3.8241374E0,4.6126885E0,1.0231023E1,1.7713331E0,3.9441013E0,3.341751E0,2.065055E0,6.2298007E0,8.995602E0,1.01554E0,2.8085976E0,1.5096366E0,3.1030517E0,7.822154E0,2.4088693E0,2.9317548E0,1.0123464E0,1.0077455E0,2.3340056E0],"tree_param":{"num_deleted":"0","num_feature":"9","num_nodes":"27","size_leaf_vector":"1"}},{"base_weights":[2.6033465E-2,-1.463062E-1,5.367044E-1,7.406146E-1,-2.229997E-1,8.685751E-1,7.882256E-2,9.972416E-2,1.0138887E-2,9.034843E-2,-2.8707513E-1,-2.895457E-2,1.2184419E-1,-3.1355992E-1,5.362295E-1,-5.169296E-2,9.798869E-3,-9.802895E-2,4.3686997E-2,8.281628E-2,2.6576673E-3],"categories":[],"categories_nodes":[],"categories_segments":[],"categories_sizes":[],"default_left":[0,0,0,0,0,0,0,0,0,0,0,0,0,0,0,0,0,0,0,0,0],"id":12,"left_children":[1,3,5,7,9,11,13,-1,-1,-1,15,-1,-1,17,19,-1,-1,-1,-1,-1,-1],"loss_changes":[4.2225885E0,2.6133409E0,1.769515E0,4.0676153E-1,2.70595E0,3.1537862E0,1.2777702E0,0E0,0E0,0E0,2.9564114E0,0E0,0E0,2.4089878E0,4.5762873E-1,0E0,0E0,0E0,0E0,0E0,0E0],"parents":[2147483647,0,0,1,1,2,2,3,3,4,4,5,5,6,6,10,10,13,13,14,14],"right_children":[2,4,6,8,10,12,14,-1,-1,-1,16,-1,-1,18,20,-1,-1,-1,-1,-1,-1],"split_conditions":[6.04649E1,6.07E-4,6.55704E1,4.03633E1,-3.58E-2,1.99705E0,9.589E-1,9.972416E-2,1.0138887E-2,9.034843E-2,2.314507E0,-2.895457E-2,1.2184419E-1,7.47346E1,4.11068E1,-5.169296E-2,9.798869E-3,-9.802895E-2,4.3686997E-2,8.281628E-2,2.6576673E-3],"split_indices":[0,2,0,0,6,1,6,0,0,0,1,0,0,0,3,0,0,0,0,0,0],"split_type":[0,0,0,0,0,0,0,0,0,0,0,0,0,0,0,0,0,0,0,0,0],"sum_hessian":[4.6086906E1,3.499156E1,1.1095343E1,2.0959678E0,3.2895596E1,5.9128184E0,5.182524E0,1.0959175E0,1.0000503E0,1.0653735E0,3.1830223E1,1.4118285E0,4.50099E0,2.958815E0,2.2237093E0,1.9717745E1,1.2112478E1,1.4045869E0,1.5542281E0,1.016497E0,1.2072123E0],"tree_param":{"num_deleted":"0","num_feature":"9","num_nodes":"21","size_leaf_vector":"1"}},{"base_weights":[3.607545E-2,3.291669E-1,-1.1843678E-1,4.4410372E-1,-5.694553E-2,-4.552694E-1,1.7972359E-1,-2.1045688E-3,9.401785E-1,-9.8021317E-1,-1.7985699E-1,-7.059803E-2,3.5270786E-1,6.552199E-2,-7.1973406E-2,1.5611054E-2,1.1690171E-1,-2.6414499E-2,-1.22165345E-1,4.2535104E-2,-7.272902E-2,6.2259514E-2,7.6725455E-3],"categories":[],"categories_nodes":[],"categories_segments":[],"categories_sizes":[],"default_left":[0,0,0,0,0,0,0,0,0,0,0,0,0,0,0,0,0,0,0,0,0,0,0],"id":13,"left_children":[1,3,5,7,-1,9,11,13,15,17,19,-1,21,-1,-1,-1,-1,-1,-1,-1,-1,-1,-1],"loss_changes":[2.1069336E0,1.9083196E0,3.1586223E0,3.2718122E0,0E0,1.9443784E0,2.8487167E0,4.61073E0,1.0730095E0,5.111098E-1,3.9025671E0,0E0,1.0592399E0,0E0,0E0,0E0,0E0,0E0,0E0,0E0,0E0,0E0,0E0],"parents":[2147483647,0,0,1,1,2,2,3,3,5,5,6,6,7,7,8,8,9,9,10,10,12,12],"right_children":[2,4,6,8,-1,10,12,14,16,18,20,-1,22,-1,-1,-1,-1,-1,-1,-1,-1,-1,-1],"split_conditions":[7.933E-1,8.941E-3,3.91517E1,7.35E-4,-5.694553E-2,1.0662E0,8.874E-1,2.041842E0,3.306E-3,2E0,1.4192E0,-7.059803E-2,2.686E-3,6.552199E-2,-7.1973406E-2,1.5611054E-2,1.1690171E-1,-2.6414499E-2,-1.22165345E-1,4.2535104E-2,-7.272902E-2,6.2259514E-2,7.6725455E-3],"split_indices":[4,5,3,2,0,4,4,1,5,8,4,0,5,0,0,0,0,0,0,0,0,0,0],"split_type":[0,0,0,0,0,0,0,0,0,0,0,0,0,0,0,0,0,0,0,0,0,0,0],"sum_hessian":[4.4663967E1,1.5027748E1,2.963622E1,1.3772051E1,1.2556973E0,1.3668242E1,1.59679785E1,7.7746673E0,5.997383E0,3.822801E0,9.845441E0,2.1056373E0,1.3862341E1,4.103221E0,3.671446E0,1.7349889E0,4.2623944E0,1.4919591E0,2.330842E0,4.78189E0,5.063551E0,6.37359E0,7.488751E0],"tree_param":{"num_deleted":"0","num_feature":"9","num_nodes":"23","size_leaf_vector":"1"}},{"base_weights":[3.6313217E-2,-1.8989582E-2,8.289199E-2,-1.3482134E-1,3.40723E-1,-3.8033098E-2,-8.4391254E-1,6.343967E-1,-1.8562444E-2,-1.7629726E-2,9.810272E-2,-1.1379351E-1,-1.2615194E-2,-1.5955439E-2,1.05471246E-1,5.7529457E-2,-3.0823642E-2],"categories":[],"categories_nodes":[],"categories_segments":[],"categories_sizes":[],"default_left":[0,0,0,0,0,0,0,0,0,0,0,0,0,0,0,0,0],"id":14,"left_children":[1,3,-1,5,7,9,11,13,15,-1,-1,-1,-1,-1,-1,-1,-1],"loss_changes":[2.011023E0,1.8595973E0,0E0,2.276836E0,1.1603906E0,4.4913845E0,6.9919324E-1,2.176679E0,1.1867095E0,0E0,0E0,0E0,0E0,0E0,0E0,0E0,0E0],"parents":[2147483647,0,0,1,1,3,3,4,4,5,5,6,6,7,7,8,8],"right_children":[2,4,-1,6,8,10,12,14,16,-1,-1,-1,-1,-1,-1,-1,-1],"split_conditions":[6.01512E1,6.01358E1,8.289199E-2,8.38E-4,6.50232E1,2.482766E0,2.902324E0,3.80689E1,2.12272E0,-1.7629726E-2,9.810272E-2,-1.1379351E-1,-1.2615194E-2,-1.5955439E-2,1.05471246E-1,5.7529457E-2,-3.0823642E-2],"split_indices":[3,0,0,2,0,1,1,3,1,0,0,0,0,0,0,0,0],"split_type":[0,0,0,0,0,0,0,0,0,0,0,0,0,0,0,0,0],"sum_hessian":[4.4519707E1,4.25284E1,1.9913061E0,3.2642365E1,9.886036E0,2.9649023E1,2.9933422E0,5.018381E0,4.8676543E0,2.683509E1,2.8139336E0,1.7082009E0,1.2851412E0,1.9518493E0,3.0665317E0,1.2726347E0,3.5950198E0],"tree_param":{"num_deleted":"0","num_feature":"9","num_nodes":"17","size_leaf_vector":"1"}},{"base_weights":[-1.4971264E-3,1.219963E-1,-4.1719076E-1,5.0270563E-1,-1.328248E-1,4.8746616E-2,-5.817875E-1,4.929745E-3,7.2979105E-1,-2.5793883E-1,4.6115336E-1,-9.8964196E-1,-2.1180657E-1,3.8545925E-2,-8.127798E-2,2.6233394E-2,1.0237794E-1,-8.500525E-3,-9.879039E-2,-2.8323043E-2,8.822067E-2,-1.2227936E-1,-1.7340895E-2,5.6791395E-2,-5.596263E-2],"categories":[],"categories_nodes":[],"categories_segments":[],"categories_sizes":[],"default_left":[0,0,0,0,0,0,0,0,0,0,0,0,0,0,0,0,0,0,0,0,0,0,0,0,0],"id":15,"left_children":[1,3,5,7,9,-1,11,13,15,17,19,21,23,-1,-1,-1,-1,-1,-1,-1,-1,-1,-1,-1,-1],"loss_changes":[2.423645E0,3.5988197E0,1.8936124E0,1.6701632E0,1.7985399E0,0E0,1.2396007E0,2.06999E0,1.1278944E0,2.353623E0,1.5947809E0,6.054802E-1,2.0285804E0,0E0,0E0,0E0,0E0,0E0,0E0,0E0,0E0,0E0,0E0,0E0,0E0],"parents":[2147483647,0,0,1,1,2,2,3,3,4,4,6,6,7,7,8,8,9,9,10,10,11,11,12,12],"right_children":[2,4,6,8,10,-1,12,14,16,18,20,22,24,-1,-1,-1,-1,-1,-1,-1,-1,-1,-1,-1,-1],"split_conditions":[4.95229E1,-1.87921E-1,5.046E-1,3E0,3.335E-3,4.8746616E-2,5.41946E1,1.2262E0,-5.22999E-1,2.686E-3,2.469655E0,-1.38675E-1,-7.40688E-1,3.8545925E-2,-8.127798E-2,2.6233394E-2,1.0237794E-1,-8.500525E-3,-9.879039E-2,-2.8323043E-2,8.822067E-2,-1.2227936E-1,-1.7340895E-2,5.6791395E-2,-5.596263E-2],"split_indices":[3,7,4,8,5,0,3,4,7,5,1,7,7,0,0,0,0,0,0,0,0,0,0,0,0],"split_type":[0,0,0,0,0,0,0,0,0,0,0,0,0,0,0,0,0,0,0,0,0,0,0,0,0],"sum_hessian":[4.5220505E1,3.540807E1,9.812434E0,1.380711E1,2.160096E1,1.2085305E0,8.603904E0,4.6455894E0,9.16152E0,1.8309944E1,3.2910166E0,3.295838E0,5.3080654E0,3.5310092E0,1.1145802E0,4.2678065E0,4.893713E0,1.5705627E1,2.604317E0,1.307249E0,1.9837675E0,2.1761436E0,1.1196946E0,1.442215E0,3.8658504E0],"tree_param":{"num_deleted":"0","num_feature":"9","num_nodes":"25","size_leaf_vector":"1"}},{"base_weights":[1.0511356E-2,-1.6550775E-1,5.0027424E-1,1.240685E-2,-6.617465E-1,1.0053235E-1,2.8733002E-2,5.501383E-1,-2.2556102E-1,4.3391105E-2,-9.099723E-1,4.4407237E-1,-2.5886133E-1,-1.9181928E-2,7.149065E-2,4.999521E-2,-3.557645E-2,-1.17254786E-1,-8.929179E-3,-1.786629E-2,8.9726605E-2,1.8028704E-2,-8.77183E-2],"categories":[],"categories_nodes":[],"categories_segments":[],"categories_sizes":[],"default_left":[0,0,0,0,0,0,0,0,0,0,0,0,0,0,0,0,0,0,0,0,0,0,0],"id":16,"left_children":[1,3,5,7,9,-1,11,13,15,-1,17,19,21,-1,-1,-1,-1,-1,-1,-1,-1,-1,-1],"loss_changes":[3.8131006E0,2.8848615E0,2.7547698E0,3.3187244E0,2.7384717E0,0E0,9.5996606E-1,1.1089809E0,1.8797085E0,0E0,1.478816E0,1.0810708E0,1.4646808E0,0E0,0E0,0E0,0E0,0E0,0E0,0E0,0E0,0E0,0E0],"parents":[2147483647,0,0,1,1,2,2,3,3,4,4,6,6,7,7,8,8,10,10,11,11,12,12],"right_children":[2,4,6,8,10,-1,12,14,16,-1,18,20,22,-1,-1,-1,-1,-1,-1,-1,-1,-1,-1],"split_conditions":[6.01358E1,5.33384E1,6.51297E1,6.47E-4,2E0,1.0053235E-1,8.838E-1,3.38966E1,2.95003E1,4.3391105E-2,2.558E-3,7.0553E1,5.672E-3,-1.9181928E-2,7.149065E-2,4.999521E-2,-3.557645E-2,-1.17254786E-1,-8.929179E-3,-1.786629E-2,8.9726605E-2,1.8028704E-2,-8.77183E-2],"split_indices":[0,0,0,2,8,0,6,0,0,0,5,0,5,0,0,0,0,0,0,0,0,0,0],"split_type":[0,0,0,0,0,0,0,0,0,0,0,0,0,0,0,0,0,0,0,0,0,0,0],"sum_hessian":[4.227113E1,3.1582539E1,1.0688591E1,2.3965336E1,7.617203E0,4.614349E0,6.074242E0,6.9496126E0,1.7015722E1,1.2687868E0,6.3484163E0,2.262574E0,3.811668E0,1.2330346E0,5.7165775E0,2.1569734E0,1.4858749E1,4.4847703E0,1.8636461E0,1.2081792E0,1.0543947E0,2.6429794E0,1.1686885E0],"tree_param":{"num_deleted":"0","num_feature":"9","num_nodes":"23","size_leaf_vector":"1"}},{"base_weights":[-6.7874834E-2,6.801999E-3,-8.1494E-1,-9.9483E-2,4.4864935E-1,-1.4710288E-2,-1.0393299E-1,-2.9727109E-2,-9.969694E-2,-1.2600602E-1,8.294228E-1,-1.7932221E-2,3.50991E-2,2.502484E-2,-4.395589E-2,1.07435934E-1,1.9168174E-3],"categories":[],"categories_nodes":[],"categories_segments":[],"categories_sizes":[],"default_left":[0,0,0,0,0,0,0,0,0,0,0,0,0,0,0,0,0],"id":17,"left_children":[1,3,5,7,9,-1,-1,11,-1,13,15,-1,-1,-1,-1,-1,-1],"loss_changes":[2.4586332E0,1.9685172E0,4.471681E-1,2.0890331E0,1.8824084E0,0E0,0E0,1.9100584E0,0E0,5.9444135E-1,9.754565E-1,0E0,0E0,0E0,0E0,0E0,0E0],"parents":[2147483647,0,0,1,1,2,2,3,3,4,4,7,7,9,9,10,10],"right_children":[2,4,6,8,10,-1,-1,12,-1,14,16,-1,-1,-1,-1,-1,-1],"split_conditions":[6.79499E1,6.00986E1,6.05618E-1,8.805E-1,3.91517E1,-1.4710288E-2,-1.0393299E-1,1.3E1,-9.969694E-2,6.45E-4,6.50232E1,-1.7932221E-2,3.50991E-2,2.502484E-2,-4.395589E-2,1.07435934E-1,1.9168174E-3],"split_indices":[0,0,7,6,3,0,0,8,0,2,0,0,0,0,0,0,0],"split_type":[0,0,0,0,0,0,0,0,0,0,0,0,0,0,0,0,0],"sum_hessian":[4.2971275E1,3.9967052E1,3.0042226E0,3.284189E1,7.1251655E0,1.1719103E0,1.8323122E0,3.1432003E1,1.4098861E0,3.106292E0,4.018873E0,2.2945173E1,8.48683E0,1.5037404E0,1.6025517E0,2.8357005E0,1.183173E0],"tree_param":{"num_deleted":"0","num_feature":"9","num_nodes":"17","size_leaf_vector":"1"}},{"base_weights":[1.2501396E-1,7.815461E-1,-9.130811E-3,-1.8868506E-3,1.0248066E0,-6.81271E-1,2.0862181E-1,1.1726086E0,1.5738795E-2,1.8187362E-1,-9.6795166E-1,8.5205966E-1,-3.6938604E-2,3.6775455E-2,1.3521908E-1,8.101518E-2,-4.705499E-2,-1.22022405E-1,2.6244292E-2,1.1271524E-1,2.5806556E-2,8.2076594E-2,-2.047109E-2],"categories":[],"categories_nodes":[],"categories_segments":[],"categories_sizes":[],"default_left":[0,0,0,0,0,0,0,0,0,0,0,0,0,0,0,0,0,0,0,0,0,0,0],"id":18,"left_children":[1,3,5,-1,7,9,11,13,-1,15,17,19,21,-1,-1,-1,-1,-1,-1,-1,-1,-1,-1],"loss_changes":[3.9824038E0,1.5126548E0,5.772306E0,0E0,5.71856E-1,2.5632524E0,4.74321E0,2.0893049E-1,0E0,1.7122374E0,2.6172218E0,1.0618777E0,3.4117835E0,0E0,0E0,0E0,0E0,0E0,0E0,0E0,0E0,0E0,0E0],"parents":[2147483647,0,0,1,1,2,2,4,4,5,5,6,6,7,7,9,9,10,10,11,11,12,12],"right_children":[2,4,6,-1,8,10,12,14,-1,16,18,20,22,-1,-1,-1,-1,-1,-1,-1,-1,-1,-1],"split_conditions":[1.844E-3,-1.1528E-1,2.323E-3,-1.8868506E-3,2.157785E0,3.99433E1,3.57636E1,4.04E-1,1.5738795E-2,-2.70425E-1,6.04649E1,2.889E-3,4.63E-2,3.6775455E-2,1.3521908E-1,8.101518E-2,-4.705499E-2,-1.22022405E-1,2.6244292E-2,1.1271524E-1,2.5806556E-2,8.2076594E-2,-2.047109E-2],"split_indices":[5,7,5,0,1,0,3,6,0,7,0,5,6,0,0,0,0,0,0,0,0,0,0],"split_type":[0,0,0,0,0,0,0,0,0,0,0,0,0,0,0,0,0,0,0,0,0,0,0],"sum_hessian":[4.4137405E1,6.6694765E0,3.746793E1,1.7695278E0,4.899949E0,8.647357E0,2.8820572E1,3.88597E0,1.0139787E0,2.247156E0,6.4002013E0,7.2786336E0,2.1541939E1,1.264874E0,2.6210961E0,1.0216033E0,1.2255526E0,5.3180814E0,1.0821201E0,4.361253E0,2.9173806E0,2.8875806E0,1.8654358E1],"tree_param":{"num_deleted":"0","num_feature":"9","num_nodes":"23","size_leaf_vector":"1"}},{"base_weights":[-3.262281E-2,-8.493944E-2,6.8350516E-2,-2.5101572E-1,1.7440167E-1,5.3555894E-1,-3.480898E-1,6.4744234E-1,-3.060397E-1,1.05491005E-1,-1.9346053E-2,-4.275481E-2,5.516545E-2,1.3588259E-1,9.357288E-4,2.1827286E-2,-6.80517E-2],"categories":[],"categories_nodes":[],"categories_segments":[],"categories_sizes":[],"default_left":[0,0,0,0,0,0,0,0,0,0,0,0,0,0,0,0,0],"id":19,"left_children":[1,3,-1,5,7,9,11,13,15,-1,-1,-1,-1,-1,-1,-1,-1],"loss_changes":[1.7539937E0,1.8990095E0,0E0,2.2227452E0,4.153888E0,1.4624736E0,1.9763443E0,4.11405E0,1.9773355E0,0E0,0E0,0E0,0E0,0E0,0E0,0E0,0E0],"parents":[2147483647,0,0,1,1,3,3,4,4,5,5,6,6,7,7,8,8],"right_children":[2,4,-1,6,8,10,12,14,16,-1,-1,-1,-1,-1,-1,-1,-1],"split_conditions":[1.4E1,6.682E-1,6.8350516E-2,2.75287E1,8.859E-1,6.77E-4,6.01512E1,2.605E-3,6.84E-4,1.05491005E-1,-1.9346053E-2,-4.275481E-2,5.516545E-2,1.3588259E-1,9.357288E-4,2.1827286E-2,-6.80517E-2],"split_indices":[8,6,0,3,6,2,3,5,2,0,0,0,0,0,0,0,0],"split_type":[0,0,0,0,0,0,0,0,0,0,0,0,0,0,0,0,0],"sum_hessian":[4.4266754E1,4.2074406E1,2.192349E0,2.5668787E1,1.6405617E1,2.323649E0,2.3345139E1,8.091328E0,8.314289E0,1.0959044E0,1.2277446E0,2.1933002E1,1.4121364E0,3.2918253E0,4.799503E0,3.6379108E0,4.6763783E0],"tree_param":{"num_deleted":"0","num_feature":"9","num_nodes":"17","size_leaf_vector":"1"}},{"base_weights":[2.1500148E-2,-7.171181E-1,1.2486115E-1,-2.0055398E-1,-1.0986437E-1,3.1327397E-1,-1.0082638E-1,-5.5914085E-2,2.7835755E-2,7.579383E-1,7.415247E-2,-1.00404344E-1,1.7271464E-1,-4.3250475E-2,1.03658974E-1,-4.3332696E-2,4.2903762E-2,6.458395E-2,-7.537721E-3],"categories":[],"categories_nodes":[],"categories_segments":[],"categories_sizes":[],"default_left":[0,0,0,0,0,0,0,0,0,0,0,0,0,0,0,0,0,0,0],"id":20,"left_children":[1,3,5,7,-1,9,11,-1,-1,13,15,-1,17,-1,-1,-1,-1,-1,-1],"loss_changes":[3.549284E0,9.052923E-1,1.7582583E0,7.824008E-1,0E0,2.3228106E0,4.925014E0,0E0,0E0,3.0078177E0,3.0059226E0,0E0,1.8815128E0,0E0,0E0,0E0,0E0,0E0,0E0],"parents":[2147483647,0,0,1,1,2,2,3,3,5,5,6,6,9,9,10,10,12,12],"right_children":[2,4,6,8,-1,10,12,-1,-1,14,16,-1,18,-1,-1,-1,-1,-1,-1],"split_conditions":[2.98416E1,2.86041E1,4.409E-1,2.72211E1,-1.0986437E-1,7.591E-1,6.682E-1,-5.5914085E-2,2.7835755E-2,4.131E-1,1.1115E0,-1.00404344E-1,2.495E-3,-4.3250475E-2,1.03658974E-1,-4.3332696E-2,4.2903762E-2,6.458395E-2,-7.537721E-3],"split_indices":[3,3,6,3,0,4,6,0,0,4,4,0,5,0,0,0,0,0,0],"split_type":[0,0,0,0,0,0,0,0,0,0,0,0,0,0,0,0,0,0,0],"sum_hessian":[4.431763E1,4.7114673E0,3.9606163E1,2.6496515E0,2.0618157E0,2.137412E1,1.823204E1,1.419369E0,1.2302825E0,6.7158375E0,1.4658283E1,3.6173184E0,1.4614723E1,1.1691042E0,5.546733E0,5.9412985E0,8.716985E0,4.475834E0,1.0138889E1],"tree_param":{"num_deleted":"0","num_feature":"9","num_nodes":"19","size_leaf_vector":"1"}},{"base_weights":[-1.8248182E-2,9.343555E-1,-1.0060687E-1,1.1277429E-1,2.8278893E-2,-1.6420706E-1,6.7661417E-1,-3.2766275E-2,-6.655131E-1,8.173214E-2,2.4036666E-2,-9.291903E-2,3.3206183E-3,-1.0323562E-1,3.1444586E-3],"categories":[],"categories_nodes":[],"categories_segments":[],"categories_sizes":[],"default_left":[0,0,0,0,0,0,0,0,0,0,0,0,0,0,0],"id":21,"left_children":[1,3,5,-1,-1,7,9,11,13,-1,-1,-1,-1,-1,-1],"loss_changes":[3.4426057E0,1.2130594E-1,2.0976567E0,0E0,0E0,2.4789891E0,2.1264553E-3,1.8713123E0,2.0349512E0,0E0,0E0,0E0,0E0,0E0,0E0],"parents":[2147483647,0,0,1,1,2,2,5,5,6,6,7,7,8,8],"right_children":[2,4,6,-1,-1,8,10,12,14,-1,-1,-1,-1,-1,-1],"split_conditions":[4.878E-1,3.78616E1,1.4E1,1.1277429E-1,2.8278893E-2,4.95099E1,1.0805E0,1.26E-3,8.23E-1,8.173214E-2,2.4036666E-2,-9.291903E-2,3.3206183E-3,-1.0323562E-1,3.1444586E-3],"split_indices":[4,3,8,0,0,3,4,5,6,0,0,0,0,0,0],"split_type":[0,0,0,0,0,0,0,0,0,0,0,0,0,0,0],"sum_hessian":[4.1681725E1,2.493671E0,3.9188053E1,1.3593833E0,1.1342876E0,3.6952915E1,2.2351406E0,3.0120722E1,6.832192E0,1.0295447E0,1.205596E0,1.167835E0,2.8952887E1,4.1608825E0,2.6713092E0],"tree_param":{"num_deleted":"0","num_feature":"9","num_nodes":"15","size_leaf_vector":"1"}},{"base_weights":[8.495885E-2,7.0957243E-1,3.5871413E-2,2.378109E-2,8.724362E-2,-1.34493E-1,2.3306718E-1,1.2011119E-2,-9.9623464E-2,5.04437E-1,-3.5267796E-2,8.827966E-2,-1.013139E-2,-2.1575816E-2,6.2728964E-2,-8.250406E-2,1.4981781E-2],"categories":[],"categories_nodes":[],"categories_segments":[],"categories_sizes":[],"default_left":[0,0,0,0,0,0,0,0,0,0,0,0,0,0,0,0,0],"id":22,"left_children":[1,3,5,-1,-1,7,9,11,-1,13,15,-1,-1,-1,-1,-1,-1],"loss_changes":[1.3691332E0,4.306674E-2,1.483451E0,0E0,0E0,3.0196588E0,1.5032856E0,2.1962895E0,0E0,1.0385287E0,1.759612E0,0E0,0E0,0E0,0E0,0E0,0E0],"parents":[2147483647,0,0,1,1,2,2,5,5,6,6,7,7,9,9,10,10],"right_children":[2,4,6,-1,-1,8,10,12,-1,14,16,-1,-1,-1,-1,-1,-1],"split_conditions":[6.07E-4,6.04E-4,2.257421E0,2.378109E-2,8.724362E-2,7.08E-4,4.28322E1,2.86041E1,-9.9623464E-2,2.75287E1,4.48553E1,8.827966E-2,-1.013139E-2,-2.1575816E-2,6.2728964E-2,-8.250406E-2,1.4981781E-2],"split_indices":[2,2,1,0,0,2,3,3,0,3,3,0,0,0,0,0,0],"split_type":[0,0,0,0,0,0,0,0,0,0,0,0,0,0,0,0,0],"sum_hessian":[4.4484528E1,2.2608645E0,4.2223663E1,1.2115613E0,1.0493032E0,2.2823557E1,1.9400106E1,2.034994E1,2.4736178E0,9.208043E0,1.0192064E1,1.5614971E0,1.8788443E1,1.2316341E0,7.9764094E0,1.2785954E0,8.913468E0],"tree_param":{"num_deleted":"0","num_feature":"9","num_nodes":"17","size_leaf_vector":"1"}},{"base_weights":[-2.8316759E-2,-1.5250404E-1,3.9387047E-1,-4.4062993E-1,8.129341E-2,7.1397024E-1,-4.097208E-2,3.729527E-1,-5.863218E-1,1.09870434E-1,-4.9507312E-2,6.1252317E-3,1.0424054E-1,-5.0667655E-1,5.170521E-2,4.647341E-2,9.543958E-3,-7.778834E-2,4.3915514E-2,5.224827E-2,-2.3696354E-2,-9.0095304E-2,1.6239187E-2],"categories":[],"categories_nodes":[],"categories_segments":[],"categories_sizes":[],"default_left":[0,0,0,0,0,0,0,0,0,0,0,0,0,0,0,0,0,0,0,0,0,0,0],"id":23,"left_children":[1,3,5,7,9,11,13,15,17,-1,19,-1,-1,21,-1,-1,-1,-1,-1,-1,-1,-1,-1],"loss_changes":[2.414962E0,2.4222815E0,1.4891022E0,2.1181917E0,2.7693863E0,1.2428272E0,1.6633971E0,3.3206165E-2,3.0879173E0,0E0,2.1647263E0,0E0,0E0,1.0549761E0,0E0,0E0,0E0,0E0,0E0,0E0,0E0,0E0,0E0],"parents":[2147483647,0,0,1,1,2,2,3,3,4,4,5,5,6,6,7,7,8,8,10,10,13,13],"right_children":[2,4,6,8,10,12,14,16,18,-1,20,-1,-1,22,-1,-1,-1,-1,-1,-1,-1,-1,-1],"split_conditions":[1.3E1,4.73901E1,4.64637E1,1.900644E0,4.97515E1,-5.32918E-1,3.447E-3,6.06E-4,4.209E-3,1.09870434E-1,2E0,6.1252317E-3,1.0424054E-1,9.013E-1,5.170521E-2,4.647341E-2,9.543958E-3,-7.778834E-2,4.3915514E-2,5.224827E-2,-2.3696354E-2,-9.0095304E-2,1.6239187E-2],"split_indices":[8,0,0,1,0,7,5,2,5,0,8,0,0,4,0,0,0,0,0,0,0,0,0],"split_type":[0,0,0,0,0,0,0,0,0,0,0,0,0,0,0,0,0,0,0,0,0,0,0],"sum_hessian":[4.3914787E1,3.4426834E1,9.487951E0,1.5025336E1,1.9401499E1,5.095273E0,4.3926783E0,2.0450962E0,1.2980241E1,1.3671925E0,1.8034306E1,2.1027853E0,2.992488E0,2.4445624E0,1.9481161E0,1.0298557E0,1.0152404E0,1.1140594E1,1.8396474E0,4.010312E0,1.40239935E1,1.3200747E0,1.1244878E0],"tree_param":{"num_deleted":"0","num_feature":"9","num_nodes":"23","size_leaf_vector":"1"}},{"base_weights":[5.114764E-3,9.080549E-2,-4.147412E-2,-2.0754667E-1,2.6321673E-1,1.2457128E-1,-5.763532E-1,5.836594E-1,-1.0082476E-1,3.8030297E-2,-7.4487664E-2,-8.159689E-2,1.2851842E-2,8.5508466E-2,-3.2981243E-2,-7.735523E-2,2.7857471E-2],"categories":[],"categories_nodes":[],"categories_segments":[],"categories_sizes":[],"default_left":[0,0,0,0,0,0,0,0,0,0,0,0,0,0,0,0,0],"id":24,"left_children":[1,-1,3,5,7,9,11,13,15,-1,-1,-1,-1,-1,-1,-1,-1],"loss_changes":[1.9449632E0,0E0,2.2846763E0,3.6341336E0,1.9239252E0,3.868618E0,2.4623876E0,2.4268208E0,2.3435035E0,0E0,0E0,0E0,0E0,0E0,0E0,0E0,0E0],"parents":[2147483647,0,0,2,2,3,3,4,4,5,5,6,6,7,7,8,8],"right_children":[2,-1,4,6,8,10,12,14,16,-1,-1,-1,-1,-1,-1,-1,-1],"split_conditions":[-3.58E-2,9.080549E-2,2.314507E0,2.054691E0,8.42E-4,1.6388E0,8.63E-1,7.641E-1,5.2372E1,3.8030297E-2,-7.4487664E-2,-8.159689E-2,1.2851842E-2,8.5508466E-2,-3.2981243E-2,-7.735523E-2,2.7857471E-2],"split_indices":[6,0,1,1,2,4,6,6,0,0,0,0,0,0,0,0,0],"split_type":[0,0,0,0,0,0,0,0,0,0,0,0,0,0,0,0,0],"sum_hessian":[4.433966E1,1.2682805E0,4.307138E1,2.808332E1,1.4988059E1,1.51250925E1,1.2958228E1,7.650517E0,7.337542E0,1.2122175E1,3.0029166E0,9.553109E0,3.405119E0,5.9472833E0,1.7032335E0,2.2713103E0,5.0662317E0],"tree_param":{"num_deleted":"0","num_feature":"9","num_nodes":"17","size_leaf_vector":"1"}},{"base_weights":[-2.7079161E-2,-1.6416462E-1,2.8363344E-1,6.81553E-2,-3.8631585E-1,4.7816616E-1,-9.2939734E-2,-4.791605E-1,4.2674506E-1,5.041059E-1,-6.242126E-1,-1.2298427E-1,8.221388E-1,-4.9493352E-1,6.1625905E-2,-8.70155E-2,8.100939E-2,9.090383E-2,7.714157E-3,-5.155434E-2,1.1605886E-1,-3.499531E-2,-1.0004022E-1,-7.7253155E-2,5.8778573E-2,-4.7725043E-3,1.05255045E-1,-1.4035064E-2,-7.6898016E-2],"categories":[],"categories_nodes":[],"categories_segments":[],"categories_sizes":[],"default_left":[0,0,0,0,0,0,0,0,0,0,0,0,0,0,0,0,0,0,0,0,0,0,0,0,0,0,0,0,0],"id":25,"left_children":[1,3,5,7,9,11,13,15,17,19,21,23,25,27,-1,-1,-1,-1,-1,-1,-1,-1,-1,-1,-1,-1,-1,-1,-1],"loss_changes":[1.9141961E0,1.6292129E0,1.0546114E0,3.3508193E0,3.7094696E0,2.014911E0,1.8828151E0,4.141221E0,1.6521555E0,3.2304869E0,1.0008574E0,2.41081E0,1.2561998E0,2.8919613E-1,0E0,0E0,0E0,0E0,0E0,0E0,0E0,0E0,0E0,0E0,0E0,0E0,0E0,0E0,0E0],"parents":[2147483647,0,0,1,1,2,2,3,3,4,4,5,5,6,6,7,7,8,8,9,9,10,10,11,11,12,12,13,13],"right_children":[2,4,6,8,10,12,14,16,18,20,22,24,26,28,-1,-1,-1,-1,-1,-1,-1,-1,-1,-1,-1,-1,-1,-1,-1],"split_conditions":[7.57E-4,2.054691E0,3.94232E-1,3E0,2E0,-5.93176E-1,1.3E1,1.56172E-1,1.946E-3,2.117021E0,4.31812E1,3.956E-3,2.001E-3,4.70805E1,6.1625905E-2,-8.70155E-2,8.100939E-2,9.090383E-2,7.714157E-3,-5.155434E-2,1.1605886E-1,-3.499531E-2,-1.0004022E-1,-7.7253155E-2,5.8778573E-2,-4.7725043E-3,1.05255045E-1,-1.4035064E-2,-7.6898016E-2],"split_indices":[2,1,7,8,8,7,8,7,5,1,3,5,5,3,0,0,0,0,0,0,0,0,0,0,0,0,0,0,0],"split_type":[0,0,0,0,0,0,0,0,0,0,0,0,0,0,0,0,0,0,0,0,0,0,0,0,0,0,0,0,0],"sum_hessian":[4.2847153E1,3.0057518E1,1.2789636E1,1.5031341E1,1.5026177E1,8.255282E0,4.534353E0,5.816847E0,9.214494E0,2.9322124E0,1.2093966E1,3.2382867E0,5.0169954E0,3.0867941E0,1.4475586E0,4.712692E0,1.1041553E0,3.1998973E0,6.0145965E0,1.2325319E0,1.6996806E0,8.11096E0,3.9830055E0,1.6466124E0,1.5916742E0,1.2166598E0,3.800336E0,2.0048738E0,1.0819205E0],"tree_param":{"num_deleted":"0","num_feature":"9","num_nodes":"29","size_leaf_vector":"1"}},{"base_weights":[9.593233E-2,8.91497E-3,9.091384E-2,-8.794401E-2,7.89138E-2,1.3179622E-2,-7.4625355E-1,1.2916739E-2,-6.4684145E-2,-8.70906E-2,-1.5811464E-2],"categories":[],"categories_nodes":[],"categories_segments":[],"categories_sizes":[],"default_left":[0,0,0,0,0,0,0,0,0,0,0],"id":26,"left_children":[1,3,-1,5,-1,7,9,-1,-1,-1,-1],"loss_changes":[2.97267E0,3.0213406E0,0E0,2.3829162E0,0E0,2.5243711E0,2.1156478E-1,0E0,0E0,0E0,0E0],"parents":[2147483647,0,0,1,1,3,3,5,5,6,6],"right_children":[2,4,-1,6,-1,8,10,-1,-1,-1,-1],"split_conditions":[9.658E-1,5.57884E1,9.091384E-2,4.95229E1,7.89138E-2,8.859E-1,5.41946E1,1.2916739E-2,-6.4684145E-2,-8.70906E-2,-1.5811464E-2],"split_indices":[6,3,0,3,0,6,3,0,0,0,0],"split_type":[0,0,0,0,0,0,0,0,0,0,0],"sum_hessian":[4.112333E1,3.8061512E1,3.0618207E0,3.4647552E1,3.4139569E0,3.0883488E1,3.7640657E0,2.6951506E1,3.9319825E0,2.709105E0,1.0549607E0],"tree_param":{"num_deleted":"0","num_feature":"9","num_nodes":"11","size_leaf_vector":"1"}},{"base_weights":[7.780651E-2,7.9393363E-1,1.31536815E-2,2.0603858E-2,9.788749E-2,-7.413105E-1,8.229517E-2,-6.39273E-3,-1.035579E-1,-3.2398034E-2,4.168376E-1,4.2942118E-2,-2.1822708E-2,1.0544286E-1,9.388827E-3],"categories":[],"categories_nodes":[],"categories_segments":[],"categories_sizes":[],"default_left":[0,0,0,0,0,0,0,0,0,0,0,0,0,0,0],"id":27,"left_children":[1,3,5,-1,-1,7,9,-1,-1,11,13,-1,-1,-1,-1],"loss_changes":[2.050585E0,1.9725561E-1,2.2438807E0,0E0,0E0,6.5395916E-1,1.5188607E0,0E0,0E0,2.6806798E0,1.9783344E0,0E0,0E0,0E0,0E0],"parents":[2147483647,0,0,1,1,2,2,5,5,6,6,9,9,10,10],"right_children":[2,4,6,-1,-1,8,10,-1,-1,12,14,-1,-1,-1,-1],"split_conditions":[1.900644E0,1.874922E0,1.91433E0,2.0603858E-2,9.788749E-2,4.04E-1,8.548E-1,-6.39273E-3,-1.035579E-1,6.711E-1,8.966E-1,4.2942118E-2,-2.1822708E-2,1.0544286E-1,9.388827E-3],"split_indices":[1,1,1,0,0,6,6,0,0,4,6,0,0,0,0],"split_type":[0,0,0,0,0,0,0,0,0,0,0,0,0,0,0],"sum_hessian":[4.351499E1,2.6692364E0,4.0845753E1,1.1446562E0,1.5245802E0,2.6128614E0,3.823289E1,1.1599616E0,1.4528997E0,2.9144325E1,9.088568E0,7.9862328E0,2.1158092E1,2.2941961E0,6.7943716E0],"tree_param":{"num_deleted":"0","num_feature":"9","num_nodes":"15","size_leaf_vector":"1"}},{"base_weights":[7.982726E-2,-6.35696E-2,5.088551E-1,1.8742777E-1,-3.2837906E-1,8.233316E-1,-6.805607E-2,1.24162445E-2,9.613731E-2,9.08918E-2,-4.7174525E-1,1.0038704E-1,3.363129E-1,-6.139663E-2,4.00207E-2,3.1093827E-2,-6.5350845E-2,-6.6051826E-2,2.8862248E-4,5.2498847E-2,-2.629522E-3],"categories":[],"categories_nodes":[],"categories_segments":[],"categories_sizes":[],"default_left":[0,0,0,0,0,0,0,0,0,0,0,0,0,0,0,0,0,0,0,0,0],"id":28,"left_children":[1,3,5,7,9,11,13,15,-1,-1,17,-1,19,-1,-1,-1,-1,-1,-1,-1,-1],"loss_changes":[2.6706328E0,2.256953E0,2.025195E0,2.3711596E0,3.3443503E0,2.867484E-1,1.4606782E0,3.2571232E0,0E0,0E0,1.3806224E0,0E0,2.4807552E-1,0E0,0E0,0E0,0E0,0E0,0E0,0E0,0E0],"parents":[2147483647,0,0,1,1,2,2,3,3,4,4,5,5,6,6,7,7,10,10,12,12],"right_children":[2,4,6,8,10,12,14,16,-1,-1,18,-1,20,-1,-1,-1,-1,-1,-1,-1,-1],"split_conditions":[6.00986E1,-1.87921E-1,6.79499E1,-3.05364E-1,3.584E-1,4.45732E1,2.584101E0,1.2922E0,9.613731E-2,9.08918E-2,1.2278E0,1.0038704E-1,6.49142E1,-6.139663E-2,4.00207E-2,3.1093827E-2,-6.5350845E-2,-6.6051826E-2,2.8862248E-4,5.2498847E-2,-2.629522E-3],"split_indices":[0,7,0,7,4,3,1,4,0,0,4,0,0,0,0,0,0,0,0,0,0],"split_type":[0,0,0,0,0,0,0,0,0,0,0,0,0,0,0,0,0,0,0,0,0],"sum_hessian":[4.1884132E1,3.203027E1,9.853862E0,1.6594004E1,1.5436266E1,6.10103E0,3.752832E0,1.4362309E1,2.231693E0,1.0483997E0,1.4387866E1,3.676783E0,2.4242468E0,1.5890869E0,2.1637452E0,1.0284863E1,4.077446E0,1.0013571E1,4.3742948E0,1.3000044E0,1.1242425E0],"tree_param":{"num_deleted":"0","num_feature":"9","num_nodes":"21","size_leaf_vector":"1"}},{"base_weights":[-6.260952E-3,8.739456E-2,-5.2067988E-2,-1.0315981E-1,7.0698164E-2,-2.3782417E-2,-6.295179E-1,-4.120348E-2,8.414208E-3,-8.044063E-2,6.147035E-3],"categories":[],"categories_nodes":[],"categories_segments":[],"categories_sizes":[],"default_left":[0,0,0,0,0,0,0,0,0,0,0],"id":29,"left_children":[1,-1,3,5,-1,7,9,-1,-1,-1,-1],"loss_changes":[1.8325834E0,0E0,1.7433958E0,1.7076657E0,0E0,1.5794498E0,6.976242E-1,0E0,0E0,0E0,0E0],"parents":[2147483647,0,0,2,2,3,3,5,5,6,6],"right_children":[2,-1,4,6,-1,8,10,-1,-1,-1,-1],"split_conditions":[-3.58E-2,8.739456E-2,1.4E1,1.6388E0,7.0698164E-2,6.535E-1,9.957E-1,-4.120348E-2,8.414208E-3,-8.044063E-2,6.147035E-3],"split_indices":[6,0,8,4,0,4,6,0,0,0,0],"split_type":[0,0,0,0,0,0,0,0,0,0,0],"sum_hessian":[4.3322773E1,1.248739E0,4.2074036E1,4.023022E1,1.843813E0,3.5866554E1,4.363669E0,7.1885037E0,2.867805E1,3.351316E0,1.0123532E0],"tree_param":{"num_deleted":"0","num_feature":"9","num_nodes":"11","size_leaf_vector":"1"}},{"base_weights":[-2.0769412E-2,8.379612E-2,-6.642902E-2,-1.9808207E-1,2.9586068E-1,2.342693E-1,-3.0166155E-1,7.854766E-1,-1.4540558E-1,7.5255625E-2,-1.4435184E-2,-4.600544E-2,1.2966253E-2,-1.5996665E-3,9.840334E-2,2.068727E-2,-6.084724E-2],"categories":[],"categories_nodes":[],"categories_segments":[],"categories_sizes":[],"default_left":[0,0,0,0,0,0,0,0,0,0,0,0,0,0,0,0,0],"id":30,"left_children":[1,-1,3,5,7,9,11,13,15,-1,-1,-1,-1,-1,-1,-1,-1],"loss_changes":[1.7201792E0,0E0,2.0253866E0,1.4519322E0,2.5753963E0,1.3888723E0,1.7894526E0,8.999431E-1,1.2409366E0,0E0,0E0,0E0,0E0,0E0,0E0,0E0,0E0],"parents":[2147483647,0,0,2,2,3,3,4,4,5,5,6,6,7,7,8,8],"right_children":[2,-1,4,6,8,10,12,14,16,-1,-1,-1,-1,-1,-1,-1,-1],"split_conditions":[-3.58E-2,8.379612E-2,6.01358E1,6.2E-4,6.51297E1,4.41567E1,1.3E1,3.29815E1,7.30341E-1,7.5255625E-2,-1.4435184E-2,-4.600544E-2,1.2966253E-2,-1.5996665E-3,9.840334E-2,2.068727E-2,-6.084724E-2],"split_indices":[6,0,0,2,0,0,8,3,7,0,0,0,0,0,0,0,0],"split_type":[0,0,0,0,0,0,0,0,0,0,0,0,0,0,0,0,0],"sum_hessian":[4.1452023E1,1.216711E0,4.023531E1,2.9843634E1,1.0391677E1,5.5240307E0,2.4319603E1,4.5562005E0,5.835477E0,1.9150006E0,3.60903E0,1.7738852E1,6.5807524E0,1.0871918E0,3.469009E0,3.6284142E0,2.2070622E0],"tree_param":{"num_deleted":"0","num_feature":"9","num_nodes":"17","size_leaf_vector":"1"}},{"base_weights":[-7.44885E-2,-2.3544493E-1,1.5165818E-1,-2.6281184E-2,-7.191287E-1,6.3492167E-1,-1.01807415E-1,-7.2193116E-1,1.4117943E-1,1.3536847E-2,-8.9308E-1,1.01516835E-1,1.8732531E-1,5.939793E-1,-3.2198304E-1,-7.3502124E-3,-9.7177766E-2,6.011523E-2,-8.867982E-3,-1.12441294E-1,-1.860829E-2,-3.5886426E-2,7.670023E-2,9.3006946E-2,1.376834E-3,-5.0614446E-2,5.0446745E-2],"categories":[],"categories_nodes":[],"categories_segments":[],"categories_sizes":[],"default_left":[0,0,0,0,0,0,0,0,0,0,0,0,0,0,0,0,0,0,0,0,0,0,0,0,0,0,0],"id":31,"left_children":[1,3,5,7,9,11,13,15,17,-1,19,-1,21,23,25,-1,-1,-1,-1,-1,-1,-1,-1,-1,-1,-1,-1],"loss_changes":[1.6325704E0,2.6136053E0,2.3735046E0,2.338995E0,1.2828951E0,9.370718E-1,2.2174387E0,5.586853E-1,1.7781668E0,0E0,8.746028E-1,0E0,1.6266944E0,6.757084E-1,1.8831751E0,0E0,0E0,0E0,0E0,0E0,0E0,0E0,0E0,0E0,0E0,0E0,0E0],"parents":[2147483647,0,0,1,1,2,2,3,3,4,4,5,5,6,6,7,7,8,8,10,10,12,12,13,13,14,14],"right_children":[2,4,6,8,10,12,14,16,18,-1,20,-1,22,24,26,-1,-1,-1,-1,-1,-1,-1,-1,-1,-1,-1,-1],"split_conditions":[2.257421E0,6.78E-4,1.054E-1,7.1E-2,5.05E-2,3.95131E1,2E0,1.34E-2,3.10594E1,1.3536847E-2,8.63E-1,1.01516835E-1,4.209E-3,3.731E-3,9.307E-1,-7.3502124E-3,-9.7177766E-2,6.011523E-2,-8.867982E-3,-1.12441294E-1,-1.860829E-2,-3.5886426E-2,7.670023E-2,9.3006946E-2,1.376834E-3,-5.0614446E-2,5.0446745E-2],"split_indices":[1,2,6,6,6,3,8,6,3,0,6,0,5,5,6,0,0,0,0,0,0,0,0,0,0,0,0],"split_type":[0,0,0,0,0,0,0,0,0,0,0,0,0,0,0,0,0,0,0,0,0,0,0,0,0,0,0],"sum_hessian":[4.287015E1,2.5020838E1,1.7849314E1,1.8203339E1,6.817499E0,5.623141E0,1.2226174E1,2.8894E0,1.5313938E1,1.1906242E0,5.626875E0,2.3547041E0,3.2684367E0,2.5307827E0,9.695392E0,1.1636243E0,1.7257757E0,4.5645266E0,1.0749412E1,3.7947934E0,1.8320816E0,1.878953E0,1.3894837E0,1.2207009E0,1.3100818E0,8.245565E0,1.4498255E0],"tree_param":{"num_deleted":"0","num_feature":"9","num_nodes":"27","size_leaf_vector":"1"}},{"base_weights":[-7.868436E-2,-2.1665438E-1,2.833569E-1,3.1451885E-2,-3.7928876E-1,6.865616E-2,8.6675294E-2,1.8229273E-1,-8.4000565E-2,-5.525272E-1,-1.5909487E-2,3.2342604E-1,-5.663344E-1,4.2973895E-2,-4.802881E-2,-1.2353698E-2,-8.42483E-2,4.9135942E-2,-3.0906588E-2,6.415298E-2,-2.619936E-2,-7.53557E-2,-1.1146258E-2],"categories":[],"categories_nodes":[],"categories_segments":[],"categories_sizes":[],"default_left":[0,0,0,0,0,0,0,0,0,0,0,0,0,0,0,0,0,0,0,0,0,0,0],"id":32,"left_children":[1,3,5,7,9,11,-1,13,-1,15,17,19,21,-1,-1,-1,-1,-1,-1,-1,-1,-1,-1],"loss_changes":[2.139154E0,1.2500912E0,1.432422E0,1.8716311E0,1.1628435E0,1.7674184E0,0E0,2.1682637E0,0E0,1.4599314E0,1.198501E0,1.588093E0,1.8576097E-1,0E0,0E0,0E0,0E0,0E0,0E0,0E0,0E0,0E0,0E0],"parents":[2147483647,0,0,1,1,2,2,3,3,4,4,5,5,7,7,9,9,10,10,11,11,12,12],"right_children":[2,4,6,8,10,12,-1,14,-1,16,18,20,22,-1,-1,-1,-1,-1,-1,-1,-1,-1,-1],"split_conditions":[2.419951E0,-1.87921E-1,1.1405E0,2.348397E0,6.00986E1,9.564E-1,8.6675294E-2,1.5475E0,-8.4000565E-2,8.145E-1,2.86878E-1,3.11316E0,4.28446E1,4.2973895E-2,-4.802881E-2,-1.2353698E-2,-8.42483E-2,4.9135942E-2,-3.0906588E-2,6.415298E-2,-2.619936E-2,-7.53557E-2,-1.1146258E-2],"split_indices":[1,7,4,1,0,4,0,4,0,4,7,1,0,0,0,0,0,0,0,0,0,0,0],"split_type":[0,0,0,0,0,0,0,0,0,0,0,0,0,0,0,0,0,0,0,0,0,0,0],"sum_hessian":[4.059617E1,2.968508E1,1.0911087E1,1.2073306E1,1.7611773E1,8.79284E0,2.1182475E0,1.0966014E1,1.107292E0,1.1573614E1,6.0381594E0,6.6253057E0,2.167534E0,8.240099E0,2.7259152E0,5.2428546E0,6.330759E0,1.9638586E0,4.074301E0,4.230631E0,2.394675E0,1.070349E0,1.0971851E0],"tree_param":{"num_deleted":"0","num_feature":"9","num_nodes":"23","size_leaf_vector":"1"}},{"base_weights":[-1.2786553E-2,7.591797E-1,-8.689241E-2,9.825274E-2,9.140029E-3,3.29736E-1,-1.7939006E-1,1.0047282E-1,-1.8895788E-2,6.255373E-2,-2.3539631E-1,-6.922849E-2,4.952834E-2,-5.9171688E-2,-6.2752715E-3],"categories":[],"categories_nodes":[],"categories_segments":[],"categories_sizes":[],"default_left":[0,0,0,0,0,0,0,0,0,0,0,0,0,0,0],"id":33,"left_children":[1,3,5,-1,-1,7,9,-1,11,-1,13,-1,-1,-1,-1],"loss_changes":[2.4393547E0,4.6748686E-1,1.5525059E0,0E0,0E0,1.7586414E0,1.6059983E0,0E0,2.370589E0,0E0,1.8686478E0,0E0,0E0,0E0,0E0],"parents":[2147483647,0,0,1,1,2,2,5,5,6,6,8,8,10,10],"right_children":[2,4,6,-1,-1,8,10,-1,12,-1,14,-1,-1,-1,-1],"split_conditions":[6.6E-3,4.95229E1,1.844E-3,9.825274E-2,9.140029E-3,4.41567E1,6.09E-4,1.0047282E-1,-2.3648E-2,6.255373E-2,2.521E-3,-6.922849E-2,4.952834E-2,-5.9171688E-2,-6.2752715E-3],"split_indices":[6,3,5,0,0,0,2,0,7,0,5,0,0,0,0],"split_type":[0,0,0,0,0,0,0,0,0,0,0,0,0,0,0],"sum_hessian":[4.0487553E1,2.7365174E0,3.7751038E1,1.697448E0,1.0390694E0,6.3926086E0,3.1358427E1,1.5362773E0,4.8563313E0,1.3784301E0,2.9979998E1,1.9526615E0,2.90367E0,8.992634E0,2.0987364E1],"tree_param":{"num_deleted":"0","num_feature":"9","num_nodes":"15","size_leaf_vector":"1"}},{"base_weights":[-2.1276526E-2,-5.399994E-1,1.5670909E-1,3.0697078E-2,-1.0752411E0,8.5349554E-1,4.2505696E-2,-3.4896484E-1,7.334422E-2,-1.1839624E-1,-3.441873E-2,1.09504975E-1,2.5240554E-2,7.295897E-1,-5.8991052E-2,2.4950495E-2,-9.019369E-2,9.310504E-2,2.5273336E-2,-2.304587E-2,3.0373309E-2],"categories":[],"categories_nodes":[],"categories_segments":[],"categories_sizes":[],"default_left":[0,0,0,0,0,0,0,0,0,0,0,0,0,0,0,0,0,0,0,0,0],"id":34,"left_children":[1,3,5,7,9,11,13,15,-1,-1,-1,-1,-1,17,19,-1,-1,-1,-1,-1,-1],"loss_changes":[3.9023895E0,3.3285568E0,2.475319E0,1.9084597E0,3.7199497E-2,3.613341E-1,2.0075445E0,1.7800516E0,0E0,0E0,0E0,0E0,0E0,1.2019622E-1,1.6540995E0,0E0,0E0,0E0,0E0,0E0,0E0],"parents":[2147483647,0,0,1,1,2,2,3,3,4,4,5,5,6,6,7,7,13,13,14,14],"right_children":[2,4,6,8,10,12,14,16,-1,-1,-1,-1,-1,18,20,-1,-1,-1,-1,-1,-1],"split_conditions":[3.45771E1,1.191E0,1.844E-3,2.26E-3,5.91657E1,4.40205E1,3.5888E1,1.811E-3,7.334422E-2,-1.1839624E-1,-3.441873E-2,1.09504975E-1,2.5240554E-2,8.13E-1,6.01358E1,2.4950495E-2,-9.019369E-2,9.310504E-2,2.5273336E-2,-2.304587E-2,3.0373309E-2],"split_indices":[3,4,5,5,0,3,3,5,0,0,0,0,0,4,0,0,0,0,0,0,0],"split_type":[0,0,0,0,0,0,0,0,0,0,0,0,0,0,0,0,0,0,0,0,0],"sum_hessian":[4.0351288E1,9.788792E0,3.0562494E1,5.1937027E0,4.5950894E0,3.392211E0,2.7170284E1,3.6988206E0,1.494882E0,3.4608665E0,1.1342229E0,1.8335905E0,1.5586206E0,2.700551E0,2.4469732E1,2.0398872E0,1.6589333E0,1.2288955E0,1.4716556E0,1.6862911E1,7.6068225E0],"tree_param":{"num_deleted":"0","num_feature":"9","num_nodes":"21","size_leaf_vector":"1"}},{"base_weights":[8.6433694E-2,4.087435E-1,-2.4377575E-2,3.1217668E-2,1.0814587E-1,-1.998052E-1,3.8692173E-1,6.0850525E-1,-4.8400757E-1,9.1297746E-2,-5.8698994E-1,6.1769193E-1,-1.6733767E-1,-3.7937865E-3,8.979214E-2,8.409952E-3,-6.8097964E-2,3.535429E-2,-5.3097513E-2,4.3951115E-3,-9.31672E-2,1.5259603E-2,7.86078E-2,-5.416056E-2,2.627919E-2],"categories":[],"categories_nodes":[],"categories_segments":[],"categories_sizes":[],"default_left":[0,0,0,0,0,0,0,0,0,0,0,0,0,0,0,0,0,0,0,0,0,0,0,0,0],"id":35,"left_children":[1,3,5,7,-1,9,11,13,15,17,19,21,23,-1,-1,-1,-1,-1,-1,-1,-1,-1,-1,-1,-1],"loss_changes":[1.4467202E0,2.594368E0,2.3053615E0,2.5723114E0,0E0,2.5677302E0,1.327851E0,7.9264164E-1,5.724156E-1,2.4068093E0,2.152143E0,4.2608452E-1,7.2203857E-1,0E0,0E0,0E0,0E0,0E0,0E0,0E0,0E0,0E0,0E0,0E0,0E0],"parents":[2147483647,0,0,1,1,2,2,3,3,5,5,6,6,7,7,8,8,9,9,10,10,11,11,12,12],"right_children":[2,4,6,8,-1,10,12,14,16,18,20,22,24,-1,-1,-1,-1,-1,-1,-1,-1,-1,-1,-1,-1],"split_conditions":[6.798E-1,6.154E-1,6.01164E1,4.878E-1,1.0814587E-1,-1.87921E-1,6.57789E-1,3.769E-1,3.75575E1,3.618E-3,1.811E-3,6.29601E1,5.902E-3,-3.7937865E-3,8.979214E-2,8.409952E-3,-6.8097964E-2,3.535429E-2,-5.3097513E-2,4.3951115E-3,-9.31672E-2,1.5259603E-2,7.86078E-2,-5.416056E-2,2.627919E-2],"split_indices":[4,4,0,4,0,7,7,6,0,5,5,0,5,0,0,0,0,0,0,0,0,0,0,0,0],"split_type":[0,0,0,0,0,0,0,0,0,0,0,0,0,0,0,0,0,0,0,0,0,0,0,0,0],"sum_hessian":[3.9227737E1,9.348294E0,2.9879444E1,6.6581593E0,2.6901345E0,2.1306145E1,8.573299E0,3.0545835E0,3.6035757E0,1.2598343E1,8.707802E0,5.9722576E0,2.6010416E0,1.2133493E0,1.8412343E0,1.0752823E0,2.5282934E0,9.166955E0,3.4313877E0,3.3846612E0,5.32314E0,2.0941825E0,3.8780751E0,1.2522527E0,1.348789E0],"tree_param":{"num_deleted":"0","num_feature":"9","num_nodes":"25","size_leaf_vector":"1"}},{"base_weights":[1.15485325E-1,9.256854E-2,3.4316108E-2,-5.546647E-1,1.4892697E-1,1.2138526E-2,-8.005711E-1,-4.140123E-1,2.4688369E-1,-2.0191738E-2,-1.02734044E-1,2.349748E-2,-8.382416E-2,7.778962E-2,1.1780305E-2],"categories":[],"categories_nodes":[],"categories_segments":[],"categories_sizes":[],"default_left":[0,0,0,0,0,0,0,0,0,0,0,0,0,0,0],"id":36,"left_children":[1,-1,3,5,7,-1,9,11,13,-1,-1,-1,-1,-1,-1],"loss_changes":[2.6487756E0,0E0,2.6536303E0,1.1637809E0,1.9038336E0,0E0,4.4911456E-1,1.6330447E0,1.8587881E0,0E0,0E0,0E0,0E0,0E0,0E0],"parents":[2147483647,0,0,2,2,3,3,4,4,6,6,7,7,8,8],"right_children":[2,-1,4,6,8,-1,10,12,14,-1,-1,-1,-1,-1,-1],"split_conditions":[7.6E-3,9.256854E-2,-5.66231E-1,-9.08046E-1,2.97898E1,1.2138526E-2,7.208E-1,6.51E-4,3.21803E1,-2.0191738E-2,-1.02734044E-1,2.349748E-2,-8.382416E-2,7.778962E-2,1.1780305E-2],"split_indices":[6,0,7,7,3,0,4,2,3,0,0,0,0,0,0],"split_type":[0,0,0,0,0,0,0,0,0,0,0,0,0,0,0],"sum_hessian":[3.976044E1,2.673199E0,3.7087242E1,5.41585E0,3.1671392E1,1.5795904E0,3.8362596E0,4.216049E0,2.7455343E1,1.5732934E0,2.2629662E0,1.8428957E0,2.3731534E0,4.3859534E0,2.306939E1],"tree_param":{"num_deleted":"0","num_feature":"9","num_nodes":"15","size_leaf_vector":"1"}},{"base_weights":[-1.3380373E-2,5.3784344E-2,-6.2605256E-1,3.5694665E-1,-7.222515E-2,-8.970276E-2,-9.802361E-3,3.6518436E-2,8.0643773E-1,-4.5116687E-1,1.4010842E-1,-5.4603048E-2,2.476048E-2,1.0086854E-1,1.419115E-2,5.487831E-3,-7.4511044E-2,-3.646941E-2,3.0276835E-2],"categories":[],"categories_nodes":[],"categories_segments":[],"categories_sizes":[],"default_left":[0,0,0,0,0,0,0,0,0,0,0,0,0,0,0,0,0,0,0],"id":37,"left_children":[1,3,5,7,9,-1,-1,11,13,15,17,-1,-1,-1,-1,-1,-1,-1,-1],"loss_changes":[1.6501453E0,1.413347E0,4.786837E-1,1.5308176E0,2.1946123E0,0E0,0E0,1.0417068E0,4.56419E-1,1.4911366E0,1.5670587E0,0E0,0E0,0E0,0E0,0E0,0E0,0E0,0E0],"parents":[2147483647,0,0,1,1,2,2,3,3,4,4,7,7,8,8,9,9,10,10],"right_children":[2,4,6,8,10,-1,-1,12,14,16,18,-1,-1,-1,-1,-1,-1,-1,-1],"split_conditions":[6.47E-3,7.591E-1,5.54557E1,6.535E-1,3.50291E1,-8.970276E-2,-9.802361E-3,2.98416E1,-1.69722E-1,3.01285E1,-5.20039E-1,-5.4603048E-2,2.476048E-2,1.0086854E-1,1.419115E-2,5.487831E-3,-7.4511044E-2,-3.646941E-2,3.0276835E-2],"split_indices":[5,4,3,4,3,0,0,3,7,3,7,0,0,0,0,0,0,0,0],"split_type":[0,0,0,0,0,0,0,0,0,0,0,0,0,0,0,0,0,0,0],"sum_hessian":[3.828251E1,3.5322464E1,2.9600425E0,9.832959E0,2.5489506E1,1.4943471E0,1.4656954E0,6.371885E0,3.4610746E0,8.749638E0,1.6739868E1,1.272718E0,5.099167E0,2.2564313E0,1.2046432E0,3.5137558E0,5.235882E0,3.776799E0,1.2963069E1],"tree_param":{"num_deleted":"0","num_feature":"9","num_nodes":"19","size_leaf_vector":"1"}},{"base_weights":[3.6565967E-2,7.424164E-2,-1.8301113E-3,8.558064E-2,-4.447357E-1,4.0819705E-1,-7.9351224E-2,-7.42964E-1,8.8213995E-2,5.752275E-2,-6.428176E-2,-8.5032575E-2,1.2667842E-2,-1.823896E-2,-9.192331E-2,4.4596896E-2,-3.0670375E-2],"categories":[],"categories_nodes":[],"categories_segments":[],"categories_sizes":[],"default_left":[0,0,0,0,0,0,0,0,0,0,0,0,0,0,0,0,0],"id":38,"left_children":[1,-1,3,5,7,9,11,13,15,-1,-1,-1,-1,-1,-1,-1,-1],"loss_changes":[1.0990072E0,0E0,1.5637647E0,1.8283174E0,1.1236157E0,2.4027586E0,3.7883205E0,2.6460576E-1,6.0053456E-1,0E0,0E0,0E0,0E0,0E0,0E0,0E0,0E0],"parents":[2147483647,0,0,2,2,3,3,4,4,5,5,6,6,7,7,8,8],"right_children":[2,-1,4,6,8,10,12,14,16,-1,-1,-1,-1,-1,-1,-1,-1],"split_conditions":[-3.58E-2,7.424164E-2,1.633E0,2.041842E0,6.0021E1,5.20911E1,2.190522E0,3.93819E1,5E0,5.752275E-2,-6.428176E-2,-8.5032575E-2,1.2667842E-2,-1.823896E-2,-9.192331E-2,4.4596896E-2,-3.0670375E-2],"split_indices":[6,0,4,1,0,3,1,0,8,0,0,0,0,0,0,0,0],"split_type":[0,0,0,0,0,0,0,0,0,0,0,0,0,0,0,0,0],"sum_hessian":[3.950081E1,1.0919176E0,3.840889E1,3.2751842E1,5.6570477E0,1.0580608E1,2.2171236E1,3.374617E0,2.2824306E0,9.520306E0,1.0603027E0,4.0159864E0,1.8155249E1,1.2940323E0,2.080585E0,1.1297356E0,1.1526951E0],"tree_param":{"num_deleted":"0","num_feature":"9","num_nodes":"17","size_leaf_vector":"1"}},{"base_weights":[5.47636E-2,1.6112679E-1,-5.2369666E-1,6.2953776E-1,3.4725063E-2,-1.0264983E-1,1.0165274E-1,-6.4482796E-3,7.8696847E-1,-5.543672E-1,2.5791362E-1,7.688601E-2,-4.990294E-2,2.1884078E-2,9.568881E-2,-7.0383035E-2,1.8765742E-2,7.303329E-2,-3.230726E-3],"categories":[],"categories_nodes":[],"categories_segments":[],"categories_sizes":[],"default_left":[0,0,0,0,0,0,0,0,0,0,0,0,0,0,0,0,0,0,0],"id":39,"left_children":[1,3,5,7,9,-1,11,-1,13,15,17,-1,-1,-1,-1,-1,-1,-1,-1],"loss_changes":[2.3503153E0,1.8652797E0,1.9768424E0,7.844131E-1,3.5822258E0,0E0,1.8120931E0,0E0,3.2627654E-1,9.6441793E-1,2.718175E0,0E0,0E0,0E0,0E0,0E0,0E0,0E0,0E0],"parents":[2147483647,0,0,1,1,2,2,3,3,4,4,6,6,8,8,9,9,10,10],"right_children":[2,4,6,8,10,-1,12,-1,14,16,18,-1,-1,-1,-1,-1,-1,-1,-1],"split_conditions":[1.6388E0,2E0,3.7416E1,3.61627E1,3E0,-1.0264983E-1,4.17096E1,-6.4482796E-3,1.987522E0,9.307E-1,2.041842E0,7.688601E-2,-4.990294E-2,2.1884078E-2,9.568881E-2,-7.0383035E-2,1.8765742E-2,7.303329E-2,-3.230726E-3],"split_indices":[4,8,3,0,8,0,3,0,1,6,1,0,0,0,0,0,0,0,0],"split_type":[0,0,0,0,0,0,0,0,0,0,0,0,0,0,0,0,0,0,0],"sum_hessian":[3.5828354E1,3.0873085E1,4.9552693E0,5.7148666E0,2.5158218E1,2.391192E0,2.5640774E0,1.1658252E0,4.5490413E0,6.5049524E0,1.8653267E1,1.0821269E0,1.4819504E0,1.5740615E0,2.9749799E0,5.4572024E0,1.04775E0,6.521366E0,1.2131901E1],"tree_param":{"num_deleted":"0","num_feature":"9","num_nodes":"19","size_leaf_vector":"1"}},{"base_weights":[6.6956446E-2,7.990041E-2,2.1518696E-2,-4.004381E-1,1.193028E-1,1.8317396E-2,-9.6853144E-2,-9.0678655E-2,2.051884E-1,7.312289E-2,-5.623583E-2,7.68178E-2,2.894832E-3],"categories":[],"categories_nodes":[],"categories_segments":[],"categories_sizes":[],"default_left":[0,0,0,0,0,0,0,0,0,0,0,0,0],"id":40,"left_children":[1,-1,3,5,7,9,-1,-1,11,-1,-1,-1,-1],"loss_changes":[1.3025957E0,0E0,1.6316345E0,1.7904235E0,3.0003824E0,2.5932791E0,0E0,0E0,2.9825802E0,0E0,0E0,0E0,0E0],"parents":[2147483647,0,0,2,2,3,3,4,4,5,5,8,8],"right_children":[2,-1,4,6,8,10,-1,-1,12,-1,-1,-1,-1],"split_conditions":[-2.76E-2,7.990041E-2,-5.10665E-1,9.564E-1,4.98E-2,9.23E-2,-9.6853144E-2,-9.0678655E-2,-1.87921E-1,7.312289E-2,-5.623583E-2,7.68178E-2,2.894832E-3],"split_indices":[6,0,7,4,6,6,0,0,7,0,0,0,0],"split_type":[0,0,0,0,0,0,0,0,0,0,0,0,0],"sum_hessian":[3.867788E1,1.2911748E0,3.7386707E1,6.451622E0,3.0935085E1,4.271069E0,2.180553E0,1.6510956E0,2.9283989E1,1.8008472E0,2.4702218E0,6.1808586E0,2.310313E1],"tree_param":{"num_deleted":"0","num_feature":"9","num_nodes":"13","size_leaf_vector":"1"}},{"base_weights":[-2.038631E-3,3.6014763E-1,-9.780422E-2,8.444722E-2,6.684412E-2,-5.632422E-1,-8.993357E-3,-6.193304E-2,4.9725485E-1,-7.570957E-1,5.3447895E-3,1.422195E-1,-2.7843508E-1,7.4595384E-2,4.3845745E-3,-2.2637982E-2,-8.789819E-2,-5.355488E-3,4.5636036E-2,-8.1480555E-2,1.0092049E-3],"categories":[],"categories_nodes":[],"categories_segments":[],"categories_sizes":[],"default_left":[0,0,0,0,0,0,0,0,0,0,0,0,0,0,0,0,0,0,0,0,0],"id":41,"left_children":[1,3,5,-1,7,9,11,-1,13,15,-1,17,19,-1,-1,-1,-1,-1,-1,-1,-1],"loss_changes":[1.4205189E0,1.1603259E0,1.3331347E0,0E0,2.2042613E0,6.586729E-1,1.1886562E0,0E0,4.747722E-1,5.978942E-2,0E0,1.1761316E0,1.6294721E0,0E0,0E0,0E0,0E0,0E0,0E0,0E0,0E0],"parents":[2147483647,0,0,1,1,2,2,4,4,5,5,6,6,8,8,9,9,11,11,12,12],"right_children":[2,4,6,-1,8,10,12,-1,14,16,-1,18,20,-1,-1,-1,-1,-1,-1,-1,-1],"split_conditions":[1.844E-3,2E0,2.064E-3,8.444722E-2,3E0,1.3354E0,1.87542E-1,-6.193304E-2,1.967061E0,-3.20662E-1,5.3447895E-3,1.1115E0,6.01358E1,7.4595384E-2,4.3845745E-3,-2.2637982E-2,-8.789819E-2,-5.355488E-3,4.5636036E-2,-8.1480555E-2,1.0092049E-3],"split_indices":[5,8,5,0,8,4,7,0,1,7,0,4,0,0,0,0,0,0,0,0,0],"split_type":[0,0,0,0,0,0,0,0,0,0,0,0,0,0,0,0,0,0,0,0,0],"sum_hessian":[3.893933E1,7.565568E0,3.1373762E1,2.144777E0,5.4207907E0,4.1712303E0,2.7202532E1,1.920361E0,3.5004299E0,3.0003946E0,1.1708354E0,1.7726465E1,9.476066E0,1.8438501E0,1.6565797E0,1.0940399E0,1.9063548E0,1.143169E1,6.294776E0,2.6764822E0,6.799583E0],"tree_param":{"num_deleted":"0","num_feature":"9","num_nodes":"21","size_leaf_vector":"1"}},{"base_weights":[-7.011723E-2,-1.2790209E-1,6.9735244E-2,-7.219374E-1,-5.012181E-2,1.7968109E-2,-1.16965175E-1,-3.17992E-1,1.6876397E-1,-4.909395E-2,1.9803116E-2,4.1327517E-2,-3.8711235E-2],"categories":[],"categories_nodes":[],"categories_segments":[],"categories_sizes":[],"default_left":[0,0,0,0,0,0,0,0,0,0,0,0,0],"id":42,"left_children":[1,3,-1,5,7,-1,-1,9,11,-1,-1,-1,-1],"loss_changes":[1.8200474E0,1.6798862E0,0E0,1.9158366E0,2.0422356E0,0E0,0E0,1.4892592E0,2.7855935E0,0E0,0E0,0E0,0E0],"parents":[2147483647,0,0,1,1,3,3,4,4,7,7,8,8],"right_children":[2,4,-1,6,8,-1,-1,10,12,-1,-1,-1,-1],"split_conditions":[1.4E1,6.15E-4,6.9735244E-2,-2.34273E-1,4.81317E1,1.7968109E-2,-1.16965175E-1,2.482766E0,6.51297E1,-4.909395E-2,1.9803116E-2,4.1327517E-2,-3.8711235E-2],"split_indices":[8,2,0,7,0,0,0,1,0,0,0,0,0],"split_type":[0,0,0,0,0,0,0,0,0,0,0,0,0],"sum_hessian":[3.80288E1,3.6140995E1,1.8878075E0,3.2254379E0,3.2915558E1,1.2688552E0,1.9565827E0,1.4597954E1,1.8317604E1,1.0969938E1,3.6280146E0,1.2899905E1,5.4176984E0],"tree_param":{"num_deleted":"0","num_feature":"9","num_nodes":"13","size_leaf_vector":"1"}},{"base_weights":[6.5353744E-2,2.839768E-1,-7.477924E-2,-1.365772E-1,5.016085E-1,-5.491402E-1,1.7609915E-1,-5.769852E-1,6.0525686E-2,7.19543E-1,-1.7460147E-1,-3.9407548E-2,-9.4972424E-2,3.382844E-1,-3.646287E-1,3.722988E-2,-1.0067475E-1,1.3493787E-2,9.796088E-2,-6.930878E-2,4.1826427E-2,1.9481463E-2,-4.0401444E-2,-1.0331391E-2,5.9866138E-2,-6.749393E-2,2.2176456E-2],"categories":[],"categories_nodes":[],"categories_segments":[],"categories_sizes":[],"default_left":[0,0,0,0,0,0,0,0,0,0,0,0,0,0,0,0,0,0,0,0,0,0,0,0,0,0,0],"id":43,"left_children":[1,3,5,7,9,11,13,15,-1,17,19,21,-1,23,25,-1,-1,-1,-1,-1,-1,-1,-1,-1,-1,-1,-1],"loss_changes":[1.1574166E0,1.413442E0,2.8804572E0,2.243186E0,1.5842209E0,1.6644075E0,1.5315166E0,2.0676723E0,0E0,1.0355091E0,1.2788055E0,4.8101348E-1,0E0,1.5417676E0,9.114048E-1,0E0,0E0,0E0,0E0,0E0,0E0,0E0,0E0,0E0,0E0,0E0,0E0],"parents":[2147483647,0,0,1,1,2,2,3,3,4,4,5,5,6,6,7,7,9,9,10,10,11,11,13,13,14,14],"right_children":[2,4,6,8,10,12,14,16,-1,18,20,22,-1,24,26,-1,-1,-1,-1,-1,-1,-1,-1,-1,-1,-1,-1],"split_conditions":[2.053018E0,3E0,2.257421E0,6.1316E-2,1.7216E0,3E0,7.30341E-1,-3.05364E-1,6.0525686E-2,1.91433E0,1.962742E0,2.167779E0,-9.4972424E-2,-5.93176E-1,9.188E-1,3.722988E-2,-1.0067475E-1,1.3493787E-2,9.796088E-2,-6.930878E-2,4.1826427E-2,1.9481463E-2,-4.0401444E-2,-1.0331391E-2,5.9866138E-2,-6.749393E-2,2.2176456E-2],"split_indices":[1,8,1,7,4,8,7,7,0,1,1,1,0,7,4,0,0,0,0,0,0,0,0,0,0,0,0],"split_type":[0,0,0,0,0,0,0,0,0,0,0,0,0,0,0,0,0,0,0,0,0,0,0,0,0,0,0],"sum_hessian":[3.60861E1,1.369457E1,2.2391531E1,4.797079E0,8.8974905E0,7.3345294E0,1.5057002E1,3.1495118E0,1.6475673E0,6.680396E0,2.2170947E0,3.7108922E0,3.6236374E0,1.1870861E1,3.186141E0,1.0231743E0,2.1263375E0,2.52447E0,4.1559258E0,1.0925587E0,1.1245358E0,2.542978E0,1.1679142E0,4.6268897E0,7.243972E0,1.9848086E0,1.2013323E0],"tree_param":{"num_deleted":"0","num_feature":"9","num_nodes":"27","size_leaf_vector":"1"}},{"base_weights":[2.1671396E-2,-3.0955833E-1,1.2268701E-1,1.8642111E-1,-7.8959066E-1,-5.3844094E-2,3.920179E-1,-3.262184E-2,4.324242E-1,-1.3582992E-2,-1.0552704E-1,4.0223944E-1,-3.6136025E-1,-2.8083855E-2,4.9023917E-1,7.970645E-2,-5.1149013E-3,5.7718452E-2,-3.3465244E-2,-9.6139245E-2,-6.3080112E-3,5.8206607E-2,-8.965275E-3],"categories":[],"categories_nodes":[],"categories_segments":[],"categories_sizes":[],"default_left":[0,0,0,0,0,0,0,0,0,0,0,0,0,0,0,0,0,0,0,0,0,0,0],"id":44,"left_children":[1,3,5,7,9,11,13,-1,15,-1,-1,17,19,-1,21,-1,-1,-1,-1,-1,-1,-1,-1],"loss_changes":[1.2780315E0,2.2768974E0,1.4054532E0,7.9790866E-1,6.793716E-1,2.7354753E0,9.0753806E-1,0E0,7.371909E-1,0E0,0E0,1.2129356E0,2.0078092E0,0E0,6.1286163E-1,0E0,0E0,0E0,0E0,0E0,0E0,0E0,0E0],"parents":[2147483647,0,0,1,1,2,2,3,3,4,4,5,5,6,6,8,8,11,11,12,12,14,14],"right_children":[2,4,6,8,10,12,14,-1,16,-1,-1,18,20,-1,22,-1,-1,-1,-1,-1,-1,-1,-1],"split_conditions":[6.39E-4,4.94669E1,1.1405E0,1.882182E0,1.654E-3,6.798E-1,-5.66231E-1,-3.262184E-2,1.906349E0,-1.3582992E-2,-1.0552704E-1,1.84803E-1,3.74276E1,-2.8083855E-2,2.3937E0,7.970645E-2,-5.1149013E-3,5.7718452E-2,-3.3465244E-2,-9.6139245E-2,-6.3080112E-3,5.8206607E-2,-8.965275E-3],"split_indices":[2,0,4,1,5,4,7,0,1,0,0,7,0,0,4,0,0,0,0,0,0,0,0],"split_type":[0,0,0,0,0,0,0,0,0,0,0,0,0,0,0,0,0,0,0,0,0,0,0],"sum_hessian":[3.6061443E1,7.945085E0,2.8116358E1,4.2084627E0,3.7366226E0,1.7467491E1,1.0648867E1,1.2589322E0,2.9495304E0,1.5164165E0,2.220206E0,6.910444E0,1.0557048E1,1.1196378E0,9.529228E0,1.3119606E0,1.6375699E0,5.7597547E0,1.1506889E0,2.7672396E0,7.789808E0,8.223305E0,1.3059236E0],"tree_param":{"num_deleted":"0","num_feature":"9","num_nodes":"23","size_leaf_vector":"1"}},{"base_weights":[-1.8530678E-2,3.7282082E-1,-1.5346013E-1,3.987538E-3,8.210054E-2,-2.931482E-1,1.8666205E-1,4.9546298E-1,-3.817554E-1,-4.0718722E-1,2.1966974E-1,8.140775E-2,-7.569718E-2,-7.4671665E-3,8.641068E-2,2.3701254E-2,-8.527769E-2,-2.0265397E-2,-1.1659592E-1,-2.2303576E-2,5.9923954E-2,-3.56661E-2,5.865642E-2],"categories":[],"categories_nodes":[],"categories_segments":[],"categories_sizes":[],"default_left":[0,0,0,0,0,0,0,0,0,0,0,0,0,0,0,0,0,0,0,0,0,0,0],"id":45,"left_children":[1,3,5,7,-1,9,11,13,15,17,19,-1,21,-1,-1,-1,-1,-1,-1,-1,-1,-1,-1],"loss_changes":[1.9706126E0,1.5806339E0,1.3685699E0,1.3761328E0,0E0,1.2585915E0,1.4874287E0,7.346471E-1,1.3891065E0,2.3562734E0,8.5394746E-1,0E0,1.5159307E0,0E0,0E0,0E0,0E0,0E0,0E0,0E0,0E0,0E0,0E0],"parents":[2147483647,0,0,1,1,2,2,3,3,5,5,6,6,7,7,8,8,9,9,10,10,12,12],"right_children":[2,4,6,8,-1,10,12,14,16,18,20,-1,22,-1,-1,-1,-1,-1,-1,-1,-1,-1,-1],"split_conditions":[6.798E-1,2.27681E0,1.353E0,3.57636E1,8.210054E-2,5.25884E-1,1.5475E0,4.409E-1,2.852E-1,1.2034E0,1.0271E0,8.140775E-2,9.957E-1,-7.4671665E-3,8.641068E-2,2.3701254E-2,-8.527769E-2,-2.0265397E-2,-1.1659592E-1,-2.2303576E-2,5.9923954E-2,-3.56661E-2,5.865642E-2],"split_indices":[4,1,4,3,0,7,4,6,6,4,4,0,6,0,0,0,0,0,0,0,0,0,0],"split_type":[0,0,0,0,0,0,0,0,0,0,0,0,0,0,0,0,0,0,0,0,0,0,0],"sum_hessian":[3.5235302E1,8.581706E0,2.6653595E1,5.261036E0,3.3206701E0,1.8991785E1,7.66181E0,2.1883802E0,3.0726557E0,1.5705271E1,3.286514E0,1.6390983E0,6.0227113E0,1.1724863E0,1.0158939E0,1.5427712E0,1.5298845E0,1.3368707E1,2.336564E0,1.7074518E0,1.5790622E0,4.5526876E0,1.4700239E0],"tree_param":{"num_deleted":"0","num_feature":"9","num_nodes":"23","size_leaf_vector":"1"}},{"base_weights":[2.6137738E-2,9.7696625E-2,-4.7422048E-1,7.474786E-2,5.3769212E-2,-9.3799405E-2,7.765877E-2,-5.244279E-2,3.254157E-1,4.0645313E-2,-2.8177163E-2,1.9843658E-2,-3.2423265E-2,5.3323854E-2,-3.404626E-3],"categories":[],"categories_nodes":[],"categories_segments":[],"categories_sizes":[],"default_left":[0,0,0,0,0,0,0,0,0,0,0,0,0,0,0],"id":46,"left_children":[1,3,5,-1,7,-1,9,11,13,-1,-1,-1,-1,-1,-1],"loss_changes":[1.4308493E0,9.490948E-1,1.354891E0,0E0,9.848238E-1,0E0,4.939744E-1,1.7672911E0,7.3285854E-1,0E0,0E0,0E0,0E0,0E0,0E0],"parents":[2147483647,0,0,1,1,2,2,4,4,6,6,7,7,8,8],"right_children":[2,4,6,-1,8,-1,10,12,14,-1,-1,-1,-1,-1,-1],"split_conditions":[6.79499E1,-2.76E-2,2.729571E0,7.474786E-2,2.415809E0,-9.3799405E-2,7.48022E1,2.054691E0,2.64762E0,4.0645313E-2,-2.8177163E-2,1.9843658E-2,-3.2423265E-2,5.3323854E-2,-3.404626E-3],"split_indices":[0,6,1,0,1,0,0,1,1,0,0,0,0,0,0],"split_type":[0,0,0,0,0,0,0,0,0,0,0,0,0,0,0],"sum_hessian":[3.7668243E1,3.365921E1,4.0090356E0,1.117198E0,3.254201E1,1.7982414E0,2.210794E0,2.3974918E1,8.567092E0,1.0862787E0,1.1245154E0,1.2607387E1,1.1367533E1,5.122237E0,3.444855E0],"tree_param":{"num_deleted":"0","num_feature":"9","num_nodes":"15","size_leaf_vector":"1"}},{"base_weights":[-5.4248568E-2,-1.7182314E-1,2.9993314E-1,-3.627803E-1,6.1136972E-2,-1.3689236E-1,7.258759E-1,4.995336E-2,-4.700679E-1,6.4839506E-1,-1.8358965E-1,4.60488E-2,-6.5784395E-1,1.1760701E-2,8.79519E-2,-5.623263E-2,2.4548335E-2,1.0131278E-1,-2.094948E-2,2.7625967E-2,-6.0363222E-2,-8.010182E-2,-1.581505E-2],"categories":[],"categories_nodes":[],"categories_segments":[],"categories_sizes":[],"default_left":[0,0,0,0,0,0,0,0,0,0,0,0,0,0,0,0,0,0,0,0,0,0,0],"id":47,"left_children":[1,3,5,7,9,11,13,-1,15,17,19,-1,21,-1,-1,-1,-1,-1,-1,-1,-1,-1,-1],"loss_changes":[1.6035165E0,1.2951856E0,1.8953658E0,1.7030411E0,2.0946138E0,2.0477953E0,3.6813092E-1,0E0,1.103797E0,1.5464802E0,2.1914494E0,0E0,1.17047906E-1,0E0,0E0,0E0,0E0,0E0,0E0,0E0,0E0,0E0,0E0],"parents":[2147483647,0,0,1,1,2,2,3,3,4,4,5,5,6,6,8,8,9,9,10,10,12,12],"right_children":[2,4,6,8,10,12,14,-1,16,18,20,-1,22,-1,-1,-1,-1,-1,-1,-1,-1,-1,-1],"split_conditions":[1.3E1,6.1316E-2,2.285312E0,0E0,2E0,2.053018E0,5.305E-1,4.995336E-2,6.655E-1,8.838E-1,7.02E-4,4.60488E-2,2.198363E0,1.1760701E-2,8.79519E-2,-5.623263E-2,2.4548335E-2,1.0131278E-1,-2.094948E-2,2.7625967E-2,-6.0363222E-2,-8.010182E-2,-1.581505E-2],"split_indices":[8,7,1,6,8,1,4,0,6,6,2,0,1,0,0,0,0,0,0,0,0,0,0],"split_type":[0,0,0,0,0,0,0,0,0,0,0,0,0,0,0,0,0,0,0,0,0,0,0],"sum_hessian":[3.626892E1,2.7616266E1,8.652656E0,1.4870044E1,1.27462225E1,4.6067834E0,4.045872E0,1.2408452E0,1.3629199E1,3.2640882E0,9.482134E0,2.2000396E0,2.4067435E0,1.1718812E0,2.873991E0,1.2262314E1,1.3668852E0,2.1633742E0,1.100714E0,4.6899886E0,4.7921453E0,1.4020138E0,1.0047299E0],"tree_param":{"num_deleted":"0","num_feature":"9","num_nodes":"23","size_leaf_vector":"1"}},{"base_weights":[-2.763598E-2,5.4802835E-2,-3.331479E-1,4.9783018E-1,-1.06188565E-1,-6.822551E-1,2.7010355E-2,7.0549893E-1,-1.0821032E-2,-2.0455998E-1,3.286609E-1,-9.062555E-2,-1.1017508E-2,-4.1580494E-2,2.6129103E-1,1.5617383E-2,1.2029409E-1,2.9176578E-2,-3.4516837E-2,-8.936615E-3,5.9553858E-2,6.735324E-2,-1.7936548E-2],"categories":[],"categories_nodes":[],"categories_segments":[],"categories_sizes":[],"default_left":[0,0,0,0,0,0,0,0,0,0,0,0,0,0,0,0,0,0,0,0,0,0,0],"id":48,"left_children":[1,3,5,7,9,11,13,15,-1,17,19,-1,-1,-1,21,-1,-1,-1,-1,-1,-1,-1,-1],"loss_changes":[9.340434E-1,2.156409E0,1.0076861E0,1.087804E0,1.0278386E0,4.1700685E-1,6.101983E-1,1.4840851E0,0E0,1.4217737E0,5.5820537E-1,0E0,0E0,0E0,8.0672E-1,0E0,0E0,0E0,0E0,0E0,0E0,0E0,0E0],"parents":[2147483647,0,0,1,1,2,2,3,3,4,4,5,5,6,6,7,7,9,9,10,10,14,14],"right_children":[2,4,6,8,10,12,14,16,-1,18,20,-1,-1,-1,22,-1,-1,-1,-1,-1,-1,-1,-1],"split_conditions":[4.95099E1,4.01079E1,5.61574E1,3.353E-3,3.422E-3,-5.10665E-1,4.553E-3,2.173371E0,-1.0821032E-2,1.791E-3,3E0,-9.062555E-2,-1.1017508E-2,-4.1580494E-2,7.3405E1,1.5617383E-2,1.2029409E-1,2.9176578E-2,-3.4516837E-2,-8.936615E-3,5.9553858E-2,6.735324E-2,-1.7936548E-2],"split_indices":[3,0,3,5,5,7,5,1,0,5,8,0,0,0,0,0,0,0,0,0,0,0,0],"split_type":[0,0,0,0,0,0,0,0,0,0,0,0,0,0,0,0,0,0,0,0,0,0,0],"sum_hessian":[3.5360855E1,2.8492977E1,6.8678765E0,7.0366783E0,2.1456299E1,3.0333152E0,3.8345616E0,5.118602E0,1.9180764E0,1.792981E1,3.5264883E0,1.7600279E0,1.2732872E0,1.0586969E0,2.7758646E0,3.0568626E0,2.0617392E0,3.7208314E0,1.420898E1,1.6332965E0,1.8931918E0,1.161132E0,1.6147327E0],"tree_param":{"num_deleted":"0","num_feature":"9","num_nodes":"23","size_leaf_vector":"1"}},{"base_weights":[6.629699E-2,-9.8578505E-2,3.1764862E-1,9.7770296E-2,-6.7910135E-1,6.3531214E-1,-2.1352956E-1,5.2408534E-1,-1.5551372E-1,-1.06718816E-1,-2.5674882E-3,-9.618259E-3,7.539994E-1,-5.17989E-1,5.6474995E-2,-1.4833899E-2,8.4873274E-2,4.0417045E-2,-3.743541E-2,4.5975085E-2,-4.6162464E-2,9.795293E-2,3.874373E-2,1.5439907E-2,-7.7753395E-2],"categories":[],"categories_nodes":[],"categories_segments":[],"categories_sizes":[],"default_left":[0,0,0,0,0,0,0,0,0,0,0,0,0,0,0,0,0,0,0,0,0,0,0,0,0],"id":49,"left_children":[1,3,5,7,9,11,13,15,17,-1,19,-1,21,23,-1,-1,-1,-1,-1,-1,-1,-1,-1,-1,-1],"loss_changes":[1.5842528E0,2.7327664E0,2.6802878E0,2.063368E0,1.5825834E0,9.136677E-1,1.807163E0,1.6691512E0,1.6559678E0,0E0,8.921085E-1,0E0,3.1898546E-1,1.0129126E0,0E0,0E0,0E0,0E0,0E0,0E0,0E0,0E0,0E0,0E0,0E0],"parents":[2147483647,0,0,1,1,2,2,3,3,4,4,5,5,6,6,7,7,8,8,10,10,12,12,13,13],"right_children":[2,4,6,8,10,12,14,16,18,-1,20,-1,22,24,-1,-1,-1,-1,-1,-1,-1,-1,-1,-1,-1],"split_conditions":[1.142E0,9.399E-1,1.6388E0,3.5965E1,3.94664E1,4.44E-2,2.7158E0,2.98416E1,3.62009E1,-1.06718816E-1,2.286685E0,-9.618259E-3,5.31899E1,3.93819E1,5.6474995E-2,-1.4833899E-2,8.4873274E-2,4.0417045E-2,-3.743541E-2,4.5975085E-2,-4.6162464E-2,9.795293E-2,3.874373E-2,1.5439907E-2,-7.7753395E-2],"split_indices":[4,4,4,3,3,6,4,3,0,0,1,0,0,0,0,0,0,0,0,0,0,0,0,0,0],"split_type":[0,0,0,0,0,0,0,0,0,0,0,0,0,0,0,0,0,0,0,0,0,0,0,0,0],"sum_hessian":[3.647285E1,2.2392302E1,1.4080548E1,1.7354212E1,5.0380898E0,8.688482E0,5.3920655E0,6.0693774E0,1.1284835E1,2.83461E0,2.20348E0,1.2394016E0,7.4490805E0,4.1162505E0,1.2758151E0,2.1530204E0,3.9163568E0,2.9340727E0,8.350762E0,1.0970875E0,1.1063925E0,3.576443E0,3.8726377E0,1.2592084E0,2.857042E0],"tree_param":{"num_deleted":"0","num_feature":"9","num_nodes":"25","size_leaf_vector":"1"}},{"base_weights":[3.697014E-2,4.447257E-1,-1.3074838E-2,-1.9723224E-2,8.463306E-2,-9.1278024E-2,5.5167757E-2,-2.3140228E-1,1.9704789E-1,2.374526E-2,-4.2829152E-2,7.126733E-2,7.691099E-3],"categories":[],"categories_nodes":[],"categories_segments":[],"categories_sizes":[],"default_left":[0,0,0,0,0,0,0,0,0,0,0,0,0],"id":50,"left_children":[1,3,5,-1,-1,-1,7,9,11,-1,-1,-1,-1],"loss_changes":[7.501593E-1,1.2023113E0,2.1047719E0,0E0,0E0,0E0,1.3484802E0,1.1237228E0,1.3063264E0,0E0,0E0,0E0,0E0],"parents":[2147483647,0,0,1,1,2,2,6,6,7,7,8,8],"right_children":[2,4,6,-1,-1,-1,8,10,12,-1,-1,-1,-1],"split_conditions":[4.878E-1,3.769E-1,5.405E-1,-1.9723224E-2,8.463306E-2,-9.1278024E-2,3.45771E1,-2.97559E-1,3.68455E1,2.374526E-2,-4.2829152E-2,7.126733E-2,7.691099E-3],"split_indices":[4,6,4,0,0,0,3,7,3,0,0,0,0],"split_type":[0,0,0,0,0,0,0,0,0,0,0,0,0],"sum_hessian":[3.547654E1,3.016034E0,3.2460506E1,1.3565322E0,1.6595016E0,1.4160385E0,3.1044468E1,1.0071349E1,2.097312E1,2.9176028E0,7.153746E0,3.0311785E0,1.794194E1],"tree_param":{"num_deleted":"0","num_feature":"9","num_nodes":"13","size_leaf_vector":"1"}},{"base_weights":[-4.0426437E-2,5.5882223E-2,-9.211951E-2,-1.6733764E-2,-6.614386E-2,-8.651637E-2,5.475798E-1,1.273675E-2,-2.8798997E-2,7.59755E-2,8.932834E-3],"categories":[],"categories_nodes":[],"categories_segments":[],"categories_sizes":[],"default_left":[0,0,0,0,0,0,0,0,0,0,0],"id":51,"left_children":[1,-1,3,5,-1,7,9,-1,-1,-1,-1],"loss_changes":[1.2102888E0,0E0,1.5038055E0,1.3151984E0,0E0,1.3085682E0,2.8989232E-1,0E0,0E0,0E0,0E0],"parents":[2147483647,0,0,2,2,3,3,5,5,6,6],"right_children":[2,-1,4,6,-1,8,10,-1,-1,-1,-1],"split_conditions":[4.878E-1,5.5882223E-2,6.79499E1,6.40974E1,-6.614386E-2,-1.87921E-1,2.205037E0,1.273675E-2,-2.8798997E-2,7.59755E-2,8.932834E-3],"split_indices":[4,0,0,0,0,7,1,0,0,0,0],"split_type":[0,0,0,0,0,0,0,0,0,0,0],"sum_hessian":[3.6408733E1,2.1122475E0,3.4296486E1,3.1195202E1,3.1012845E0,2.8515663E1,2.679539E0,1.4010244E1,1.4505419E1,1.3818054E0,1.2977335E0],"tree_param":{"num_deleted":"0","num_feature":"9","num_nodes":"11","size_leaf_vector":"1"}},{"base_weights":[-8.361385E-2,-1.4476511E-1,4.6122813E-1,-1.9614625E-1,4.9848173E-2,6.806943E-2,-4.0142243E-3,1.1106567E-1,-2.9409727E-1,-3.6283284E-2,4.5091245E-2,-5.4018147E-2,-1.2740637E-2],"categories":[],"categories_nodes":[],"categories_segments":[],"categories_sizes":[],"default_left":[0,0,0,0,0,0,0,0,0,0,0,0,0],"id":52,"left_children":[1,3,5,7,-1,-1,-1,9,11,-1,-1,-1,-1],"loss_changes":[1.2664733E0,1.1929264E0,4.534279E-1,9.7760606E-1,0E0,0E0,0E0,1.5031704E0,9.1912365E-1,0E0,0E0,0E0,0E0],"parents":[2147483647,0,0,1,1,2,2,3,3,7,7,8,8],"right_children":[2,4,6,8,-1,-1,-1,10,12,-1,-1,-1,-1],"split_conditions":[9.957E-1,1.4E1,2.12272E0,2E0,4.9848173E-2,6.806943E-2,-4.0142243E-3,2.052095E0,2.436E-3,-3.6283284E-2,4.5091245E-2,-5.4018147E-2,-1.2740637E-2],"split_indices":[6,8,1,8,0,0,0,1,5,0,0,0,0],"split_type":[0,0,0,0,0,0,0,0,0,0,0,0,0],"sum_hessian":[3.500791E1,3.2135433E1,2.8724759E0,3.0402054E1,1.7333808E0,1.7491488E0,1.123327E0,7.3175435E0,2.3084509E1,3.0277996E0,4.289744E0,8.417386E0,1.4667124E1],"tree_param":{"num_deleted":"0","num_feature":"9","num_nodes":"13","size_leaf_vector":"1"}},{"base_weights":[-8.133362E-3,6.14651E-2,-6.235092E-1,-9.7455375E-2,2.1421985E-1,-7.9875246E-2,-1.793254E-2,-2.164274E-1,6.396501E-2,-6.738904E-2,3.5099688E-1,2.1716876E-2,-4.5915175E-2,8.747361E-2,1.6519435E-2],"categories":[],"categories_nodes":[],"categories_segments":[],"categories_sizes":[],"default_left":[0,0,0,0,0,0,0,0,0,0,0,0,0,0,0],"id":53,"left_children":[1,3,5,7,9,-1,-1,11,-1,-1,13,-1,-1,-1,-1],"loss_changes":[1.5438687E0,8.096193E-1,1.4177251E-1,1.595169E0,2.2869344E0,0E0,0E0,1.683641E0,0E0,0E0,1.3428484E0,0E0,0E0,0E0,0E0],"parents":[2147483647,0,0,1,1,2,2,3,3,4,4,7,7,10,10],"right_children":[2,4,6,8,10,-1,-1,12,-1,-1,14,-1,-1,-1,-1],"split_conditions":[6.57789E-1,3.966E-1,9.188E-1,5.4736E1,6.15E-4,-7.9875246E-2,-1.793254E-2,2.048353E0,6.396501E-2,-6.738904E-2,1.982657E0,2.1716876E-2,-4.5915175E-2,8.747361E-2,1.6519435E-2],"split_indices":[7,6,4,3,2,0,0,1,0,0,1,0,0,0,0],"split_type":[0,0,0,0,0,0,0,0,0,0,0,0,0,0,0],"sum_hessian":[3.4152283E1,3.1490816E1,2.6614654E0,1.5611351E1,1.5879466E1,1.3360919E0,1.3253734E0,1.4050001E1,1.5613494E0,1.5951344E0,1.4284332E1,5.0801845E0,8.969817E0,2.7695785E0,1.1514753E1],"tree_param":{"num_deleted":"0","num_feature":"9","num_nodes":"15","size_leaf_vector":"1"}},{"base_weights":[4.878172E-3,3.717941E-1,-7.815137E-2,-8.470868E-3,6.6815925E-1,-6.2171054E-1,6.835474E-2,5.5256125E-2,-4.135707E-2,8.8273495E-2,9.433192E-3,-8.200023E-1,-7.960708E-5,4.816964E-1,-1.3517849E-1,-9.783568E-2,-2.7136398E-2,6.9564365E-2,-1.3095965E-2,-7.063947E-2,1.2219938E-3],"categories":[],"categories_nodes":[],"categories_segments":[],"categories_sizes":[],"default_left":[0,0,0,0,0,0,0,0,0,0,0,0,0,0,0,0,0,0,0,0,0],"id":54,"left_children":[1,3,5,7,9,11,13,-1,-1,-1,-1,15,-1,17,19,-1,-1,-1,-1,-1,-1],"loss_changes":[1.1274091E0,7.750059E-1,2.449572E0,1.1325213E0,3.9066625E-1,8.01656E-1,2.1439443E0,0E0,0E0,0E0,0E0,1.6352654E-1,0E0,1.1884763E0,1.4684327E0,0E0,0E0,0E0,0E0,0E0,0E0],"parents":[2147483647,0,0,1,1,2,2,3,3,4,4,5,5,6,6,11,11,13,13,14,14],"right_children":[2,4,6,8,10,12,14,-1,-1,-1,-1,16,-1,18,20,-1,-1,-1,-1,-1,-1],"split_conditions":[1.844E-3,3.38244E1,2.324E-3,2.86041E1,4.40205E1,1.2278E0,3.5965E1,5.5256125E-2,-4.135707E-2,8.8273495E-2,9.433192E-3,3.9442E1,-7.960708E-5,8.252E-1,3.91517E1,-9.783568E-2,-2.7136398E-2,6.9564365E-2,-1.3095965E-2,-7.063947E-2,1.2219938E-3],"split_indices":[5,3,5,3,3,4,3,0,0,0,0,3,0,6,3,0,0,0,0,0,0],"split_type":[0,0,0,0,0,0,0,0,0,0,0,0,0,0,0,0,0,0,0,0,0],"sum_hessian":[3.5053112E1,5.826659E0,2.9226452E1,2.977569E0,2.84909E0,5.516361E0,2.371009E1,1.0958663E0,1.8817029E0,1.6818532E0,1.1672369E0,3.938081E0,1.57828E0,7.372043E0,1.6338047E1,2.4482055E0,1.4898756E0,5.363563E0,2.00848E0,2.5732934E0,1.3764753E1],"tree_param":{"num_deleted":"0","num_feature":"9","num_nodes":"21","size_leaf_vector":"1"}},{"base_weights":[2.3043562E-2,7.717525E-2,-2.5264021E-2,-8.090102E-2,2.7181597E-2,-3.0108497E-1,9.741257E-2,3.864903E-2,-5.1862862E-2,7.953743E-2,2.8073147E-3],"categories":[],"categories_nodes":[],"categories_segments":[],"categories_sizes":[],"default_left":[0,0,0,0,0,0,0,0,0,0,0],"id":55,"left_children":[1,-1,3,-1,5,7,9,-1,-1,-1,-1],"loss_changes":[1.2737262E0,0E0,1.4007856E0,0E0,7.764711E-1,1.0913227E0,1.306231E0,0E0,0E0,0E0,0E0],"parents":[2147483647,0,0,2,2,4,4,5,5,6,6],"right_children":[2,-1,4,-1,6,8,10,-1,-1,-1,-1],"split_conditions":[3.584E-1,7.717525E-2,2.73165E1,-8.090102E-2,6.409E-1,3.62009E1,6.711E-1,3.864903E-2,-5.1862862E-2,7.953743E-2,2.8073147E-3],"split_indices":[4,0,3,0,4,0,4,0,0,0,0],"split_type":[0,0,0,0,0,0,0,0,0,0,0],"sum_hessian":[3.3677547E1,1.1335223E0,3.2544025E1,1.1363745E0,3.1407652E1,4.9559555E0,2.6451696E1,1.004498E0,3.9514575E0,1.4441665E0,2.500753E1],"tree_param":{"num_deleted":"0","num_feature":"9","num_nodes":"11","size_leaf_vector":"1"}},{"base_weights":[-1.1632869E-1,-5.61292E-1,-3.6647473E-2,2.3696017E-3,-8.041318E-2,3.899959E-1,-2.2394508E-1,7.9753727E-1,-5.7939297E-1,-4.2032263E-1,2.989032E-1,9.2760116E-2,1.4020187E-2,-7.811554E-3,-7.818335E-2,2.4441225E-2,-6.5399E-2,7.876085E-2,-3.1525552E-2],"categories":[],"categories_nodes":[],"categories_segments":[],"categories_sizes":[],"default_left":[0,0,0,0,0,0,0,0,0,0,0,0,0,0,0,0,0,0,0],"id":56,"left_children":[1,3,5,-1,-1,7,9,11,13,15,17,-1,-1,-1,-1,-1,-1,-1,-1],"loss_changes":[1.0672565E0,6.710998E-1,2.2522178E0,0E0,0E0,3.8714104E0,2.1239061E0,4.2535543E-1,2.5690377E-1,2.4219701E0,2.0186317E0,0E0,0E0,0E0,0E0,0E0,0E0,0E0,0E0],"parents":[2147483647,0,0,1,1,2,2,5,5,6,6,7,7,8,8,9,9,10,10],"right_children":[2,4,6,-1,-1,8,10,12,14,16,18,-1,-1,-1,-1,-1,-1,-1,-1],"split_conditions":[2.97898E1,6.3E-4,3.5965E1,2.3696017E-3,-8.041318E-2,1.6388E0,8.548E-1,8.805E-1,1.28E-1,8.25E-2,6.51297E1,9.2760116E-2,1.4020187E-2,-7.811554E-3,-7.818335E-2,2.4441225E-2,-6.5399E-2,7.876085E-2,-3.1525552E-2],"split_indices":[3,2,3,0,0,4,6,6,6,6,0,0,0,0,0,0,0,0,0],"split_type":[0,0,0,0,0,0,0,0,0,0,0,0,0,0,0,0,0,0,0],"sum_hessian":[2.9681704E1,3.5899801E0,2.6091722E1,1.317827E0,2.2721531E0,7.629754E0,1.846197E1,5.496321E0,2.1334333E0,1.356366E1,4.898309E0,4.2451916E0,1.2511296E0,1.0124078E0,1.1210256E0,3.515841E0,1.0047818E1,2.5704796E0,2.3278294E0],"tree_param":{"num_deleted":"0","num_feature":"9","num_nodes":"19","size_leaf_vector":"1"}},{"base_weights":[1.2070534E-2,-1.1737748E-1,3.9405784E-1,1.6203903E-1,-2.921159E-1,7.469027E-1,4.259846E-2,3.8896438E-1,-2.2790493E-1,1.9148177E-1,-4.6917468E-1,1.9986693E-2,8.603646E-2,6.605343E-2,-2.8254685E-1,-1.2312325E-2,7.1883865E-2,-7.720976E-2,1.6703963E-2,-1.1235565E-2,6.373234E-2,-8.850571E-2,-1.8425616E-2,4.4923365E-2,-7.3243126E-2],"categories":[],"categories_nodes":[],"categories_segments":[],"categories_sizes":[],"default_left":[0,0,0,0,0,0,0,0,0,0,0,0,0,0,0,0,0,0,0,0,0,0,0,0,0],"id":57,"left_children":[1,3,5,7,9,11,13,15,17,19,21,-1,-1,-1,23,-1,-1,-1,-1,-1,-1,-1,-1,-1,-1],"loss_changes":[1.784147E0,1.3666271E0,1.0998144E0,1.0655262E0,1.5438659E0,1.0692263E-1,1.3182267E0,1.3297628E0,1.137331E0,7.8431034E-1,1.3441577E0,0E0,0E0,0E0,1.7745318E0,0E0,0E0,0E0,0E0,0E0,0E0,0E0,0E0,0E0,0E0],"parents":[2147483647,0,0,1,1,2,2,3,3,4,4,5,5,6,6,7,7,8,8,9,9,10,10,14,14],"right_children":[2,4,6,8,10,12,14,16,18,20,22,-1,-1,-1,24,-1,-1,-1,-1,-1,-1,-1,-1,-1,-1],"split_conditions":[6.01358E1,4.01079E1,6.58511E1,3.818E-3,1.811E-3,8.112E-1,4.1654E1,5.05E-2,4.209E-3,6E0,2.374E-3,1.9986693E-2,8.603646E-2,6.605343E-2,8.838E-1,-1.2312325E-2,7.1883865E-2,-7.720976E-2,1.6703963E-2,-1.1235565E-2,6.373234E-2,-8.850571E-2,-1.8425616E-2,4.4923365E-2,-7.3243126E-2],"split_indices":[0,0,0,5,5,4,3,6,5,8,5,0,0,0,6,0,0,0,0,0,0,0,0,0,0],"split_type":[0,0,0,0,0,0,0,0,0,0,0,0,0,0,0,0,0,0,0,0,0,0,0,0,0],"sum_hessian":[3.414624E1,2.6020964E1,8.125276E0,1.003966E1,1.5981302E1,3.4931793E0,4.632097E0,6.3479967E0,3.6916635E0,4.261227E0,1.1720076E1,1.0744497E0,2.4187298E0,1.2413731E0,3.3907235E0,2.7326555E0,3.6153414E0,1.1508962E0,2.5407674E0,2.9790325E0,1.2821946E0,3.9085684E0,7.811507E0,1.2914697E0,2.099254E0],"tree_param":{"num_deleted":"0","num_feature":"9","num_nodes":"25","size_leaf_vector":"1"}},{"base_weights":[8.276963E-3,5.6183834E-2,-3.9292365E-2,-7.582389E-1,5.1786184E-2,-1.2207976E-2,-9.7591214E-2,-2.4169861E-1,1.4393015E-1,-7.82787E-2,1.356365E-3,3.898428E-2,-3.0786404E-3],"categories":[],"categories_nodes":[],"categories_segments":[],"categories_sizes":[],"default_left":[0,0,0,0,0,0,0,0,0,0,0,0,0],"id":58,"left_children":[1,-1,3,5,7,-1,-1,9,11,-1,-1,-1,-1],"loss_changes":[8.982507E-1,0E0,2.1068206E0,3.8133717E-1,8.179719E-1,0E0,0E0,1.0179611E0,9.859146E-1,0E0,0E0,0E0,0E0],"parents":[2147483647,0,0,2,2,3,3,4,4,7,7,8,8],"right_children":[2,-1,4,6,8,-1,-1,10,12,-1,-1,-1,-1],"split_conditions":[6.09E-4,5.6183834E-2,1.921963E0,1.509E-3,-5.20039E-1,-1.2207976E-2,-9.7591214E-2,7.03E-4,9.169E-1,-7.82787E-2,1.356365E-3,3.898428E-2,-3.0786404E-3],"split_indices":[2,0,1,5,7,0,0,2,4,0,0,0,0],"split_type":[0,0,0,0,0,0,0,0,0,0,0,0,0],"sum_hessian":[3.227346E1,1.6983957E0,3.0575064E1,2.6142056E0,2.796086E1,1.0643723E0,1.5498332E0,6.2932796E0,2.166758E1,1.3548205E0,4.938459E0,8.488612E0,1.31789665E1],"tree_param":{"num_deleted":"0","num_feature":"9","num_nodes":"13","size_leaf_vector":"1"}},{"base_weights":[3.658564E-2,-4.2356598E-1,1.0049317E-1,2.7451111E-2,-8.847707E-2,-3.7635965E-4,3.7893504E-1,-8.7583065E-2,3.5005566E-1,5.998536E-1,-1.7144202E-1,6.822791E-3,-4.682952E-2,5.6240708E-2,-2.1170799E-2,-3.4555085E-3,7.83858E-2,-4.906201E-2,2.6523938E-2],"categories":[],"categories_nodes":[],"categories_segments":[],"categories_sizes":[],"default_left":[0,0,0,0,0,0,0,0,0,0,0,0,0,0,0,0,0,0,0],"id":59,"left_children":[1,3,5,-1,-1,7,9,11,13,15,17,-1,-1,-1,-1,-1,-1,-1,-1],"loss_changes":[1.1157397E0,1.7374187E0,9.228222E-1,0E0,0E0,7.981566E-1,1.1651767E0,1.2723045E0,7.399283E-1,7.808244E-1,5.873319E-1,0E0,0E0,0E0,0E0,0E0,0E0,0E0,0E0],"parents":[2147483647,0,0,1,1,2,2,5,5,6,6,7,7,8,8,9,9,10,10],"right_children":[2,4,6,-1,-1,8,10,12,14,16,18,-1,-1,-1,-1,-1,-1,-1,-1],"split_conditions":[6.15E-4,6.07E-4,4.83677E1,2.7451111E-2,-8.847707E-2,2.501372E0,2.945446E0,2.722E-3,4.1654E1,6.93E-4,3.381521E0,6.822791E-3,-4.682952E-2,5.6240708E-2,-2.1170799E-2,-3.4555085E-3,7.83858E-2,-4.906201E-2,2.6523938E-2],"split_indices":[2,2,3,0,0,1,1,5,3,2,1,0,0,0,0,0,0,0,0],"split_type":[0,0,0,0,0,0,0,0,0,0,0,0,0,0,0,0,0,0,0],"sum_hessian":[3.549364E1,3.6420555E0,3.1851585E1,1.6099852E0,2.0320702E0,2.4114435E1,7.7371492E0,1.9909845E1,4.20459E0,5.4568872E0,2.2802622E0,1.4710278E1,5.1995673E0,3.0503767E0,1.1542134E0,1.4094846E0,4.0474024E0,1.2460111E0,1.034251E0],"tree_param":{"num_deleted":"0","num_feature":"9","num_nodes":"19","size_leaf_vector":"1"}},{"base_weights":[-3.6091313E-2,-1.5635782E-1,2.442939E-1,4.2755064E-2,-2.2212802E-1,7.1366155E-1,-2.4947291E-2,-6.870134E-2,-8.284614E-1,1.7385816E-2,9.5904015E-2,-7.001326E-2,1.9731803E-1,-1.4812815E-2,5.7691704E-2,-9.4967075E-2,-2.4569739E-2,-4.3870877E-2,6.627574E-2],"categories":[],"categories_nodes":[],"categories_segments":[],"categories_sizes":[],"default_left":[0,0,0,0,0,0,0,0,0,0,0,0,0,0,0,0,0,0,0],"id":60,"left_children":[1,3,5,-1,7,9,11,13,15,-1,-1,-1,17,-1,-1,-1,-1,-1,-1],"loss_changes":[1.216065E0,1.0571562E0,1.3921624E0,0E0,2.099109E0,3.6283994E-1,1.3202933E0,1.0898349E0,9.087443E-2,0E0,0E0,0E0,2.2760954E0,0E0,0E0,0E0,0E0,0E0,0E0],"parents":[2147483647,0,0,1,1,2,2,4,4,5,5,6,6,7,7,8,8,12,12],"right_children":[2,4,6,-1,8,10,12,14,16,-1,-1,-1,18,-1,-1,-1,-1,-1,-1],"split_conditions":[8.246E-1,4.366E-1,8.859E-1,4.2755064E-2,5.481E-1,8.548E-1,3.16016E1,1.4E1,2.357175E0,1.7385816E-2,9.5904015E-2,-7.001326E-2,9.589E-1,-1.4812815E-2,5.7691704E-2,-9.4967075E-2,-2.4569739E-2,-4.3870877E-2,6.627574E-2],"split_indices":[6,4,6,0,6,6,3,8,1,0,0,0,6,0,0,0,0,0,0],"split_type":[0,0,0,0,0,0,0,0,0,0,0,0,0,0,0,0,0,0,0],"sum_hessian":[3.392985E1,2.4054447E1,9.875403E0,1.8782908E0,2.2176157E1,2.9981294E0,6.877274E0,1.8586367E1,3.58979E0,1.4708862E0,1.527243E0,1.1707743E0,5.7064996E0,1.723643E1,1.3499371E0,2.4505105E0,1.1392796E0,2.4356263E0,3.2708733E0],"tree_param":{"num_deleted":"0","num_feature":"9","num_nodes":"19","size_leaf_vector":"1"}},{"base_weights":[-9.195777E-2,-4.0351054E-1,-1.17072435E-2,-2.1175683E-2,-9.859234E-2,3.8349453E-1,-1.1767296E-1,-7.045201E-2,8.6044215E-2,-4.3119155E-2,6.7124265E-1,-6.833028E-2,-3.613113E-2,2.4956213E-3,8.310175E-2,-1.466042E-2,2.658468E-2],"categories":[],"categories_nodes":[],"categories_segments":[],"categories_sizes":[],"default_left":[0,0,0,0,0,0,0,0,0,0,0,0,0,0,0,0,0],"id":61,"left_children":[1,3,5,7,-1,9,11,-1,-1,-1,13,-1,15,-1,-1,-1,-1],"loss_changes":[8.598416E-1,1.549619E0,1.2397621E0,3.7869415E0,0E0,1.7584338E0,1.0481325E0,0E0,0E0,0E0,4.9782705E-1,0E0,7.523989E-1,0E0,0E0,0E0,0E0],"parents":[2147483647,0,0,1,1,2,2,3,3,5,5,6,6,10,10,12,12],"right_children":[2,4,6,8,-1,10,12,-1,-1,-1,14,-1,16,-1,-1,-1,-1],"split_conditions":[3.16016E1,5.33384E1,3.5965E1,4.04E-1,-9.859234E-2,1.923709E0,3.7416E1,-7.045201E-2,8.6044215E-2,-4.3119155E-2,6.7E-2,-6.833028E-2,1.3E1,2.4956213E-3,8.310175E-2,-1.466042E-2,2.658468E-2],"split_indices":[3,0,3,6,0,1,3,0,0,0,6,0,8,0,0,0,0],"split_type":[0,0,0,0,0,0,0,0,0,0,0,0,0,0,0,0,0],"sum_hessian":[3.3579475E1,6.0528092E0,2.7526669E1,4.279691E0,1.7731179E0,5.266412E0,2.2260256E1,2.5241182E0,1.755573E0,1.2444794E0,4.021932E0,1.8748986E0,2.0385357E1,1.0263919E0,2.9955404E0,1.5301944E1,5.083414E0],"tree_param":{"num_deleted":"0","num_feature":"9","num_nodes":"17","size_leaf_vector":"1"}},{"base_weights":[7.56245E-2,3.4369025E-1,-3.4164213E-2,-3.1591598E-2,4.7599936E-1,3.166613E-1,-1.3226342E-1,3.857636E-2,7.476282E-1,-1.1421747E-2,5.151569E-1,-2.7467108E-1,1.7895824E-1,5.4657307E-2,-6.622913E-2,9.2567824E-2,-2.2456022E-4,6.6757E-2,5.903968E-3,3.4486146E-3,-6.828503E-2,5.078094E-2,-2.7660072E-2],"categories":[],"categories_nodes":[],"categories_segments":[],"categories_sizes":[],"default_left":[0,0,0,0,0,0,0,0,0,0,0,0,0,0,0,0,0,0,0,0,0,0,0],"id":62,"left_children":[1,3,5,-1,7,9,11,13,15,-1,17,19,21,-1,-1,-1,-1,-1,-1,-1,-1,-1,-1],"loss_changes":[1.0079886E0,1.0166383E0,8.996837E-1,0E0,1.0008913E0,5.498687E-1,9.436952E-1,1.9194648E0,7.086537E-1,0E0,2.4644375E-1,1.8207462E0,1.1804042E0,0E0,0E0,0E0,0E0,0E0,0E0,0E0,0E0,0E0,0E0],"parents":[2147483647,0,0,1,1,2,2,4,4,5,5,6,6,7,7,8,8,10,10,11,11,12,12],"right_children":[2,4,6,-1,8,10,12,14,16,-1,18,20,22,-1,-1,-1,-1,-1,-1,-1,-1,-1,-1],"split_conditions":[3.8704E1,6.32E-4,2E0,-3.1591598E-2,8.664E-1,8.112E-1,3.335E-3,7.119E-1,3.818E-3,-1.1421747E-2,2.115537E0,6.83E-4,4.553E-3,5.4657307E-2,-6.622913E-2,9.2567824E-2,-2.2456022E-4,6.6757E-2,5.903968E-3,3.4486146E-3,-6.828503E-2,5.078094E-2,-2.7660072E-2],"split_indices":[0,2,8,0,4,4,5,4,5,0,1,2,5,0,0,0,0,0,0,0,0,0,0],"split_type":[0,0,0,0,0,0,0,0,0,0,0,0,0,0,0,0,0,0,0,0,0,0,0],"sum_hessian":[3.2850716E1,8.92602E0,2.3924696E1,1.2594612E0,7.6665583E0,4.741177E0,1.918352E1,3.3744555E0,4.292103E0,1.6292069E0,3.1119704E0,1.3241819E1,5.9417005E0,2.0840561E0,1.2903992E0,3.2790744E0,1.0130284E0,1.9850624E0,1.126908E0,8.055813E0,5.1860056E0,3.384128E0,2.5575724E0],"tree_param":{"num_deleted":"0","num_feature":"9","num_nodes":"23","size_leaf_vector":"1"}},{"base_weights":[8.4111474E-2,1.7259286E-1,-4.1140828E-1,7.1050085E-2,7.208794E-1,-1.1594214E-1,-7.494196E-2,7.9468906E-2,2.1276525E-3,8.574503E-2,2.447701E-2,-4.885017E-2,4.4515442E-2,-4.812647E-2,7.1163587E-3],"categories":[],"categories_nodes":[],"categories_segments":[],"categories_sizes":[],"default_left":[0,0,0,0,0,0,0,0,0,0,0,0,0,0,0],"id":63,"left_children":[1,3,5,7,9,11,-1,-1,13,-1,-1,-1,-1,-1,-1],"loss_changes":[1.5775204E0,1.6111729E0,4.6254724E-1,1.3101518E0,8.639574E-2,1.0783982E0,0E0,0E0,8.6913526E-1,0E0,0E0,0E0,0E0,0E0,0E0],"parents":[2147483647,0,0,1,1,2,2,3,3,4,4,5,5,8,8],"right_children":[2,4,6,8,10,12,-1,-1,14,-1,-1,-1,-1,-1,-1],"split_conditions":[1.6388E0,1.353E0,2.686E-3,7.6E-3,1.5475E0,2.031197E0,-7.494196E-2,7.9468906E-2,1.921963E0,8.574503E-2,2.447701E-2,-4.885017E-2,4.4515442E-2,-4.812647E-2,7.1163587E-3],"split_indices":[4,4,5,6,4,1,0,0,1,0,0,0,0,0,0],"split_type":[0,0,0,0,0,0,0,0,0,0,0,0,0,0,0],"sum_hessian":[3.336057E1,2.88591E1,4.501468E0,2.5302633E1,3.5564675E0,3.1185021E0,1.3829662E0,1.2846353E0,2.4017998E1,2.14129E0,1.4151776E0,1.9518704E0,1.1666317E0,2.2552722E0,2.1762726E1],"tree_param":{"num_deleted":"0","num_feature":"9","num_nodes":"15","size_leaf_vector":"1"}},{"base_weights":[-5.6529947E-2,-1.6368265E-1,2.4252093E-1,2.6103342E-2,-4.7925264E-1,-4.9165085E-2,3.9745295E-1,-1.0246015E-1,8.2256995E-2,2.8154587E-2,-6.3204855E-1,7.6402026E-1,-8.0445684E-2,3.499916E-2,-2.8109297E-2,-9.772616E-2,-3.376861E-2,9.7312465E-2,1.6327048E-2,3.5142444E-2,-3.31548E-2],"categories":[],"categories_nodes":[],"categories_segments":[],"categories_sizes":[],"default_left":[0,0,0,0,0,0,0,0,0,0,0,0,0,0,0,0,0,0,0,0,0],"id":64,"left_children":[1,3,5,7,9,-1,11,13,-1,-1,15,17,19,-1,-1,-1,-1,-1,-1,-1,-1],"loss_changes":[1.1118042E0,1.5234692E0,1.2451386E0,1.7945441E0,1.2853448E0,0E0,1.4933099E0,1.3325632E0,0E0,0E0,5.074415E-1,4.3413997E-1,5.993807E-1,0E0,0E0,0E0,0E0,0E0,0E0,0E0,0E0],"parents":[2147483647,0,0,1,1,2,2,3,3,4,4,6,6,7,7,10,10,11,11,12,12],"right_children":[2,4,6,8,10,-1,12,14,-1,-1,16,18,20,-1,-1,-1,-1,-1,-1,-1,-1],"split_conditions":[2.482766E0,2.722E-3,1.981E-3,2.603E-3,4.36E-2,-4.9165085E-2,5.672E-3,1.791E-3,8.2256995E-2,2.8154587E-2,3.073E-3,7.929E-1,2.945446E0,3.499916E-2,-2.8109297E-2,-9.772616E-2,-3.376861E-2,9.7312465E-2,1.6327048E-2,3.5142444E-2,-3.31548E-2],"split_indices":[1,5,5,5,6,0,5,5,0,0,5,6,1,0,0,0,0,0,0,0,0],"split_type":[0,0,0,0,0,0,0,0,0,0,0,0,0,0,0,0,0,0,0,0,0],"sum_hessian":[3.245725E1,2.4228582E1,8.228666E0,1.5702357E1,8.526225E0,1.0551808E0,7.1734858E0,1.4270249E1,1.4321088E0,1.2850587E0,7.2411666E0,3.7207866E0,3.4526992E0,3.7677612E0,1.0502488E1,2.2649841E0,4.9761825E0,2.3002744E0,1.4205122E0,1.1225324E0,2.3301668E0],"tree_param":{"num_deleted":"0","num_feature":"9","num_nodes":"21","size_leaf_vector":"1"}},{"base_weights":[-7.0409715E-2,-5.809271E-1,-4.2260444E-4,-1.007291E-2,-7.222943E-2,6.814525E-2,-6.733101E-2,-2.7068347E-1,9.882584E-2,1.9200636E-2,-4.5582566E-2,-2.3387292E-2,2.1846978E-2],"categories":[],"categories_nodes":[],"categories_segments":[],"categories_sizes":[],"default_left":[0,0,0,0,0,0,0,0,0,0,0,0,0],"id":65,"left_children":[1,3,5,-1,-1,-1,7,9,11,-1,-1,-1,-1],"loss_changes":[1.1743068E0,1.9623995E-1,1.4105071E0,0E0,0E0,0E0,9.778312E-1,1.1947032E0,6.9687057E-1,0E0,0E0,0E0,0E0],"parents":[2147483647,0,0,1,1,2,2,6,6,7,7,8,8],"right_children":[2,4,6,-1,-1,-1,8,10,12,-1,-1,-1,-1],"split_conditions":[2.98416E1,2.005611E0,1.545E-3,-1.007291E-2,-7.222943E-2,6.814525E-2,2.191217E0,7.567E-1,-5.93176E-1,1.9200636E-2,-4.5582566E-2,-2.3387292E-2,2.1846978E-2],"split_indices":[3,1,5,0,0,0,1,4,7,0,0,0,0],"split_type":[0,0,0,0,0,0,0,0,0,0,0,0,0],"sum_hessian":[3.1873335E1,2.9625657E0,2.8910769E1,1.0632932E0,1.8992726E0,1.7626313E0,2.7148138E1,1.1924794E1,1.5223344E1,3.3973598E0,8.527434E0,3.7740228E0,1.1449321E1],"tree_param":{"num_deleted":"0","num_feature":"9","num_nodes":"13","size_leaf_vector":"1"}},{"base_weights":[8.3347775E-2,-2.5158929E-2,3.5743836E-1,7.5511485E-2,-7.0873514E-2,4.124821E-2,6.121594E-1,3.474128E-1,-4.7278643E-2,-3.1730282E-1,5.670462E-2,8.498176E-3,7.39541E-2,-9.735159E-3,6.3434064E-2,2.0265976E-2,-5.2760076E-2,4.567815E-2,-8.9161105E-2],"categories":[],"categories_nodes":[],"categories_segments":[],"categories_sizes":[],"default_left":[0,0,0,0,0,0,0,0,0,0,0,0,0,0,0,0,0,0,0],"id":66,"left_children":[1,3,5,7,-1,9,11,13,15,17,-1,-1,-1,-1,-1,-1,-1,-1,-1],"loss_changes":[1.0030754E0,1.7656397E0,7.4352896E-1,7.7062464E-1,0E0,1.1849595E0,2.8730404E-1,9.73891E-1,2.0808253E0,2.101418E0,0E0,0E0,0E0,0E0,0E0,0E0,0E0,0E0,0E0],"parents":[2147483647,0,0,1,1,2,2,3,3,5,5,6,6,7,7,8,8,9,9],"right_children":[2,4,6,8,-1,10,12,14,16,18,-1,-1,-1,-1,-1,-1,-1,-1,-1],"split_conditions":[7.9E-4,3.818E-3,8.851E-1,4.01079E1,-7.0873514E-2,5.4736E1,3.77234E1,2.465E-3,6.84E-4,3.5202E1,5.670462E-2,8.498176E-3,7.39541E-2,-9.735159E-3,6.3434064E-2,2.0265976E-2,-5.2760076E-2,4.567815E-2,-8.9161105E-2],"split_indices":[2,5,4,0,0,3,3,5,2,3,0,0,0,0,0,0,0,0,0],"split_type":[0,0,0,0,0,0,0,0,0,0,0,0,0,0,0,0,0,0,0],"sum_hessian":[3.2425026E1,2.3879745E1,8.54528E0,2.1589754E1,2.289993E0,4.3310275E0,4.2142534E0,6.1475515E0,1.5442202E1,2.810814E0,1.5202134E0,1.1445594E0,3.069694E0,2.669811E0,3.4777403E0,1.05371895E1,4.9050126E0,1.2843443E0,1.5264697E0],"tree_param":{"num_deleted":"0","num_feature":"9","num_nodes":"19","size_leaf_vector":"1"}},{"base_weights":[4.17554E-2,6.3782454E-1,-2.6784673E-2,7.653684E-2,2.1604003E-2,1.8026224E-1,-1.6982314E-1,4.1070074E-1,-2.6691929E-1,-3.4792462E-1,1.8766887E-1,-1.1447091E-2,5.9931334E-2,3.536806E-2,-8.000918E-2,-5.2125026E-2,7.192658E-3,5.641814E-2,-2.3417111E-2],"categories":[],"categories_nodes":[],"categories_segments":[],"categories_sizes":[],"default_left":[0,0,0,0,0,0,0,0,0,0,0,0,0,0,0,0,0,0,0],"id":67,"left_children":[1,3,5,-1,-1,7,9,11,13,15,17,-1,-1,-1,-1,-1,-1,-1,-1],"loss_changes":[1.3633833E0,1.9640088E-2,9.3432564E-1,0E0,0E0,1.444385E0,1.2471251E0,9.5433104E-1,1.9410393E0,9.645835E-1,1.2156395E0,0E0,0E0,0E0,0E0,0E0,0E0,0E0,0E0],"parents":[2147483647,0,0,1,1,2,2,5,5,6,6,7,7,8,8,9,9,10,10],"right_children":[2,4,6,-1,-1,8,10,12,14,16,18,-1,-1,-1,-1,-1,-1,-1,-1],"split_conditions":[4.878E-1,1.38792E-1,-2.70425E-1,7.653684E-2,2.1604003E-2,3.618E-3,1.2278E0,-5.93176E-1,-7.40688E-1,3.398E-3,1.6388E0,-1.1447091E-2,5.9931334E-2,3.536806E-2,-8.000918E-2,-5.2125026E-2,7.192658E-3,5.641814E-2,-2.3417111E-2],"split_indices":[4,7,7,0,0,5,4,7,7,5,4,0,0,0,0,0,0,0,0],"split_type":[0,0,0,0,0,0,0,0,0,0,0,0,0,0,0,0,0,0,0],"sum_hessian":[3.1953417E1,2.4387338E0,2.9514683E1,1.2470433E0,