{"learner":{"attributes":{},"feature_names":["rsi","atr","atr_pct","adx","volume_ratio","bb_width","bb_position","macd_hist","hour"],"feature_types":[],"gradient_booster":{"model":{"gbtree_model_param":{"num_parallel_tree":"1","num_trees":"100"},"iteration_indptr":[0,1,2,3,4,5,6,7,8,9,10,11,12,13,14,15,16,17,18,19,20,21,22,23,24,25,26,27,28,29,30,31,32,33,34,35,36,37,38,39,40,41,42,43,44,45,46,47,48,49,50,51,52,53,54,55,56,57,58,59,60,61,62,63,64,65,66,67,68,69,70,71,72,73,74,75,76,77,78,79,80,81,82,83,84,85,86,87,88,89,90,91,92,93,94,95,96,97,98,99,100],"tree_info":[0,0,0,0,0,0,0,0,0,0,0,0,0,0,0,0,0,0,0,0,0,0,0,0,0,0,0,0,0,0,0,0,0,0,0,0,0,0,0,0,0,0,0,0,0,0,0,0,0,0,0,0,0,0,0,0,0,0,0,0,0,0,0,0,0,0,0,0,0,0,0,0,0,0,0,0,0,0,0,0,0,0,0,0,0,0,0,0,0,0,0,0,0,0,0,0,0,0,0,0],"trees":[{"base_weights":[6.4516164E-2,8.034188E-1,-3.474178E-1,-1.2765956E-2,1.1111112E0,-6.9662917E-1,9.090909E-2,1.4117648E-1,9.523812E-3,3.3333335E-2,-9.3333334E-1,-1.3962264E-1,1.2500003E-2],"categories":[],"categories_nodes":[],"categories_segments":[],"categories_sizes":[],"default_left":[0,0,0,0,0,0,0,0,0,0,0,0,0],"id":0,"left_children":[1,3,5,-1,7,9,-1,-1,-1,-1,11,-1,-1],"loss_changes":[4.996998E0,1.817785E0,5.306383E0,0E0,1.2399626E0,2.4808989E0,0E0,0E0,0E0,0E0,3.848742E0,0E0,0E0],"parents":[2147483647,0,0,1,1,2,2,4,4,5,5,10,10],"right_children":[2,4,6,-1,8,10,-1,-1,-1,-1,12,-1,-1],"split_conditions":[2.1834448E1,4.4827E1,8.46895E1,-1.2765956E-2,7.609354E0,1.339E-3,9.090909E-2,1.4117648E-1,9.523812E-3,3.3333335E-2,9.76E-3,-1.3962264E-1,1.2500003E-2],"split_indices":[1,3,0,0,7,2,0,0,0,0,5,0,0],"split_type":[0,0,0,0,0,0,0,0,0,0,0,0,0],"sum_hessian":[1.45E1,4.8500004E0,9.650001E0,1.35E0,3.5E0,7.9E0,1.75E0,2.4E0,1.1E0,1.4000001E0,6.5E0,4.3E0,2.2E0],"tree_param":{"num_deleted":"0","num_feature":"9","num_nodes":"13","size_leaf_vector":"1"}},{"base_weights":[2.0717311E-1,1.0675689E0,-3.0789822E-1,5.8091367E-3,1.2985072E-1,-6.697922E-1,8.680603E-2,-1.1756119E0,-7.71364E-2,-3.685433E-2,-1.322022E-1,3.1262033E-2,-4.530351E-2],"categories":[],"categories_nodes":[],"categories_segments":[],"categories_sizes":[],"default_left":[0,0,0,0,0,0,0,0,0,0,0,0,0],"id":1,"left_children":[1,3,5,-1,-1,7,-1,9,11,-1,-1,-1,-1],"loss_changes":[6.739212E0,1.2395592E0,4.762504E0,0E0,0E0,2.3306484E0,0E0,1.9411564E-2,8.433363E-1,0E0,0E0,0E0,0E0],"parents":[2147483647,0,0,1,1,2,2,5,5,7,7,8,8],"right_children":[2,4,6,-1,-1,8,-1,10,12,-1,-1,-1,-1],"split_conditions":[1.363E-3,5.953E-3,1.1083251E1,5.8091367E-3,1.2985072E-1,4.72654E1,8.680603E-2,3.52447E1,1.3E1,-3.685433E-2,-1.322022E-1,3.1262033E-2,-4.530351E-2],"split_indices":[2,5,7,0,0,3,0,3,8,0,0,0,0],"split_type":[0,0,0,0,0,0,0,0,0,0,0,0,0],"sum_hessian":[1.3465281E1,4.640665E0,8.8246155E0,1.0969999E0,3.5436652E0,7.077108E0,1.7475076E0,3.2875862E0,3.7895217E0,1.0448992E0,2.2426872E0,1.9431126E0,1.8464091E0],"tree_param":{"num_deleted":"0","num_feature":"9","num_nodes":"13","size_leaf_vector":"1"}},{"base_weights":[-1.262947E-1,7.688554E-1,-5.733012E-1,-4.1334737E-2,1.1880308E-1,7.705592E-2,-9.613321E-1,-1.387566E0,1.0940237E-1,-4.249036E-2,-1.5106024E-1,6.0429092E-2,-4.628885E-2],"categories":[],"categories_nodes":[],"categories_segments":[],"categories_sizes":[],"default_left":[0,0,0,0,0,0,0,0,0,0,0,0,0],"id":2,"left_children":[1,3,5,-1,-1,-1,7,9,11,-1,-1,-1,-1],"loss_changes":[5.9091525E0,2.958261E0,5.792409E0,0E0,0E0,0E0,3.785503E0,4.131794E-2,1.1843058E0,0E0,0E0,0E0,0E0],"parents":[2147483647,0,0,1,1,2,2,6,6,7,7,8,8],"right_children":[2,4,6,-1,-1,-1,8,10,12,-1,-1,-1,-1],"split_conditions":[4.30524E1,6.425E-3,1.7857477E1,-4.1334737E-2,1.1880308E-1,7.705592E-2,1.2332E-2,-1.1434079E1,5.30274E1,-4.249036E-2,-1.5106024E-1,6.0429092E-2,-4.628885E-2],"split_indices":[3,5,1,0,0,0,5,7,3,0,0,0,0],"split_type":[0,0,0,0,0,0,0,0,0,0,0,0,0],"sum_hessian":[1.2666207E1,3.978692E0,8.687515E0,1.0450983E0,2.9335938E0,1.7255679E0,6.961947E0,4.7680135E0,2.1939337E0,1.0450224E0,3.7229912E0,1.1465441E0,1.0473895E0],"tree_param":{"num_deleted":"0","num_feature":"9","num_nodes":"13","size_leaf_vector":"1"}},{"base_weights":[-1.3521647E-1,-4.0078455E-1,7.6840556E-1,-9.104576E-1,8.3666906E-2,1.772934E-2,1.0824656E-1,9.33803E-3,-1.1258163E0,1.0254989E-1,-2.4105477E-1,-4.3074105E-2,-1.3540475E-1,5.387366E-2,-6.185701E-2],"categories":[],"categories_nodes":[],"categories_segments":[],"categories_sizes":[],"default_left":[0,0,0,0,0,0,0,0,0,0,0,0,0,0,0],"id":3,"left_children":[1,3,5,7,9,-1,-1,-1,11,-1,13,-1,-1,-1,-1],"loss_changes":[4.272729E0,3.3912623E0,5.683942E-1,1.5377765E0,2.6324723E0,0E0,0E0,0E0,2.9449177E-1,0E0,2.2789252E0,0E0,0E0,0E0,0E0],"parents":[2147483647,0,0,1,1,2,2,3,3,4,4,8,8,10,10],"right_children":[2,4,6,8,10,-1,-1,-1,12,-1,14,-1,-1,-1,-1],"split_conditions":[1.0962E0,4.73234E1,1.2237E0,1.8485254E1,-4.85E-2,1.772934E-2,1.0824656E-1,9.33803E-3,3.53775E1,1.0254989E-1,5.19333E1,-4.3074105E-2,-1.3540475E-1,5.387366E-2,-6.185701E-2],"split_indices":[6,3,6,1,6,0,0,0,3,0,3,0,0,0,0],"split_type":[0,0,0,0,0,0,0,0,0,0,0,0,0,0,0],"sum_hessian":[1.5521697E1,1.2426195E1,3.0955017E0,5.626943E0,6.7992525E0,1.6168488E0,1.4786528E0,1.0939906E0,4.532953E0,1.1899118E0,5.60934E0,1.8342054E0,2.6987474E0,1.6904688E0,3.9188716E0],"tree_param":{"num_deleted":"0","num_feature":"9","num_nodes":"15","size_leaf_vector":"1"}},{"base_weights":[1.4106692E-1,7.858692E-1,-2.6353222E-1,1.1210539E0,-4.7371004E-2,-9.192702E-1,2.4139804E-1,2.9063946E-2,1.340147E-1,-3.6740329E-3,-1.2510309E-1,-6.837459E-2,6.4615697E-1,1.02448024E-1,-1.284675E-3],"categories":[],"categories_nodes":[],"categories_segments":[],"categories_sizes":[],"default_left":[0,0,0,0,0,0,0,0,0,0,0,0,0,0,0],"id":4,"left_children":[1,3,5,7,-1,9,11,-1,-1,-1,-1,-1,13,-1,-1],"loss_changes":[4.3526297E0,3.2236314E0,3.7026348E0,5.80997E-1,0E0,1.3539457E0,2.9623923E0,0E0,0E0,0E0,0E0,0E0,1.3087864E0,0E0,0E0],"parents":[2147483647,0,0,1,1,2,2,3,3,5,5,6,6,12,12],"right_children":[2,4,6,8,-1,10,12,-1,-1,-1,-1,-1,14,-1,-1],"split_conditions":[1.363E-3,9.430291E0,8.061E-3,1.305E-3,-4.7371004E-2,-4.517827E0,-4.590855E0,2.9063946E-2,1.340147E-1,-3.6740329E-3,-1.2510309E-1,-6.837459E-2,5.06649E1,1.02448024E-1,-1.284675E-3],"split_indices":[2,7,5,2,0,7,7,0,0,0,0,0,3,0,0],"split_type":[0,0,0,0,0,0,0,0,0,0,0,0,0,0,0],"sum_hessian":[1.48901615E1,5.377615E0,9.512547E0,4.3342195E0,1.0433953E0,3.7812982E0,5.7312484E0,1.3904898E0,2.9437299E0,1.3365719E0,2.4447262E0,1.5345385E0,4.1967096E0,2.3138037E0,1.8829061E0],"tree_param":{"num_deleted":"0","num_feature":"9","num_nodes":"15","size_leaf_vector":"1"}},{"base_weights":[5.7961375E-2,9.01618E-1,-2.1933983E-1,-2.0181069E-3,1.2064417E-1,-4.5517847E-1,6.7112553E-1,-1.6860421E-1,-1.2043319E-1,-3.237251E-3,1.02813385E-1,-4.8591174E-2,3.817589E-2],"categories":[],"categories_nodes":[],"categories_segments":[],"categories_sizes":[],"default_left":[0,0,0,0,0,0,0,0,0,0,0,0,0],"id":5,"left_children":[1,3,5,-1,-1,7,9,11,-1,-1,-1,-1,-1],"loss_changes":[4.167887E0,1.2589271E0,3.1566212E0,0E0,0E0,2.229258E0,8.487655E-1,1.8196528E0,0E0,0E0,0E0,0E0,0E0],"parents":[2147483647,0,0,1,1,2,2,5,5,6,6,7,7],"right_children":[2,4,6,-1,-1,8,10,12,-1,-1,-1,-1,-1],"split_conditions":[1.7898106E1,1.4095E0,8.46895E1,-2.0181069E-3,1.2064417E-1,7.85058E0,1.0797E0,5.26957E1,-1.2043319E-1,-3.237251E-3,1.02813385E-1,-4.8591174E-2,3.817589E-2],"split_indices":[1,4,0,0,0,7,4,0,0,0,0,0,0],"split_type":[0,0,0,0,0,0,0,0,0,0,0,0,0],"sum_hessian":[1.5970196E1,3.3937385E0,1.2576457E1,1.0754198E0,2.3183188E0,1.0329526E1,2.2469313E0,8.357561E0,1.9719647E0,1.0625199E0,1.1844113E0,5.3754783E0,2.9820828E0],"tree_param":{"num_deleted":"0","num_feature":"9","num_nodes":"13","size_leaf_vector":"1"}},{"base_weights":[-5.446861E-4,-5.7553464E-1,5.5704886E-1,3.2407507E-1,-9.987172E-1,1.11151494E-1,-5.2496683E-2,-4.769076E-2,9.2447534E-2,2.1640386E-3,-1.3276516E-1,-5.5618357E-2,2.9228613E-1,6.327197E-2,-1.4673962E-2],"categories":[],"categories_nodes":[],"categories_segments":[],"categories_sizes":[],"default_left":[0,0,0,0,0,0,0,0,0,0,0,0,0,0,0],"id":6,"left_children":[1,3,5,7,9,-1,11,-1,-1,-1,-1,-1,13,-1,-1],"loss_changes":[4.969207E0,3.2284307E0,2.7178984E0,1.9778774E0,1.852581E0,0E0,9.7934943E-1,0E0,0E0,0E0,0E0,0E0,6.081171E-1,0E0,0E0],"parents":[2147483647,0,0,1,1,2,2,3,3,4,4,6,6,12,12],"right_children":[2,4,6,8,10,-1,12,-1,-1,-1,-1,-1,14,-1,-1],"split_conditions":[5.26957E1,1.349E-3,1.422E-3,1.305E-3,2.1332232E1,1.11151494E-1,2.5734049E1,-4.769076E-2,9.2447534E-2,2.1640386E-3,-1.3276516E-1,-5.5618357E-2,7.27717E1,6.327197E-2,-1.4673962E-2],"split_indices":[0,2,2,2,1,0,1,0,0,0,0,0,0,0,0],"split_type":[0,0,0,0,0,0,0,0,0,0,0,0,0,0,0],"sum_hessian":[1.3499224E1,6.6300974E0,6.8691263E0,2.195998E0,4.4340997E0,3.1658413E0,3.7032852E0,1.0289625E0,1.1670356E0,1.3087025E0,3.125397E0,1.2557058E0,2.4475794E0,1.1300865E0,1.317493E0],"tree_param":{"num_deleted":"0","num_feature":"9","num_nodes":"15","size_leaf_vector":"1"}},{"base_weights":[-7.809197E-2,7.74207E-1,-4.5064178E-1,2.749466E-3,9.786881E-2,-9.457021E-1,5.816455E-2,3.0174826E-3,-1.2543571E-1,6.8318814E-1,-6.249741E-1,-3.3604797E-2,1.1758237E-1,-9.879631E-2,9.4538145E-3],"categories":[],"categories_nodes":[],"categories_segments":[],"categories_sizes":[],"default_left":[0,0,0,0,0,0,0,0,0,0,0,0,0,0,0],"id":7,"left_children":[1,3,5,-1,-1,7,9,-1,-1,11,13,-1,-1,-1,-1],"loss_changes":[5.024195E0,7.130885E-1,2.7950182E0,0E0,0E0,1.7159853E0,3.1197073E0,0E0,0E0,2.288637E0,1.0167623E0,0E0,0E0,0E0,0E0],"parents":[2147483647,0,0,1,1,2,2,5,5,6,6,9,9,10,10],"right_children":[2,4,6,-1,-1,8,10,-1,-1,12,14,-1,-1,-1,-1],"split_conditions":[1.342E-3,4.717E-3,5.26957E1,2.749466E-3,9.786881E-2,2.12963E1,5.23143E1,3.0174826E-3,-1.2543571E-1,2.517125E1,8.46895E1,-3.3604797E-2,1.1758237E-1,-9.879631E-2,9.4538145E-3],"split_indices":[2,5,0,0,0,0,3,0,0,1,0,0,0,0,0],"split_type":[0,0,0,0,0,0,0,0,0,0,0,0,0,0,0],"sum_hessian":[1.3724267E1,3.846447E0,9.87782E0,1.0707617E0,2.7756853E0,4.571326E0,5.3064938E0,1.3152207E0,3.2561052E0,2.7710793E0,2.5354145E0,1.0065138E0,1.7645655E0,1.4372369E0,1.0981776E0],"tree_param":{"num_deleted":"0","num_feature":"9","num_nodes":"15","size_leaf_vector":"1"}},{"base_weights":[-3.2832533E-2,8.3473206E-1,-3.9119965E-1,3.6680175E-3,1.09136164E-1,-7.0602745E-1,6.270238E-2,3.5981655E-3,-8.903539E-1,-3.323627E-2,-1.04951E-1],"categories":[],"categories_nodes":[],"categories_segments":[],"categories_sizes":[],"default_left":[0,0,0,0,0,0,0,0,0,0,0],"id":8,"left_children":[1,3,5,-1,-1,7,-1,-1,9,-1,-1],"loss_changes":[4.538471E0,8.363769E-1,3.7342486E0,0E0,0E0,1.1690688E0,0E0,0E0,2.4601221E-1,0E0,0E0],"parents":[2147483647,0,0,1,1,2,2,5,5,8,8],"right_children":[2,4,6,-1,-1,8,-1,-1,10,-1,-1],"split_conditions":[1.94726E1,5.46E-3,1.1544E-2,3.6680175E-3,1.09136164E-1,1.385E-3,6.270238E-2,3.5981655E-3,-4.517827E0,-3.323627E-2,-1.04951E-1],"split_indices":[1,5,5,0,0,2,0,0,7,0,0],"split_type":[0,0,0,0,0,0,0,0,0,0,0],"sum_hessian":[1.2547234E1,3.2792618E0,9.267972E0,1.0760266E0,2.2032351E0,7.3133435E0,1.9546281E0,1.6153839E0,5.69796E0,1.9499254E0,3.7480342E0],"tree_param":{"num_deleted":"0","num_feature":"9","num_nodes":"11","size_leaf_vector":"1"}},{"base_weights":[-5.6909602E-2,-3.2972035E-1,6.214631E-1,1.5869182E-1,-5.430275E-1,-3.591003E-3,8.7654136E-2,-4.1996226E-2,6.5900825E-2,-7.9183793E-1,1.0221977E-1,1.08639095E-2,-1.05433695E-1,-4.3556433E-2,5.7500113E-2],"categories":[],"categories_nodes":[],"categories_segments":[],"categories_sizes":[],"default_left":[0,0,0,0,0,0,0,0,0,0,0,0,0,0,0],"id":9,"left_children":[1,3,5,7,9,-1,-1,-1,-1,11,13,-1,-1,-1,-1],"loss_changes":[2.9712825E0,1.2648913E0,8.0849385E-1,1.4964854E0,1.3815055E0,0E0,0E0,0E0,0E0,1.5235348E0,1.0488378E0,0E0,0E0,0E0,0E0],"parents":[2147483647,0,0,1,1,2,2,3,3,4,4,9,9,10,10],"right_children":[2,4,6,8,10,-1,-1,-1,-1,12,14,-1,-1,-1,-1],"split_conditions":[1.0962E0,1.363E-3,7.34975E1,1.311E-3,6.16375E1,-3.591003E-3,8.7654136E-2,-4.1996226E-2,6.5900825E-2,-4.85E-2,1.0797E0,1.08639095E-2,-1.05433695E-1,-4.3556433E-2,5.7500113E-2],"split_indices":[6,2,0,2,0,0,0,0,0,6,4,0,0,0,0],"split_type":[0,0,0,0,0,0,0,0,0,0,0,0,0,0,0],"sum_hessian":[1.3947927E1,1.0314041E1,3.6338856E0,3.213071E0,7.1009703E0,1.2560596E0,2.3778262E0,1.5643675E0,1.6487036E0,4.9608555E0,2.140115E0,1.2520283E0,3.708827E0,1.038056E0,1.102059E0],"tree_param":{"num_deleted":"0","num_feature":"9","num_nodes":"15","size_leaf_vector":"1"}},{"base_weights":[-2.4045417E-2,-2.2035244E-1,6.1844045E-1,5.73714E-2,-9.740745E-2,8.802009E-3,7.653634E-2,-2.8633857E-1,4.2391363E-1,3.6572766E-2,-7.2116524E-2,8.0013804E-2,-4.724144E-2],"categories":[],"categories_nodes":[],"categories_segments":[],"categories_sizes":[],"default_left":[0,0,0,0,0,0,0,0,0,0,0,0,0],"id":10,"left_children":[1,3,5,7,-1,-1,-1,9,11,-1,-1,-1,-1],"loss_changes":[2.181337E0,2.8100224E0,2.4883687E-1,1.4516332E0,0E0,0E0,0E0,1.9780068E0,2.2370486E0,0E0,0E0,0E0,0E0],"parents":[2147483647,0,0,1,1,2,2,3,3,7,7,8,8],"right_children":[2,4,6,8,-1,-1,-1,10,12,-1,-1,-1,-1],"split_conditions":[1.0962E0,4.543564E0,6.425E-3,3.51196E1,-9.740745E-2,8.802009E-3,7.653634E-2,2.08282E1,7.27717E1,3.6572766E-2,-7.2116524E-2,8.0013804E-2,-4.724144E-2],"split_indices":[6,7,5,0,0,0,0,0,0,0,0,0,0],"split_type":[0,0,0,0,0,0,0,0,0,0,0,0,0],"sum_hessian":[1.5214633E1,1.2157137E1,3.0574958E0,9.558866E0,2.5982711E0,1.0100628E0,2.047433E0,5.0459986E0,4.512867E0,2.0822968E0,2.9637017E0,3.2542465E0,1.2586207E0],"tree_param":{"num_deleted":"0","num_feature":"9","num_nodes":"13","size_leaf_vector":"1"}},{"base_weights":[-5.8645044E-2,6.2629837E-1,-2.9541683E-1,9.272396E-2,-1.1818105E-3,-4.9188885E-1,7.7297114E-2,-8.7671775E-1,-4.7614038E-2,-2.9638266E-2,-1.11008E-1,6.958189E-2,-3.8216252E-2],"categories":[],"categories_nodes":[],"categories_segments":[],"categories_sizes":[],"default_left":[0,0,0,0,0,0,0,0,0,0,0,0,0],"id":11,"left_children":[1,3,5,-1,-1,7,-1,9,11,-1,-1,-1,-1],"loss_changes":[2.3709164E0,7.374126E-1,2.625331E0,0E0,0E0,1.6073337E0,0E0,3.6317492E-1,1.6423907E0,0E0,0E0,0E0,0E0],"parents":[2147483647,0,0,1,1,2,2,5,5,7,7,8,8],"right_children":[2,4,6,-1,-1,8,-1,10,12,-1,-1,-1,-1],"split_conditions":[1.7898106E1,5.224526E0,1.1083251E1,9.272396E-2,-1.1818105E-3,4.73234E1,7.7297114E-2,5.753E-1,2.1332232E1,-2.9638266E-2,-1.11008E-1,6.958189E-2,-3.8216252E-2],"split_indices":[1,7,7,0,0,3,0,6,1,0,0,0,0],"split_type":[0,0,0,0,0,0,0,0,0,0,0,0,0],"sum_hessian":[1.2478609E1,2.782916E0,9.695693E0,1.5831847E0,1.1997313E0,8.645432E0,1.0502611E0,4.1110716E0,4.5343604E0,1.8300588E0,2.281013E0,1.0720899E0,3.4622705E0],"tree_param":{"num_deleted":"0","num_feature":"9","num_nodes":"13","size_leaf_vector":"1"}},{"base_weights":[1.2700346E-1,6.3827235E-1,-1.765827E-1,1.1006185E-2,8.770773E-2,-4.5674044E-1,5.516564E-1,7.1958065E-2,-7.783367E-1,7.9614535E-2,3.3344142E-3,-1.05947986E-1,-3.4073934E-2],"categories":[],"categories_nodes":[],"categories_segments":[],"categories_sizes":[],"default_left":[0,0,0,0,0,0,0,0,0,0,0,0,0],"id":12,"left_children":[1,3,5,-1,-1,7,9,-1,11,-1,-1,-1,-1],"loss_changes":[2.2796755E0,5.869069E-1,2.198947E0,0E0,0E0,3.3741739E0,3.6682552E-1,0E0,4.1678596E-1,0E0,0E0,0E0,0E0],"parents":[2147483647,0,0,1,1,2,2,5,5,6,6,8,8],"right_children":[2,4,6,-1,-1,8,10,-1,12,-1,-1,-1,-1],"split_conditions":[1.363E-3,1.4095E0,8.46895E1,1.1006185E-2,8.770773E-2,2.12963E1,8.90254E1,7.1958065E-2,2.5398361E1,7.9614535E-2,3.3344142E-3,-1.05947986E-1,-3.4073934E-2],"split_indices":[2,4,0,0,0,0,0,0,1,0,0,0,0],"split_type":[0,0,0,0,0,0,0,0,0,0,0,0,0],"sum_hessian":[1.2961147E1,4.4181337E0,8.543014E0,1.8303921E0,2.5877416E0,6.43879E0,2.1042237E0,1.116688E0,5.3221016E0,1.065562E0,1.0386617E0,2.375065E0,2.9470365E0],"tree_param":{"num_deleted":"0","num_feature":"9","num_nodes":"13","size_leaf_vector":"1"}},{"base_weights":[1.8017774E-2,3.393506E-1,-5.346247E-1,-4.010361E-2,5.7459456E-1,-9.0322584E-2,2.8388226E-2,-3.8238518E-2,9.4140196E-1,1.0808813E-1,2.2007069E-2],"categories":[],"categories_nodes":[],"categories_segments":[],"categories_sizes":[],"default_left":[0,0,0,0,0,0,0,0,0,0,0],"id":13,"left_children":[1,3,5,-1,7,-1,-1,-1,9,-1,-1],"loss_changes":[2.717191E0,1.909626E0,1.9575177E0,0E0,3.0725203E0,0E0,0E0,0E0,3.5322905E-1,0E0,0E0],"parents":[2147483647,0,0,1,1,2,2,4,4,8,8],"right_children":[2,4,6,-1,8,-1,-1,-1,10,-1,-1],"split_conditions":[1.473E-3,-9.034913E0,1.767E-3,-4.010361E-2,5.101E-3,-9.0322584E-2,2.8388226E-2,-3.8238518E-2,7.585957E0,1.0808813E-1,2.2007069E-2],"split_indices":[2,7,2,0,5,0,0,0,7,0,0],"split_type":[0,0,0,0,0,0,0,0,0,0,0],"sum_hessian":[1.3279393E1,8.641032E0,4.638361E0,1.9135914E0,6.727441E0,3.1267684E0,1.5115927E0,1.8523351E0,4.875106E0,3.6674924E0,1.2076133E0],"tree_param":{"num_deleted":"0","num_feature":"9","num_nodes":"11","size_leaf_vector":"1"}},{"base_weights":[-3.736296E-2,-2.9099905E-1,6.5149903E-1,-9.187946E-3,-7.709652E-1,8.82463E-2,1.8798383E-2,-4.172456E-1,6.495045E-1,-7.433992E-3,-9.777402E-2,2.6892552E-2,-8.7740384E-2,1.02932505E-1,-3.3352347E-4],"categories":[],"categories_nodes":[],"categories_segments":[],"categories_sizes":[],"default_left":[0,0,0,0,0,0,0,0,0,0,0,0,0,0,0],"id":14,"left_children":[1,3,5,7,9,-1,-1,11,13,-1,-1,-1,-1,-1,-1],"loss_changes":[2.6681345E0,1.4888232E0,2.7585387E-1,2.415964E0,5.1491404E-1,0E0,0E0,1.9840784E0,8.573561E-1,0E0,0E0,0E0,0E0,0E0,0E0],"parents":[2147483647,0,0,1,1,2,2,3,3,4,4,7,7,8,8],"right_children":[2,4,6,8,10,-1,-1,12,14,-1,-1,-1,-1,-1,-1],"split_conditions":[1.0962E0,1.6688E0,1.422E-3,2.5398361E1,1.357E-3,8.82463E-2,1.8798383E-2,2.1332232E1,2.7506334E1,-7.433992E-3,-9.777402E-2,2.6892552E-2,-8.7740384E-2,1.02932505E-1,-3.3352347E-4],"split_indices":[6,4,2,1,2,0,0,1,1,0,0,0,0,0,0],"split_type":[0,0,0,0,0,0,0,0,0,0,0,0,0,0,0],"sum_hessian":[1.3185812E1,1.0059509E1,3.1263034E0,6.9802265E0,3.0792823E0,1.4833293E0,1.6429741E0,4.5364604E0,2.4437664E0,1.0159767E0,2.0633056E0,1.9878426E0,2.5486178E0,1.180352E0,1.2634144E0],"tree_param":{"num_deleted":"0","num_feature":"9","num_nodes":"15","size_leaf_vector":"1"}},{"base_weights":[2.4493422E-1,-6.285649E-1,4.700174E-1,-8.465368E-3,-8.898852E-2,-1.2588435E-1,8.7280166E-1,6.7783825E-2,-6.649046E-1,1.059668E0,-4.5517515E-3,-9.6570715E-2,6.537368E-3,1.2931053E-1,3.9162565E-2],"categories":[],"categories_nodes":[],"categories_segments":[],"categories_sizes":[],"default_left":[0,0,0,0,0,0,0,0,0,0,0,0,0,0,0],"id":15,"left_children":[1,3,5,-1,-1,7,9,-1,11,13,-1,-1,-1,-1,-1],"loss_changes":[3.1173792E0,4.03458E-1,2.9863758E0,0E0,0E0,2.9232929E0,1.2969875E0,0E0,9.244803E-1,4.429512E-1,0E0,0E0,0E0,0E0,0E0],"parents":[2147483647,0,0,1,1,2,2,5,5,6,6,8,8,9,9],"right_children":[2,4,6,-1,-1,8,10,-1,12,14,-1,-1,-1,-1,-1],"split_conditions":[9.3E-1,4.73234E1,4.62059E1,-8.465368E-3,-8.898852E-2,1.349E-3,1.608E-3,6.7783825E-2,1.371548E0,1.6688E0,-4.5517515E-3,-9.6570715E-2,6.537368E-3,1.2931053E-1,3.9162565E-2],"split_indices":[4,3,3,0,0,2,2,0,7,4,0,0,0,0,0],"split_type":[0,0,0,0,0,0,0,0,0,0,0,0,0,0,0],"sum_hessian":[1.3353E1,2.3685565E0,1.0984444E1,1.1983211E0,1.1702354E0,4.707446E0,6.2769976E0,1.7863365E0,2.9211094E0,5.087778E0,1.1892192E0,1.8405868E0,1.0805225E0,3.076928E0,2.0108502E0],"tree_param":{"num_deleted":"0","num_feature":"9","num_nodes":"15","size_leaf_vector":"1"}},{"base_weights":[1.2724882E-1,7.140045E-1,-2.5674406E-1,9.252594E-2,-2.5100007E-3,-8.6514816E-2,3.2915956E-1,-2.8901491E-2,8.0668025E-2],"categories":[],"categories_nodes":[],"categories_segments":[],"categories_sizes":[],"default_left":[0,0,0,0,0,0,0,0,0],"id":16,"left_children":[1,3,5,-1,-1,-1,7,-1,-1],"loss_changes":[2.9649067E0,8.27023E-1,3.2069588E0,0E0,0E0,0E0,1.6797094E0,0E0,0E0],"parents":[2147483647,0,0,1,1,2,2,6,6],"right_children":[2,4,6,-1,-1,-1,8,-1,-1],"split_conditions":[1.363E-3,6.035852E0,8.061E-3,9.252594E-2,-2.5100007E-3,-8.6514816E-2,5.26957E1,-2.8901491E-2,8.0668025E-2],"split_indices":[2,7,5,0,0,0,0,0,0],"split_type":[0,0,0,0,0,0,0,0,0],"sum_hessian":[1.13456135E1,4.147957E0,7.1976566E0,3.0300317E0,1.1179252E0,3.2972145E0,3.9004421E0,1.8719145E0,2.0285277E0],"tree_param":{"num_deleted":"0","num_feature":"9","num_nodes":"9","size_leaf_vector":"1"}},{"base_weights":[-5.001659E-2,3.9707205E-1,-3.287057E-1,7.154476E-1,-4.242581E-2,-8.876187E-2,4.6027757E-2,2.7450595E-2,8.870911E-2,4.7898677E-1,-3.1454134E-1,-2.5553843E-2,9.553207E-2,-6.213472E-2,2.0138495E-2],"categories":[],"categories_nodes":[],"categories_segments":[],"categories_sizes":[],"default_left":[0,0,0,0,0,0,0,0,0,0,0,0,0,0,0],"id":17,"left_children":[1,3,5,7,-1,-1,9,-1,-1,11,13,-1,-1,-1,-1],"loss_changes":[1.7605634E0,1.7355535E0,1.8433243E0,8.335471E-2,0E0,0E0,1.1033398E0,0E0,0E0,1.3529944E0,7.4772006E-1,0E0,0E0,0E0,0E0],"parents":[2147483647,0,0,1,1,2,2,3,3,6,6,9,9,10,10],"right_children":[2,4,6,8,-1,-1,10,-1,-1,12,14,-1,-1,-1,-1],"split_conditions":[1.349E-3,7.609354E0,6E0,3.47467E1,-4.242581E-2,-8.876187E-2,1.473E-3,2.7450595E-2,8.870911E-2,4.50887E1,1.627E-3,-2.5553843E-2,9.553207E-2,-6.213472E-2,2.0138495E-2],"split_indices":[2,7,8,0,0,0,2,0,0,3,2,0,0,0,0],"split_type":[0,0,0,0,0,0,0,0,0,0,0,0,0,0,0],"sum_hessian":[1.2082346E1,4.4763503E0,7.6059957E0,3.31879E0,1.1575602E0,2.5034485E0,5.102547E0,1.6582155E0,1.6605744E0,2.1693034E0,2.933244E0,1.0357177E0,1.1335857E0,1.71127E0,1.221974E0],"tree_param":{"num_deleted":"0","num_feature":"9","num_nodes":"15","size_leaf_vector":"1"}},{"base_weights":[-2.3828572E-2,-6.933745E-2,1.7269379E-1,-3.4275052E-1,3.9126813E-1,9.5276935E-3,-6.427526E-2,5.9020567E-1,-2.9988024E-2,7.3711194E-2,-6.969136E-3],"categories":[],"categories_nodes":[],"categories_segments":[],"categories_sizes":[],"default_left":[0,0,0,0,0,0,0,0,0,0,0],"id":18,"left_children":[1,-1,3,5,7,-1,-1,9,-1,-1,-1],"loss_changes":[1.7484871E0,0E0,1.3024329E0,5.3707635E-1,1.2424513E0,0E0,0E0,6.6734934E-1,0E0,0E0,0E0],"parents":[2147483647,0,0,2,2,3,3,4,4,7,7],"right_children":[2,-1,4,6,8,-1,-1,10,-1,-1,-1],"split_conditions":[5.101E-3,-6.933745E-2,3E0,-7.15354E0,2.7632847E1,9.5276935E-3,-6.427526E-2,7.609354E0,-2.9988024E-2,7.3711194E-2,-6.969136E-3],"split_indices":[5,0,8,7,1,0,0,7,0,0,0],"split_type":[0,0,0,0,0,0,0,0,0,0,0],"sum_hessian":[1.1378298E1,2.0081992E0,9.370098E0,2.621033E0,6.7490654E0,1.3428195E0,1.2782134E0,5.354032E0,1.3950334E0,4.283442E0,1.0705903E0],"tree_param":{"num_deleted":"0","num_feature":"9","num_nodes":"11","size_leaf_vector":"1"}},{"base_weights":[1.1800337E-1,-2.4054113E-1,4.704674E-1,1.3090467E-1,-9.072187E-2,7.876116E-1,-1.7422865E-1,7.8021294E-1,-7.213828E-2,-1.422949E-2,1.10493E-1,-7.5181074E-2,4.9012166E-2,2.510765E-2,9.153275E-2],"categories":[],"categories_nodes":[],"categories_segments":[],"categories_sizes":[],"default_left":[0,0,0,0,0,0,0,0,0,0,0,0,0,0,0],"id":19,"left_children":[1,3,5,7,-1,9,11,13,-1,-1,-1,-1,-1,-1,-1],"loss_changes":[1.7715015E0,1.8935051E0,1.5593852E0,3.5934467E0,0E0,1.5863748E0,1.562727E0,2.6756525E-2,0E0,0E0,0E0,0E0,0E0,0E0,0E0],"parents":[2147483647,0,0,1,1,2,2,3,3,5,5,6,6,7,7],"right_children":[2,4,6,8,-1,10,12,14,-1,-1,-1,-1,-1,-1,-1],"split_conditions":[5.26957E1,-4.108431E0,5.23143E1,9.722E-3,-9.072187E-2,3E0,8.46895E1,6E0,-7.213828E-2,-1.422949E-2,1.10493E-1,-7.5181074E-2,4.9012166E-2,2.510765E-2,9.153275E-2],"split_indices":[0,7,3,5,0,8,0,8,0,0,0,0,0,0,0],"split_type":[0,0,0,0,0,0,0,0,0,0,0,0,0,0,0],"sum_hessian":[1.2122431E1,6.166795E0,5.955636E0,4.476382E0,1.6904132E0,3.8433197E0,2.1123166E0,2.5887384E0,1.8876432E0,1.1181457E0,2.725174E0,1.0595244E0,1.0527922E0,1.1079657E0,1.4807727E0],"tree_param":{"num_deleted":"0","num_feature":"9","num_nodes":"15","size_leaf_vector":"1"}},{"base_weights":[8.353551E-3,-3.1266388E-1,3.0920717E-1,-6.5348303E-1,3.107701E-1,7.716537E-1,-4.2799848E-1,-1.863413E-1,-9.252789E-2,8.854706E-2,-4.385195E-2,9.354574E-2,9.376122E-3,-6.626218E-2,3.5100027E-3,-4.5842253E-2,1.777844E-2],"categories":[],"categories_nodes":[],"categories_segments":[],"categories_sizes":[],"default_left":[0,0,0,0,0,0,0,0,0,0,0,0,0,0,0,0,0],"id":20,"left_children":[1,3,5,7,9,11,13,15,-1,-1,-1,-1,-1,-1,-1,-1,-1],"loss_changes":[1.4127817E0,1.7095301E0,2.89987E0,4.5051217E-1,1.759234E0,4.6622634E-1,4.0884167E-1,3.843412E-1,0E0,0E0,0E0,0E0,0E0,0E0,0E0,0E0,0E0],"parents":[2147483647,0,0,1,1,2,2,3,3,4,4,5,5,6,6,7,7],"right_children":[2,4,6,8,10,12,14,16,-1,-1,-1,-1,-1,-1,-1,-1,-1],"split_conditions":[5.26957E1,5.0859E1,5.23143E1,-6.256903E0,-1.32E-2,7.85058E0,1.4095E0,2.85503E1,-9.252789E-2,8.854706E-2,-4.385195E-2,9.354574E-2,9.376122E-3,-6.626218E-2,3.5100027E-3,-4.5842253E-2,1.777844E-2],"split_indices":[0,3,3,7,6,7,4,0,0,0,0,0,0,0,0,0,0],"split_type":[0,0,0,0,0,0,0,0,0,0,0,0,0,0,0,0,0],"sum_hessian":[1.2627189E1,6.089888E0,6.5373006E0,3.9062297E0,2.1836586E0,3.9885616E0,2.5487387E0,2.0567825E0,1.8494471E0,1.1329479E0,1.0507108E0,2.9063354E0,1.0822264E0,1.4057089E0,1.1430299E0,1.0289586E0,1.0278239E0],"tree_param":{"num_deleted":"0","num_feature":"9","num_nodes":"17","size_leaf_vector":"1"}},{"base_weights":[4.5412764E-2,-5.946751E-1,3.0520633E-1,-8.166855E-2,-2.1843277E-2,8.096322E-2,-4.8016958E-2,5.8718085E-1,-6.717979E-1,2.365914E-3,9.110677E-2,-8.702312E-2,-1.0930828E-2],"categories":[],"categories_nodes":[],"categories_segments":[],"categories_sizes":[],"default_left":[0,0,0,0,0,0,0,0,0,0,0,0,0],"id":21,"left_children":[1,3,5,-1,-1,-1,7,9,11,-1,-1,-1,-1],"loss_changes":[2.2537673E0,1.5045142E-1,1.7359731E0,0E0,0E0,0E0,2.9881792E0,6.6780555E-1,3.25572E-1,0E0,0E0,0E0,0E0],"parents":[2147483647,0,0,1,1,2,2,6,6,7,7,8,8],"right_children":[2,4,6,-1,-1,-1,8,10,12,-1,-1,-1,-1],"split_conditions":[1.107E0,8.695E-3,1.349E-3,-8.166855E-2,-2.1843277E-2,8.096322E-2,1.6688E0,7.455E-3,6.16375E1,2.365914E-3,9.110677E-2,-8.702312E-2,-1.0930828E-2],"split_indices":[4,5,2,0,0,0,4,5,0,0,0,0,0],"split_type":[0,0,0,0,0,0,0,0,0,0,0,0,0],"sum_hessian":[1.1461721E1,2.9368312E0,8.52489E0,1.1107633E0,1.8260679E0,2.9788184E0,5.5460715E0,2.7769601E0,2.7691116E0,1.4051778E0,1.3717823E0,1.6425514E0,1.1265602E0],"tree_param":{"num_deleted":"0","num_feature":"9","num_nodes":"13","size_leaf_vector":"1"}},{"base_weights":[-4.8103224E-2,2.4654472E-1,-5.4207814E-1,-4.4876482E-2,3.9340636E-1,-1.05030954E-1,5.7437506E-2,8.005549E-2,-1.7507954E-2,-4.7203694E-2,4.6940632E-2],"categories":[],"categories_nodes":[],"categories_segments":[],"categories_sizes":[],"default_left":[0,0,0,0,0,0,0,0,0,0,0],"id":22,"left_children":[1,3,5,-1,7,-1,-1,-1,9,-1,-1],"loss_changes":[2.0359247E0,1.0827022E0,3.5514386E0,0E0,1.3289049E0,0E0,0E0,0E0,1.3038528E0,0E0,0E0],"parents":[2147483647,0,0,1,1,2,2,4,4,8,8],"right_children":[2,4,6,-1,8,-1,-1,-1,10,-1,-1],"split_conditions":[1.473E-3,4.976E-3,8.46895E1,-4.4876482E-2,8.277E-3,-1.05030954E-1,5.7437506E-2,8.005549E-2,1.38E-3,-4.7203694E-2,4.6940632E-2],"split_indices":[2,5,0,0,5,0,0,0,2,0,0],"split_type":[0,0,0,0,0,0,0,0,0,0,0],"sum_hessian":[1.2069702E1,7.8739285E0,4.195773E0,1.0146095E0,6.859319E0,2.9239695E0,1.2718036E0,2.9691508E0,3.8901684E0,2.027797E0,1.8623713E0],"tree_param":{"num_deleted":"0","num_feature":"9","num_nodes":"11","size_leaf_vector":"1"}},{"base_weights":[-1.5884489E-2,2.252703E-1,-5.7178694E-1,-4.4848688E-2,4.3971375E-1,-9.1269575E-2,1.5908679E-2,-2.9636217E-2,5.8983886E-1,-1.4832991E-3,7.045471E-2],"categories":[],"categories_nodes":[],"categories_segments":[],"categories_sizes":[],"default_left":[0,0,0,0,0,0,0,0,0,0,0],"id":23,"left_children":[1,3,5,-1,7,-1,-1,-1,9,-1,-1],"loss_changes":[1.8704921E0,1.6100373E0,1.1950223E0,0E0,1.05028E0,0E0,0E0,0E0,4.9007368E-1,0E0,0E0],"parents":[2147483647,0,0,1,1,2,2,4,4,8,8],"right_children":[2,4,6,-1,8,-1,-1,-1,10,-1,-1],"split_conditions":[1.522E-3,2E0,7.80282E1,-4.4848688E-2,5.101E-3,-9.1269575E-2,1.5908679E-2,-2.9636217E-2,-1.0062116E1,-1.4832991E-3,7.045471E-2],"split_indices":[2,8,0,0,5,0,0,0,7,0,0],"split_type":[0,0,0,0,0,0,0,0,0,0,0],"sum_hessian":[1.1991979E1,8.778544E0,3.2134342E0,1.8559521E0,6.9225917E0,2.021672E0,1.1917622E0,1.0076922E0,5.9149E0,1.081991E0,4.8329086E0],"tree_param":{"num_deleted":"0","num_feature":"9","num_nodes":"11","size_leaf_vector":"1"}},{"base_weights":[9.908156E-2,6.301751E-1,-1.781876E-1,1.3698823E-2,8.471968E-2,-7.4381727E-1,1.979022E-1,-1.8657323E-2,-9.045181E-2,-3.3941218E-1,7.826922E-2,4.019193E-3,-5.3180195E-2],"categories":[],"categories_nodes":[],"categories_segments":[],"categories_sizes":[],"default_left":[0,0,0,0,0,0,0,0,0,0,0,0,0],"id":24,"left_children":[1,3,5,-1,-1,7,9,-1,-1,11,-1,-1,-1],"loss_changes":[1.8275293E0,3.3516133E-1,1.9409882E0,0E0,0E0,1.5162456E-1,2.1052623E0,0E0,0E0,2.9514682E-1,0E0,0E0,0E0],"parents":[2147483647,0,0,1,1,2,2,5,5,6,6,9,9],"right_children":[2,4,6,-1,-1,8,10,-1,-1,12,-1,-1,-1],"split_conditions":[2.1332232E1,4.62059E1,2.5398361E1,1.3698823E-2,8.471968E-2,8.605E-3,9.76E-3,-1.8657323E-2,-9.045181E-2,5.54E-3,7.826922E-2,4.019193E-3,-5.3180195E-2],"split_indices":[1,3,1,0,0,5,5,0,0,5,0,0,0],"split_type":[0,0,0,0,0,0,0,0,0,0,0,0,0],"sum_hessian":[1.06480255E1,3.2157137E0,7.432312E0,1.4810994E0,1.7346144E0,2.57772E0,4.854592E0,1.0606883E0,1.5170318E0,2.7486699E0,2.105922E0,1.1905963E0,1.5580736E0],"tree_param":{"num_deleted":"0","num_feature":"9","num_nodes":"13","size_leaf_vector":"1"}},{"base_weights":[-1.03211686E-1,-5.5018705E-1,2.214233E-1,1.6897682E-2,-8.404784E-2,5.9916216E-1,-3.2022455E-1,6.5165493E-3,9.178197E-2,-5.0799888E-2,5.6055337E-3],"categories":[],"categories_nodes":[],"categories_segments":[],"categories_sizes":[],"default_left":[0,0,0,0,0,0,0,0,0,0,0],"id":25,"left_children":[1,3,5,-1,-1,7,9,-1,-1,-1,-1],"loss_changes":[1.8087354E0,1.2230395E0,1.7156224E0,0E0,0E0,7.4605834E-1,2.9071805E-1,0E0,0E0,0E0,0E0],"parents":[2147483647,0,0,1,1,2,2,5,5,6,6],"right_children":[2,4,6,-1,-1,8,10,-1,-1,-1,-1],"split_conditions":[5.26957E1,2.0015093E1,5.23143E1,1.6897682E-2,-8.404784E-2,2.4960808E1,9.342E-3,6.5165493E-3,9.178197E-2,-5.0799888E-2,5.6055337E-3],"split_indices":[0,1,3,0,0,1,5,0,0,0,0],"split_type":[0,0,0,0,0,0,0,0,0,0,0],"sum_hessian":[1.0625544E1,4.1781073E0,6.447436E0,1.321686E0,2.8564215E0,3.7358878E0,2.711548E0,1.8463424E0,1.8895453E0,1.5753489E0,1.1361994E0],"tree_param":{"num_deleted":"0","num_feature":"9","num_nodes":"11","size_leaf_vector":"1"}},{"base_weights":[5.3038515E-2,-4.1674256E-1,2.6144782E-1,2.6431892E-2,-9.380618E-2,-1.3014355E-1,4.8772424E-1,3.5392065E-2,-7.409825E-2,7.473415E-2,-5.281338E-3],"categories":[],"categories_nodes":[],"categories_segments":[],"categories_sizes":[],"default_left":[0,0,0,0,0,0,0,0,0,0,0],"id":26,"left_children":[1,3,5,-1,-1,7,9,-1,-1,-1,-1],"loss_changes":[1.2474673E0,1.653584E0,8.316642E-1,0E0,0E0,1.4344459E0,8.4009767E-1,0E0,0E0,0E0,0E0],"parents":[2147483647,0,0,1,1,2,2,5,5,6,6],"right_children":[2,4,6,-1,-1,8,10,-1,-1,-1,-1],"split_conditions":[3E0,4.30524E1,5.2119E1,2.6431892E-2,-9.380618E-2,-4.55276E0,5.23143E1,3.5392065E-2,-7.409825E-2,7.473415E-2,-5.281338E-3],"split_indices":[8,3,0,0,0,7,3,0,0,0,0],"split_type":[0,0,0,0,0,0,0,0,0,0,0],"sum_hessian":[1.0628521E1,2.9589767E0,7.669544E0,1.4966737E0,1.4623029E0,2.9643395E0,4.705205E0,1.888434E0,1.0759054E0,2.9201052E0,1.7850997E0],"tree_param":{"num_deleted":"0","num_feature":"9","num_nodes":"11","size_leaf_vector":"1"}},{"base_weights":[5.740632E-2,4.4820896E-1,-1.750426E-1,7.913827E-2,-2.3267291E-2,1.5186615E-1,-5.0492215E-1,-4.5190003E-2,5.2041525E-1,-8.72723E-2,1.0884265E-2,1.4926473E-2,6.61816E-2],"categories":[],"categories_nodes":[],"categories_segments":[],"categories_sizes":[],"default_left":[0,0,0,0,0,0,0,0,0,0,0,0,0],"id":27,"left_children":[1,3,5,-1,-1,7,9,-1,11,-1,-1,-1,-1],"loss_changes":[1.1972382E0,1.3230318E0,9.87026E-1,0E0,0E0,1.3496902E0,1.0956929E0,0E0,8.883017E-2,0E0,0E0,0E0,0E0],"parents":[2147483647,0,0,1,1,2,2,5,5,6,6,8,8],"right_children":[2,4,6,-1,-1,8,10,-1,12,-1,-1,-1,-1],"split_conditions":[2.1834448E1,6.035852E0,1.473E-3,7.913827E-2,-2.3267291E-2,2E0,1.767E-3,-4.5190003E-2,1.3E1,-8.72723E-2,1.0884265E-2,1.4926473E-2,6.61816E-2],"split_indices":[1,7,2,0,0,8,2,0,8,0,0,0,0],"split_type":[0,0,0,0,0,0,0,0,0,0,0,0,0],"sum_hessian":[1.1315743E1,3.8741536E0,7.4415903E0,2.4679716E0,1.406182E0,4.0086617E0,3.4329286E0,1.4337301E0,2.5749314E0,1.8827602E0,1.5501684E0,1.277458E0,1.2974734E0],"tree_param":{"num_deleted":"0","num_feature":"9","num_nodes":"13","size_leaf_vector":"1"}},{"base_weights":[-4.8900537E-2,-7.9114206E-2,1.18465E-1,-1.8030259E-1,3.642289E-1,2.4104033E-1,-7.605704E-2,-1.8236E-1,8.9590244E-2,4.947237E-2,-1.9202854E-2,-7.253779E-2,4.7183838E-2],"categories":[],"categories_nodes":[],"categories_segments":[],"categories_sizes":[],"default_left":[0,0,0,0,0,0,0,0,0,0,0,0,0],"id":28,"left_children":[1,-1,3,5,7,9,-1,11,-1,-1,-1,-1,-1],"loss_changes":[1.4122589E0,0E0,7.6548606E-1,1.398562E0,1.7792656E0,4.9477935E-1,0E0,1.6114022E0,0E0,0E0,0E0,0E0,0E0],"parents":[2147483647,0,0,2,2,3,3,4,4,5,5,7,7],"right_children":[2,-1,4,6,8,10,-1,12,-1,-1,-1,-1,-1],"split_conditions":[-1.0062116E1,-7.9114206E-2,5.26957E1,-4.108431E0,2.517125E1,2.3169418E1,-7.605704E-2,2.0865E0,8.9590244E-2,4.947237E-2,-1.9202854E-2,-7.253779E-2,4.7183838E-2],"split_indices":[7,0,0,7,1,1,0,4,0,0,0,0,0],"split_type":[0,0,0,0,0,0,0,0,0,0,0,0,0],"sum_hessian":[9.614041E0,1.0831959E0,8.530846E0,3.9704502E0,4.5603952E0,2.6389012E0,1.3315489E0,2.5726159E0,1.9877795E0,1.5743251E0,1.0645763E0,1.346308E0,1.226308E0],"tree_param":{"num_deleted":"0","num_feature":"9","num_nodes":"13","size_leaf_vector":"1"}},{"base_weights":[-1.58131E-1,-3.077354E-1,4.0675163E-2,2.985092E-1,-5.8624166E-1,-1.1156656E-2,6.6900514E-2,5.5518597E-3,-7.909153E-1,-2.1123307E-2,-8.81566E-2],"categories":[],"categories_nodes":[],"categories_segments":[],"categories_sizes":[],"default_left":[0,0,0,0,0,0,0,0,0,0,0],"id":29,"left_children":[1,3,-1,5,7,-1,-1,-1,9,-1,-1],"loss_changes":[1.1042296E0,1.817628E0,0E0,6.405935E-1,9.638536E-1,0E0,0E0,0E0,9.627104E-2,0E0,0E0],"parents":[2147483647,0,0,1,1,3,3,4,4,8,8],"right_children":[2,4,-1,6,8,-1,-1,-1,10,-1,-1],"split_conditions":[8.46895E1,1.342E-3,4.0675163E-2,1.305E-3,2.12963E1,-1.1156656E-2,6.6900514E-2,5.5518597E-3,9.341E-1,-2.1123307E-2,-8.81566E-2],"split_indices":[0,2,0,2,0,0,0,0,4,0,0],"split_type":[0,0,0,0,0,0,0,0,0,0,0],"sum_hessian":[1.0585257E1,8.7287445E0,1.8565123E0,2.7250686E0,6.003676E0,1.6251628E0,1.0999056E0,1.627947E0,4.375729E0,1.0420889E0,3.3336403E0],"tree_param":{"num_deleted":"0","num_feature":"9","num_nodes":"11","size_leaf_vector":"1"}},{"base_weights":[-3.905261E-2,-4.0964416E-1,1.7650005E-1,-1.603399E-3,-5.334184E-1,6.4554185E-2,-3.8498916E-2,-6.966612E-2,-1.1124544E-2,-4.870369E-2,3.1349605E-1,5.6015667E-2,-5.886886E-3],"categories":[],"categories_nodes":[],"categories_segments":[],"categories_sizes":[],"default_left":[0,0,0,0,0,0,0,0,0,0,0,0,0],"id":30,"left_children":[1,3,5,-1,7,-1,9,-1,-1,-1,11,-1,-1],"loss_changes":[9.016739E-1,1.9213146E-1,7.573015E-1,0E0,1.363343E-1,0E0,1.0879929E0,0E0,0E0,0E0,3.9372027E-1,0E0,0E0],"parents":[2147483647,0,0,1,1,2,2,4,4,6,6,10,10],"right_children":[2,4,6,-1,8,-1,10,-1,-1,-1,12,-1,-1],"split_conditions":[3E0,2.134976E1,1.3E1,-1.603399E-3,1.4E-3,6.4554185E-2,7.31E-1,-6.966612E-2,-1.1124544E-2,-4.870369E-2,1.522E-3,5.6015667E-2,-5.886886E-3],"split_indices":[8,1,8,0,2,0,6,0,0,0,2,0,0],"split_type":[0,0,0,0,0,0,0,0,0,0,0,0,0],"sum_hessian":[9.382461E0,3.1192372E0,6.263223E0,1.0164386E0,2.1027987E0,1.3391652E0,4.924058E0,1.0475574E0,1.0552412E0,1.9964222E0,2.9276357E0,1.457706E0,1.4699298E0],"tree_param":{"num_deleted":"0","num_feature":"9","num_nodes":"13","size_leaf_vector":"1"}},{"base_weights":[-7.683049E-2,3.867323E-1,-2.857603E-1,2.2681418E-3,6.7121185E-2,-4.730387E-1,3.3231456E-2,8.17768E-2,-7.519761E-1,5.6093615E-2,-4.3550864E-2,-9.455057E-2,-3.353715E-3],"categories":[],"categories_nodes":[],"categories_segments":[],"categories_sizes":[],"default_left":[0,0,0,0,0,0,0,0,0,0,0,0,0],"id":31,"left_children":[1,3,5,-1,-1,7,-1,9,11,-1,-1,-1,-1],"loss_changes":[1.2010127E0,3.9106208E-1,1.1221566E0,0E0,0E0,1.1154779E0,0E0,1.0325961E0,6.120534E-1,0E0,0E0,0E0,0E0],"parents":[2147483647,0,0,1,1,2,2,5,5,7,7,8,8],"right_children":[2,4,6,-1,-1,8,-1,10,12,-1,-1,-1,-1],"split_conditions":[2.0015093E1,1.311E-3,8.46895E1,2.2681418E-3,6.7121185E-2,4.14657E1,3.3231456E-2,1.422E-3,2.6997381E1,5.6093615E-2,-4.3550864E-2,-9.455057E-2,-3.353715E-3],"split_indices":[1,2,0,0,0,3,0,2,1,0,0,0,0],"split_type":[0,0,0,0,0,0,0,0,0,0,0,0,0],"sum_hessian":[1.0259436E1,2.9230053E0,7.3364305E0,1.7558098E0,1.1671956E0,5.810493E0,1.5259376E0,2.1804113E0,3.6300817E0,1.0881128E0,1.0922985E0,2.6107533E0,1.0193284E0],"tree_param":{"num_deleted":"0","num_feature":"9","num_nodes":"13","size_leaf_vector":"1"}},{"base_weights":[2.0903392E-2,2.6396394E-1,-7.5235024E-2,-3.7374992E-2,4.4839013E-1,5.0435428E-2,6.1133486E-1,3.0188087E-2,-2.0321919E-2,3.9987396E-3,7.533207E-2],"categories":[],"categories_nodes":[],"categories_segments":[],"categories_sizes":[],"default_left":[0,0,0,0,0,0,0,0,0,0,0],"id":32,"left_children":[1,3,-1,-1,5,7,9,-1,-1,-1,-1],"loss_changes":[2.2247696E0,1.2193303E0,0E0,0E0,4.4844186E-1,2.6781034E-1,3.8798916E-1,0E0,0E0,0E0,0E0],"parents":[2147483647,0,0,1,1,4,4,5,5,6,6],"right_children":[2,4,-1,-1,6,8,10,-1,-1,-1,-1],"split_conditions":[2.7506334E1,-9.034913E0,-7.5235024E-2,-3.7374992E-2,3E0,2.3169418E1,1.305E-3,3.0188087E-2,-2.0321919E-2,3.9987396E-3,7.533207E-2],"split_indices":[1,7,0,0,8,1,2,0,0,0,0],"split_type":[0,0,0,0,0,0,0,0,0,0,0],"sum_hessian":[9.780548E0,7.942558E0,1.8379905E0,1.5514293E0,6.3911285E0,2.237087E0,4.154042E0,1.027957E0,1.20913E0,1.0819459E0,3.0720959E0],"tree_param":{"num_deleted":"0","num_feature":"9","num_nodes":"11","size_leaf_vector":"1"}},{"base_weights":[1.2903251E-1,6.1529213E-1,-1.401184E-1,7.52672E-2,8.608326E-3,-4.1683367E-1,4.137275E-1,-8.684091E-2,4.5624394E-2,7.875187E-2,-1.9671407E-2,4.2784102E-2,-4.6560798E-2],"categories":[],"categories_nodes":[],"categories_segments":[],"categories_sizes":[],"default_left":[0,0,0,0,0,0,0,0,0,0,0,0,0],"id":33,"left_children":[1,3,5,-1,-1,7,9,-1,11,-1,-1,-1,-1],"loss_changes":[1.5870967E0,2.4575424E-1,1.4286178E0,0E0,0E0,1.2850627E0,8.925323E-1,0E0,9.605817E-1,0E0,0E0,0E0,0E0],"parents":[2147483647,0,0,1,1,2,2,5,5,6,6,8,8],"right_children":[2,4,6,-1,-1,8,10,-1,12,-1,-1,-1,-1],"split_conditions":[1.349E-3,5.224526E0,1.1224E-2,7.52672E-2,8.608326E-3,4.91291E1,1.522E-3,-8.684091E-2,8.032E-1,7.875187E-2,-1.9671407E-2,4.2784102E-2,-4.6560798E-2],"split_indices":[2,7,5,0,0,3,2,0,6,0,0,0,0],"split_type":[0,0,0,0,0,0,0,0,0,0,0,0,0],"sum_hessian":[1.0467872E1,3.2714608E0,7.1964107E0,2.2619987E0,1.0094621E0,4.9637704E0,2.2326405E0,2.0673034E0,2.8964667E0,1.2048161E0,1.0278244E0,1.7506975E0,1.1457692E0],"tree_param":{"num_deleted":"0","num_feature":"9","num_nodes":"13","size_leaf_vector":"1"}},{"base_weights":[-1.3196474E-1,-3.4228176E-1,2.4574152E-1,-6.617832E-2,-5.947841E-2,-8.269834E-2,6.477884E-2,5.471423E-2,-5.6275763E-2,-3.5711773E-2,2.1433104E-2],"categories":[],"categories_nodes":[],"categories_segments":[],"categories_sizes":[],"default_left":[0,0,0,0,0,0,0,0,0,0,0],"id":34,"left_children":[1,3,5,-1,7,9,-1,-1,-1,-1,-1],"loss_changes":[8.8844943E-1,5.860593E-1,6.086482E-1,0E0,1.7643365E0,3.3740583E-1,0E0,0E0,0E0,0E0,0E0],"parents":[2147483647,0,0,1,1,2,2,4,4,5,5],"right_children":[2,4,6,-1,8,10,-1,-1,-1,-1,-1],"split_conditions":[9.387E-1,1.107E0,8.46895E1,-6.617832E-2,1.6688E0,2.0865E0,6.477884E-2,5.471423E-2,-5.6275763E-2,-3.5711773E-2,2.1433104E-2],"split_indices":[6,4,0,0,4,4,0,0,0,0,0],"split_type":[0,0,0,0,0,0,0,0,0,0,0],"sum_hessian":[9.12533E0,5.9217362E0,3.2035937E0,2.151248E0,3.7704885E0,2.2003732E0,1.0032206E0,1.6701915E0,2.100297E0,1.0385658E0,1.1618074E0],"tree_param":{"num_deleted":"0","num_feature":"9","num_nodes":"11","size_leaf_vector":"1"}},{"base_weights":[-2.938082E-2,-1.928977E-1,5.173856E-2,-7.447119E-2,-6.7401216E-3,3.5062096E-1,-3.0668277E-1,-3.4803536E-3,6.198584E-2,6.948373E-3,-5.208754E-2],"categories":[],"categories_nodes":[],"categories_segments":[],"categories_sizes":[],"default_left":[0,0,0,0,0,0,0,0,0,0,0],"id":35,"left_children":[1,3,-1,-1,5,7,9,-1,-1,-1,-1],"loss_changes":[1.0026653E0,8.683554E-1,0E0,0E0,8.971332E-1,4.1881773E-1,4.018644E-1,0E0,0E0,0E0,0E0],"parents":[2147483647,0,0,1,1,4,4,5,5,6,6],"right_children":[2,4,-1,-1,6,8,10,-1,-1,-1,-1],"split_conditions":[2.6343E0,5.101E-3,5.173856E-2,-7.447119E-2,1.3792E0,9.3E-1,8.516E-3,-3.4803536E-3,6.198584E-2,6.948373E-3,-5.208754E-2],"split_indices":[4,5,0,0,4,4,5,0,0,0,0],"split_type":[0,0,0,0,0,0,0,0,0,0,0],"sum_hessian":[9.098511E0,7.5021176E0,1.5963932E0,1.1355743E0,6.3665433E0,2.8280983E0,3.5384452E0,1.5211879E0,1.3069103E0,1.5289302E0,2.009515E0],"tree_param":{"num_deleted":"0","num_feature":"9","num_nodes":"11","size_leaf_vector":"1"}},{"base_weights":[-4.5943417E-2,2.4259847E-1,-4.5071012E-1,-3.5323232E-2,4.678741E-1,3.257483E-2,-8.526951E-2,-4.58902E-3,6.3108194E-1,7.6552875E-2,1.3831026E-2],"categories":[],"categories_nodes":[],"categories_segments":[],"categories_sizes":[],"default_left":[0,0,0,0,0,0,0,0,0,0,0],"id":36,"left_children":[1,3,5,-1,7,-1,-1,-1,9,-1,-1],"loss_changes":[1.1906719E0,9.7806466E-1,1.5896745E0,0E0,4.334774E-1,0E0,0E0,0E0,1.4117157E-1,0E0,0E0],"parents":[2147483647,0,0,1,1,2,2,4,4,8,8],"right_children":[2,4,6,-1,8,-1,-1,-1,10,-1,-1],"split_conditions":[1.6282E0,1.311E-3,1.342E-3,-3.5323232E-2,9.341E-1,3.257483E-2,-8.526951E-2,-4.58902E-3,-4.108431E0,7.6552875E-2,1.3831026E-2],"split_indices":[4,2,2,0,4,0,0,0,7,0,0],"split_type":[0,0,0,0,0,0,0,0,0,0,0],"sum_hessian":[8.258588E0,5.0554247E0,3.2031627E0,1.2311527E0,3.8242724E0,1.1573402E0,2.0458224E0,1.0952723E0,2.729E0,1.70916E0,1.01984E0],"tree_param":{"num_deleted":"0","num_feature":"9","num_nodes":"11","size_leaf_vector":"1"}},{"base_weights":[7.718101E-2,-1.3107273E-1,3.4847328E-1,2.4939238E-1,-5.733246E-1,-1.1431367E-1,7.205635E-2,5.2394778E-2,-3.242039E-2,-1.2258969E-2,-7.2315246E-2,1.4178971E-2,-3.1129736E-2],"categories":[],"categories_nodes":[],"categories_segments":[],"categories_sizes":[],"default_left":[0,0,0,0,0,0,0,0,0,0,0,0,0],"id":37,"left_children":[1,3,5,7,9,11,-1,-1,-1,-1,-1,-1,-1],"loss_changes":[6.4564323E-1,1.2761102E0,9.2356336E-1,8.497097E-1,1.4213634E-1,1.9751364E-1,0E0,0E0,0E0,0E0,0E0,0E0,0E0],"parents":[2147483647,0,0,1,1,2,2,3,3,4,4,5,5],"right_children":[2,4,6,8,10,12,-1,-1,-1,-1,-1,-1,-1],"split_conditions":[2.5360022E1,1.349E-3,9.76E-3,6.035852E0,2.1834448E1,6.961E-3,7.205635E-2,5.2394778E-2,-3.242039E-2,-1.2258969E-2,-7.2315246E-2,1.4178971E-2,-3.1129736E-2],"split_indices":[1,2,5,7,1,5,0,0,0,0,0,0,0],"split_type":[0,0,0,0,0,0,0,0,0,0,0,0,0],"sum_hessian":[9.619347E0,5.734328E0,3.8850193E0,3.3169081E0,2.4174194E0,2.0402455E0,1.8447739E0,2.3017282E0,1.01518E0,1.0566994E0,1.36072E0,1.0088328E0,1.0314127E0],"tree_param":{"num_deleted":"0","num_feature":"9","num_nodes":"13","size_leaf_vector":"1"}},{"base_weights":[-7.38289E-2,-2.9129088E-1,5.2789975E-2,4.0300727E-2,-4.9318114E-1,4.7773216E-4,-6.722882E-2],"categories":[],"categories_nodes":[],"categories_segments":[],"categories_sizes":[],"default_left":[0,0,0,0,0,0,0],"id":38,"left_children":[1,3,-1,-1,5,-1,-1],"loss_changes":[1.4660472E0,1.3216506E0,0E0,0E0,5.9683454E-1,0E0,0E0],"parents":[2147483647,0,0,1,1,4,4],"right_children":[2,4,-1,-1,6,-1,-1],"split_conditions":[1.0962E0,2.12963E1,5.2789975E-2,4.0300727E-2,4.14657E1,4.7773216E-4,-6.722882E-2],"split_indices":[6,0,0,0,3,0,0],"split_type":[0,0,0,0,0,0,0],"sum_hessian":[9.02861E0,7.010836E0,2.0177739E0,1.3549635E0,5.655873E0,1.7536503E0,3.9022224E0],"tree_param":{"num_deleted":"0","num_feature":"9","num_nodes":"7","size_leaf_vector":"1"}},{"base_weights":[-1.5029085E-1,1.7048997E-1,-3.434464E-1,-1.9259406E-2,3.939338E-2,-4.798756E-1,1.773157E-2,-7.321649E-2,-2.0577034E-1,3.7330866E-2,-5.8842875E-2],"categories":[],"categories_nodes":[],"categories_segments":[],"categories_sizes":[],"default_left":[0,0,0,0,0,0,0,0,0,0,0],"id":39,"left_children":[1,3,5,-1,-1,7,-1,-1,9,-1,-1],"loss_changes":[6.6611886E-1,4.2907068E-1,5.4349124E-1,0E0,0E0,2.2156084E-1,0E0,0E0,1.09951E0,0E0,0E0],"parents":[2147483647,0,0,1,1,2,2,5,5,8,8],"right_children":[2,4,6,-1,-1,8,-1,-1,10,-1,-1],"split_conditions":[2.1834448E1,1.311E-3,8.46895E1,-1.9259406E-2,3.939338E-2,3E0,1.773157E-2,-7.321649E-2,1.473E-3,3.7330866E-2,-5.8842875E-2],"split_indices":[1,2,0,0,0,8,0,0,2,0,0],"split_type":[0,0,0,0,0,0,0,0,0,0,0],"sum_hessian":[8.805663E0,3.353583E0,5.45208E0,1.3301793E0,2.0234036E0,4.382473E0,1.0696068E0,1.411867E0,2.970606E0,1.1916735E0,1.7789325E0],"tree_param":{"num_deleted":"0","num_feature":"9","num_nodes":"11","size_leaf_vector":"1"}},{"base_weights":[-4.2045254E-2,3.6519003E-1,-3.380481E-1,5.0241286E-1,-4.5825806E-3,1.3879035E-2,-7.974173E-2,-1.4122072E-4,7.5449884E-2,-4.343245E-2,5.6146096E-2],"categories":[],"categories_nodes":[],"categories_segments":[],"categories_sizes":[],"default_left":[0,0,0,0,0,0,0,0,0,0,0],"id":40,"left_children":[1,3,5,7,-1,9,-1,-1,-1,-1,-1],"loss_changes":[1.2692844E0,2.7579755E-1,9.849119E-1,4.3842292E-1,0E0,1.3221943E0,0E0,0E0,0E0,0E0,0E0],"parents":[2147483647,0,0,1,1,2,2,3,3,5,5],"right_children":[2,4,6,8,-1,10,-1,-1,-1,-1,-1],"split_conditions":[1.385E-3,6.035852E0,1.6688E0,6.76E-2,-4.5825806E-3,1.4317E0,-7.974173E-2,-1.4122072E-4,7.5449884E-2,-4.343245E-2,5.6146096E-2],"split_indices":[2,7,4,6,0,4,0,0,0,0,0],"split_type":[0,0,0,0,0,0,0,0,0,0,0],"sum_hessian":[8.505609E0,3.4817472E0,5.023862E0,2.4435635E0,1.0381835E0,3.3937013E0,1.6301603E0,1.1465129E0,1.2970506E0,1.9799316E0,1.4137698E0],"tree_param":{"num_deleted":"0","num_feature":"9","num_nodes":"11","size_leaf_vector":"1"}},{"base_weights":[-5.6862846E-2,3.004413E-1,-2.70163E-1,7.146663E-2,-1.3493228E-2,-5.721012E-1,5.327257E-2,-8.2976125E-2,-9.479778E-3],"categories":[],"categories_nodes":[],"categories_segments":[],"categories_sizes":[],"default_left":[0,0,0,0,0,0,0,0,0],"id":41,"left_children":[1,3,5,-1,-1,7,-1,-1,-1],"loss_changes":[7.7997065E-1,7.99948E-1,1.8242954E0,0E0,0E0,5.408319E-1,0E0,0E0,0E0],"parents":[2147483647,0,0,1,1,2,2,5,5],"right_children":[2,4,6,-1,-1,8,-1,-1,-1],"split_conditions":[1.363E-3,-6.256903E0,8.46895E1,7.146663E-2,-1.3493228E-2,9.35E-3,5.327257E-2,-8.2976125E-2,-9.479778E-3],"split_indices":[2,7,0,0,0,5,0,0,0],"split_type":[0,0,0,0,0,0,0,0,0],"sum_hessian":[8.169068E0,2.900999E0,5.2680697E0,1.157871E0,1.743128E0,4.037249E0,1.2308205E0,2.1423304E0,1.8949187E0],"tree_param":{"num_deleted":"0","num_feature":"9","num_nodes":"9","size_leaf_vector":"1"}},{"base_weights":[1.4450441E-1,3.2589132E-1,-2.8632477E-1,4.431732E-1,-1.973694E-2,-6.1419137E-2,2.2402016E-2,-1.6855675E-3,5.653216E-1,9.903899E-3,7.111162E-2],"categories":[],"categories_nodes":[],"categories_segments":[],"categories_sizes":[],"default_left":[0,0,0,0,0,0,0,0,0,0,0],"id":42,"left_children":[1,3,5,7,-1,-1,-1,-1,9,-1,-1],"loss_changes":[8.738595E-1,5.4752874E-1,7.218271E-1,3.7096202E-1,0E0,0E0,0E0,0E0,2.7706182E-1,0E0,0E0],"parents":[2147483647,0,0,1,1,2,2,3,3,8,8],"right_children":[2,4,6,8,-1,-1,-1,-1,10,-1,-1],"split_conditions":[7.85058E0,2.7632847E1,8.46895E1,3E0,-1.973694E-2,-6.1419137E-2,2.2402016E-2,-1.6855675E-3,4.62059E1,9.903899E-3,7.111162E-2],"split_indices":[7,1,0,8,0,0,0,0,3,0,0],"split_type":[0,0,0,0,0,0,0,0,0,0,0],"sum_hessian":[8.98824E0,6.496618E0,2.4916222E0,5.4321327E0,1.0644851E0,1.3931332E0,1.098489E0,1.320593E0,4.11154E0,1.3793584E0,2.7321815E0],"tree_param":{"num_deleted":"0","num_feature":"9","num_nodes":"11","size_leaf_vector":"1"}},{"base_weights":[5.4204736E-2,-4.3771647E-2,1.5435897E-1,-2.2400157E-1,2.8875276E-1,1.5205205E-3,-3.5165336E-2,-4.3223143E-2,4.8519406E-1,2.90721E-2,-4.2805564E-2,6.830897E-2,-1.6407717E-3],"categories":[],"categories_nodes":[],"categories_segments":[],"categories_sizes":[],"default_left":[0,0,0,0,0,0,0,0,0,0,0,0,0],"id":43,"left_children":[1,-1,3,5,7,-1,-1,9,11,-1,-1,-1,-1],"loss_changes":[5.771634E-1,0E0,5.3925836E-1,9.723765E-2,4.9857605E-1,0E0,0E0,5.9233433E-1,4.7605157E-1,0E0,0E0,0E0,0E0],"parents":[2147483647,0,0,2,2,3,3,4,4,7,7,8,8],"right_children":[2,-1,4,6,8,-1,-1,10,12,-1,-1,-1,-1],"split_conditions":[7.166E-1,-4.3771647E-2,3E0,2.3169418E1,5.2119E1,1.5205205E-3,-3.5165336E-2,2.50517E1,2.7632847E1,2.90721E-2,-4.2805564E-2,6.830897E-2,-1.6407717E-3],"split_indices":[4,0,8,1,0,0,0,0,1,0,0,0,0],"split_type":[0,0,0,0,0,0,0,0,0,0,0,0,0],"sum_hessian":[9.343387E0,1.010374E0,8.333014E0,2.0093393E0,6.3236737E0,1.00568E0,1.0036592E0,2.6408088E0,3.682865E0,1.5448201E0,1.0959889E0,2.3814867E0,1.3013783E0],"tree_param":{"num_deleted":"0","num_feature":"9","num_nodes":"13","size_leaf_vector":"1"}},{"base_weights":[1.0097051E-1,-2.224379E-1,3.5008627E-1,9.1778286E-2,-5.3521473E-2,7.430194E-2,2.0937897E-2,1.1661847E-2,2.1388947E-3,-5.4893266E-2,5.406637E-2],"categories":[],"categories_nodes":[],"categories_segments":[],"categories_sizes":[],"default_left":[0,0,0,0,0,0,0,0,0,0,0],"id":44,"left_children":[1,3,5,7,-1,-1,9,-1,-1,-1,-1],"loss_changes":[7.897761E-1,4.8708418E-1,6.802516E-1,2.8851368E-3,0E0,0E0,1.468639E0,0E0,0E0,0E0,0E0],"parents":[2147483647,0,0,1,1,2,2,3,3,6,6],"right_children":[2,4,6,8,-1,-1,10,-1,-1,-1,-1],"split_conditions":[1.4095E0,6.04036E1,1.6688E0,6E0,-5.3521473E-2,7.430194E-2,1.371548E0,1.1661847E-2,2.1388947E-3,-5.4893266E-2,5.406637E-2],"split_indices":[4,0,4,8,0,0,7,0,0,0,0],"split_type":[0,0,0,0,0,0,0,0,0,0,0],"sum_hessian":[7.836265E0,3.4562995E0,4.379966E0,2.076656E0,1.3796433E0,1.4233677E0,2.9565978E0,1.0495205E0,1.0271357E0,1.3834603E0,1.5731375E0],"tree_param":{"num_deleted":"0","num_feature":"9","num_nodes":"11","size_leaf_vector":"1"}},{"base_weights":[-6.7077E-3,1.4976181E-1,-4.999297E-2,4.4553304E-1,-1.2593798E-1,7.97773E-2,-6.0361265E-3,-3.165339E-1,2.6744789E-2,-5.21865E-2,9.132116E-3],"categories":[],"categories_nodes":[],"categories_segments":[],"categories_sizes":[],"default_left":[0,0,0,0,0,0,0,0,0,0,0],"id":45,"left_children":[1,3,-1,5,7,-1,-1,9,-1,-1,-1],"loss_changes":[7.9589653E-1,6.972277E-1,0E0,7.633306E-1,4.4820917E-1,0E0,0E0,3.5954687E-1,0E0,0E0,0E0],"parents":[2147483647,0,0,1,1,3,3,4,4,7,7],"right_children":[2,4,-1,6,8,-1,-1,10,-1,-1,-1],"split_conditions":[2.7506334E1,-4.108431E0,-4.999297E-2,8.516E-3,2.4960808E1,7.97773E-2,-6.0361265E-3,2.0865E0,2.6744789E-2,-5.21865E-2,9.132116E-3],"split_indices":[1,7,0,5,1,0,0,4,0,0,0],"split_type":[0,0,0,0,0,0,0,0,0,0,0],"sum_hessian":[8.34284E0,6.86223E0,1.4806101E0,3.0134196E0,3.84881E0,1.4363639E0,1.5770558E0,2.724262E0,1.1245478E0,1.626087E0,1.098175E0],"tree_param":{"num_deleted":"0","num_feature":"9","num_nodes":"11","size_leaf_vector":"1"}},{"base_weights":[7.156733E-2,5.70052E-1,-2.1306218E-1,6.989171E-2,2.0406624E-2,-5.116178E-1,4.199211E-2,-1.4590202E-1,-7.5419426E-2,1.3726276E-2,-3.626723E-2],"categories":[],"categories_nodes":[],"categories_segments":[],"categories_sizes":[],"default_left":[0,0,0,0,0,0,0,0,0,0,0],"id":46,"left_children":[1,3,5,-1,-1,7,-1,9,-1,-1,-1],"loss_changes":[1.4005115E0,2.4735808E-2,1.4368341E0,0E0,0E0,3.1974673E-1,0E0,2.4447204E-1,0E0,0E0,0E0],"parents":[2147483647,0,0,1,1,2,2,5,5,7,7],"right_children":[2,4,6,-1,-1,8,-1,10,-1,-1,-1],"split_conditions":[1.349E-3,-6.256903E0,8.46895E1,6.989171E-2,2.0406624E-2,1.4632E0,4.199211E-2,5.753E-1,-7.5419426E-2,1.3726276E-2,-3.626723E-2],"split_indices":[2,7,0,0,0,4,0,6,0,0,0],"split_type":[0,0,0,0,0,0,0,0,0,0,0],"sum_hessian":[8.014829E0,2.5485864E0,5.466242E0,1.2121129E0,1.3364735E0,3.8446116E0,1.6216302E0,2.171803E0,1.6728088E0,1.1007226E0,1.0710804E0],"tree_param":{"num_deleted":"0","num_feature":"9","num_nodes":"11","size_leaf_vector":"1"}},{"base_weights":[1.2879423E-3,2.2078215E-1,-7.333853E-2,3.8663185E-1,-2.3811607E-2,6.495549E-2,8.8381745E-2,3.837308E-2,-3.4866698E-2],"categories":[],"categories_nodes":[],"categories_segments":[],"categories_sizes":[],"default_left":[0,0,0,0,0,0,0,0,0],"id":47,"left_children":[1,3,-1,5,-1,-1,7,-1,-1],"loss_changes":[1.6220931E0,6.811867E-1,0E0,4.183362E-1,0E0,0E0,6.501181E-1,0E0,0E0],"parents":[2147483647,0,0,1,1,3,3,6,6],"right_children":[2,4,-1,6,-1,-1,8,-1,-1],"split_conditions":[1.608E-3,7.85058E0,-7.333853E-2,1.363E-3,-2.3811607E-2,6.495549E-2,1.6688E0,3.837308E-2,-3.4866698E-2],"split_indices":[2,7,0,2,0,0,4,0,0],"split_type":[0,0,0,0,0,0,0,0,0],"sum_hessian":[8.054981E0,6.7406096E0,1.3143715E0,5.066876E0,1.6737338E0,2.066905E0,2.9999707E0,1.8629922E0,1.1369785E0],"tree_param":{"num_deleted":"0","num_feature":"9","num_nodes":"9","size_leaf_vector":"1"}},{"base_weights":[-9.714618E-2,-4.1141322E-1,2.2249512E-1,6.7453734E-3,-6.688812E-2,5.9794713E-2,-1.3341907E-1,-4.093001E-2,2.034003E-2],"categories":[],"categories_nodes":[],"categories_segments":[],"categories_sizes":[],"default_left":[0,0,0,0,0,0,0,0,0],"id":48,"left_children":[1,3,5,-1,-1,-1,7,-1,-1],"loss_changes":[9.1958845E-1,6.0086465E-1,7.125979E-1,0E0,0E0,0E0,3.8512412E-1,0E0,0E0],"parents":[2147483647,0,0,1,1,2,2,6,6],"right_children":[2,4,6,-1,-1,-1,8,-1,-1],"split_conditions":[5.26957E1,1.339E-3,1.422E-3,6.7453734E-3,-6.688812E-2,5.9794713E-2,8.605E-3,-4.093001E-2,2.034003E-2],"split_indices":[0,2,2,0,0,0,5,0,0],"split_type":[0,0,0,0,0,0,0,0,0],"sum_hessian":[7.2431903E0,3.5075274E0,3.735663E0,1.4845012E0,2.0230262E0,1.4870014E0,2.2486615E0,1.117858E0,1.1308036E0],"tree_param":{"num_deleted":"0","num_feature":"9","num_nodes":"9","size_leaf_vector":"1"}},{"base_weights":[8.681007E-3,-1.2399427E-1,4.0035E-2,-3.3217895E-1,1.9056512E-1,-1.3178303E-2,-7.709128E-2,5.942924E-2,-3.0870942E-2,-3.410889E-2,4.8026E-2],"categories":[],"categories_nodes":[],"categories_segments":[],"categories_sizes":[],"default_left":[0,0,0,0,0,0,0,0,0,0,0],"id":49,"left_children":[1,3,-1,5,7,9,-1,-1,-1,-1,-1],"loss_changes":[5.5173475E-1,5.859413E-1,0E0,7.1299756E-1,9.522277E-1,8.125034E-1,0E0,0E0,0E0,0E0,0E0],"parents":[2147483647,0,0,1,1,3,3,4,4,5,5],"right_children":[2,4,-1,6,8,10,-1,-1,-1,-1,-1],"split_conditions":[1.0962E0,2.5738552E1,4.0035E-2,4.543564E0,2.7632847E1,3.47467E1,-7.709128E-2,5.942924E-2,-3.0870942E-2,-3.410889E-2,4.8026E-2],"split_indices":[6,1,0,7,1,0,0,0,0,0,0],"split_type":[0,0,0,0,0,0,0,0,0,0,0],"sum_hessian":[8.6621895E0,6.9808826E0,1.6813071E0,4.1670156E0,2.813867E0,3.0091317E0,1.1578838E0,1.4505777E0,1.3632894E0,1.9932702E0,1.0158615E0],"tree_param":{"num_deleted":"0","num_feature":"9","num_nodes":"11","size_leaf_vector":"1"}},{"base_weights":[2.7730346E-2,-9.846231E-2,3.4781996E-2,1.9932741E-1,-4.4576105E-1,5.9369605E-2,-2.2072864E-1,-6.2055953E-2,-1.3850647E-3,-3.0275637E-2,-2.9841745E-3],"categories":[],"categories_nodes":[],"categories_segments":[],"categories_sizes":[],"default_left":[0,0,0,0,0,0,0,0,0,0,0],"id":50,"left_children":[1,3,-1,5,7,-1,9,-1,-1,-1,-1],"loss_changes":[4.1725907E-1,8.7282276E-1,0E0,9.215683E-1,2.789182E-1,0E0,3.8561568E-2,0E0,0E0,0E0,0E0],"parents":[2147483647,0,0,1,1,3,3,4,4,6,6],"right_children":[2,4,-1,6,8,-1,10,-1,-1,-1,-1],"split_conditions":[1.0962E0,-4.108431E0,3.4781996E-2,8.516E-3,2.4791506E1,5.9369605E-2,6E0,-6.2055953E-2,-1.3850647E-3,-3.0275637E-2,-2.9841745E-3],"split_indices":[6,7,0,5,1,0,8,0,0,0,0],"split_type":[0,0,0,0,0,0,0,0,0,0,0],"sum_hessian":[8.482145E0,6.580306E0,1.9018393E0,3.7720459E0,2.80826E0,1.7323034E0,2.0397425E0,1.6882358E0,1.1200242E0,1.0167673E0,1.0229753E0],"tree_param":{"num_deleted":"0","num_feature":"9","num_nodes":"11","size_leaf_vector":"1"}},{"base_weights":[1.352787E-1,3.9941224E-1,-7.1197405E-2,-2.5941858E-3,5.675145E-2,-3.282309E-1,3.3462714E-2,-5.6808967E-2,1.3852707E-2],"categories":[],"categories_nodes":[],"categories_segments":[],"categories_sizes":[],"default_left":[0,0,0,0,0,0,0,0,0],"id":51,"left_children":[1,3,5,-1,-1,7,-1,-1,-1],"loss_changes":[5.510583E-1,3.2616597E-1,7.5939226E-1,0E0,0E0,5.620438E-1,0E0,0E0,0E0],"parents":[2147483647,0,0,1,1,2,2,5,5],"right_children":[2,4,6,-1,-1,8,-1,-1,-1],"split_conditions":[-4.108431E0,6E0,1.0962E0,-2.5941858E-3,5.675145E-2,2.5398361E1,3.3462714E-2,-5.6808967E-2,1.3852707E-2],"split_indices":[7,8,6,0,0,1,0,0,0],"split_type":[0,0,0,0,0,0,0,0,0],"sum_hessian":[8.582826E0,3.3556733E0,5.2271523E0,1.1900734E0,2.1656E0,3.3173022E0,1.9098502E0,2.0478504E0,1.2694517E0],"tree_param":{"num_deleted":"0","num_feature":"9","num_nodes":"9","size_leaf_vector":"1"}},{"base_weights":[1.14475444E-1,-9.554025E-2,3.349589E-1,2.8239384E-1,-4.72791E-2,5.9361722E-2,-1.4299217E-2,-4.525273E-3,4.6749283E-2],"categories":[],"categories_nodes":[],"categories_segments":[],"categories_sizes":[],"default_left":[0,0,0,0,0,0,0,0,0],"id":52,"left_children":[1,3,5,7,-1,-1,-1,-1,-1],"loss_changes":[4.2696062E-1,8.6728346E-1,6.2673306E-1,2.1504354E-1,0E0,0E0,0E0,0E0,0E0],"parents":[2147483647,0,0,1,1,2,2,3,3],"right_children":[2,4,6,8,-1,-1,-1,-1,-1],"split_conditions":[2.5398361E1,2.1332232E1,5.30274E1,4.62111E1,-4.72791E-2,5.9361722E-2,-1.4299217E-2,-4.525273E-3,4.6749283E-2],"split_indices":[1,1,3,3,0,0,0,0,0],"split_type":[0,0,0,0,0,0,0,0,0],"sum_hessian":[7.5295043E0,4.1465225E0,3.3829818E0,2.1969929E0,1.9495296E0,2.0380323E0,1.3449495E0,1.065845E0,1.1311477E0],"tree_param":{"num_deleted":"0","num_feature":"9","num_nodes":"9","size_leaf_vector":"1"}},{"base_weights":[-2.923426E-2,-3.0262005E-1,1.6858871E-1,1.0653968E-2,-5.1793452E-2,3.8521582E-1,-2.5932375E-2,6.1071306E-2,5.1018414E-3],"categories":[],"categories_nodes":[],"categories_segments":[],"categories_sizes":[],"default_left":[0,0,0,0,0,0,0,0,0],"id":53,"left_children":[1,3,5,-1,-1,7,-1,-1,-1],"loss_changes":[5.1292366E-1,4.025858E-1,6.1876404E-1,0E0,0E0,2.7921522E-1,0E0,0E0,0E0],"parents":[2147483647,0,0,1,1,2,2,5,5],"right_children":[2,4,6,-1,-1,8,-1,-1,-1],"split_conditions":[2.687E-1,1.349E-3,7.85058E0,1.0653968E-2,-5.1793452E-2,1.422E-3,-2.5932375E-2,6.1071306E-2,5.1018414E-3],"split_indices":[6,2,7,0,0,2,0,0,0],"split_type":[0,0,0,0,0,0,0,0,0],"sum_hessian":[7.5408354E0,2.943395E0,4.5974407E0,1.1890486E0,1.7543463E0,3.1185033E0,1.4789373E0,1.3680317E0,1.7504716E0],"tree_param":{"num_deleted":"0","num_feature":"9","num_nodes":"9","size_leaf_vector":"1"}},{"base_weights":[-6.5883756E-2,-3.487428E-1,1.7739575E-1,4.201408E-2,-7.943485E-2,6.640714E-2,-1.4539516E-1,2.3561304E-2,-1.7285688E-2,-4.450038E-2,2.4236439E-2],"categories":[],"categories_nodes":[],"categories_segments":[],"categories_sizes":[],"default_left":[0,0,0,0,0,0,0,0,0,0,0],"id":54,"left_children":[1,3,5,7,-1,-1,9,-1,-1,-1,-1],"loss_changes":[6.631244E-1,7.9555714E-1,9.386132E-1,1.7725144E-1,0E0,0E0,5.7756525E-1,0E0,0E0,0E0,0E0],"parents":[2147483647,0,0,1,1,2,2,3,3,6,6],"right_children":[2,4,6,8,-1,-1,10,-1,-1,-1,-1],"split_conditions":[1.4152E0,6.02634E1,1.6688E0,3.249794E0,-7.943485E-2,6.640714E-2,1.371548E0,2.3561304E-2,-1.7285688E-2,-4.450038E-2,2.4236439E-2],"split_indices":[4,3,4,7,0,0,7,0,0,0,0],"split_type":[0,0,0,0,0,0,0,0,0,0,0],"sum_hessian":[7.737474E0,3.3772578E0,4.360216E0,2.2819252E0,1.0953326E0,1.3171115E0,3.043105E0,1.1496009E0,1.1323242E0,1.6334021E0,1.4097027E0],"tree_param":{"num_deleted":"0","num_feature":"9","num_nodes":"11","size_leaf_vector":"1"}},{"base_weights":[3.4066897E-2,-5.7547577E-2,2.3660779E-1,4.6161884E-1,-1.7310785E-1,6.1618418E-2,7.235331E-3,-5.0175663E-2,2.1789107E-2],"categories":[],"categories_nodes":[],"categories_segments":[],"categories_sizes":[],"default_left":[0,0,0,0,0,0,0,0,0],"id":55,"left_children":[1,-1,3,5,7,-1,-1,-1,-1],"loss_changes":[1.1447335E0,0E0,7.1054083E-1,2.3749638E-1,5.143952E-1,0E0,0E0,0E0,0E0],"parents":[2147483647,0,0,2,2,3,3,4,4],"right_children":[2,-1,4,6,8,-1,-1,-1,-1],"split_conditions":[5.101E-3,-5.7547577E-2,5.30274E1,1.6688E0,1.4317E0,6.1618418E-2,7.235331E-3,-5.0175663E-2,2.1789107E-2],"split_indices":[5,0,3,4,4,0,0,0,0],"split_type":[0,0,0,0,0,0,0,0,0],"sum_hessian":[7.1693954E0,1.3288791E0,5.8405166E0,3.688277E0,2.1522396E0,2.2227507E0,1.4655262E0,1.0154493E0,1.1367903E0],"tree_param":{"num_deleted":"0","num_feature":"9","num_nodes":"9","size_leaf_vector":"1"}},{"base_weights":[-5.4302864E-2,-5.811994E-2,1.5209101E-1,3.1197596E-1,-2.7086452E-2,2.6456973E-2,6.599089E-2,4.7377203E-2,-3.5240415E-2],"categories":[],"categories_nodes":[],"categories_segments":[],"categories_sizes":[],"default_left":[0,0,0,0,0,0,0,0,0],"id":56,"left_children":[1,-1,3,5,-1,7,-1,-1,-1],"loss_changes":[8.9751834E-1,0E0,4.9963135E-1,4.7125074E-1,0E0,8.014346E-1,0E0,0E0,0E0],"parents":[2147483647,0,0,2,2,3,3,5,5],"right_children":[2,-1,4,6,-1,8,-1,-1,-1],"split_conditions":[-9.034913E0,-5.811994E-2,6.02634E1,8.695E-3,-2.7086452E-2,1.363E-3,6.599089E-2,4.7377203E-2,-3.5240415E-2],"split_indices":[7,0,3,5,0,2,0,0,0],"split_type":[0,0,0,0,0,0,0,0,0],"sum_hessian":[6.440334E0,1.3015851E0,5.1387486E0,3.9194975E0,1.2192512E0,2.7438736E0,1.1756238E0,1.1433835E0,1.6004901E0],"tree_param":{"num_deleted":"0","num_feature":"9","num_nodes":"9","size_leaf_vector":"1"}},{"base_weights":[1.3903718E-2,-5.581681E-2,2.3540254E-1,4.5183405E-1,-4.6432346E-2,6.964439E-2,-7.74268E-3,-4.071376E-2,2.8754655E-2],"categories":[],"categories_nodes":[],"categories_segments":[],"categories_sizes":[],"default_left":[0,0,0,0,0,0,0,0,0],"id":57,"left_children":[1,-1,3,5,7,-1,-1,-1,-1],"loss_changes":[1.2157053E0,0E0,4.4016436E-1,5.692181E-1,5.8591354E-1,0E0,0E0,0E0,0E0],"parents":[2147483647,0,0,2,2,3,3,4,4],"right_children":[2,-1,4,6,8,-1,-1,-1,-1],"split_conditions":[1.107E0,-5.581681E-2,1.6688E0,7.52E-1,2.6343E0,6.964439E-2,-7.74268E-3,-4.071376E-2,2.8754655E-2],"split_indices":[4,0,4,6,4,0,0,0,0],"split_type":[0,0,0,0,0,0,0,0,0],"sum_hessian":[7.557206E0,1.6850963E0,5.87211E0,2.9802654E0,2.8918443E0,1.8222098E0,1.1580555E0,1.2849815E0,1.6068629E0],"tree_param":{"num_deleted":"0","num_feature":"9","num_nodes":"9","size_leaf_vector":"1"}},{"base_weights":[1.1163525E-1,-3.587502E-2,3.1211963E-1,5.2503664E-2,8.688498E-2,-1.3943853E-2,3.3363696E-2],"categories":[],"categories_nodes":[],"categories_segments":[],"categories_sizes":[],"default_left":[0,0,0,0,0,0,0],"id":58,"left_children":[1,-1,3,-1,5,-1,-1],"loss_changes":[9.190912E-1,0E0,2.678092E-1,0E0,2.9080644E-1,0E0,0E0],"parents":[2147483647,0,0,2,2,4,4],"right_children":[2,-1,4,-1,6,-1,-1],"split_conditions":[1.107E0,-3.587502E-2,-4.517827E0,5.2503664E-2,1.0962E0,-1.3943853E-2,3.3363696E-2],"split_indices":[4,0,7,0,6,0,0],"split_type":[0,0,0,0,0,0,0],"sum_hessian":[7.558601E0,2.0229197E0,5.5356817E0,2.1614094E0,3.374272E0,1.9868326E0,1.3874394E0],"tree_param":{"num_deleted":"0","num_feature":"9","num_nodes":"7","size_leaf_vector":"1"}},{"base_weights":[3.7556965E-2,-2.9096235E-2,1.9044885E-1,4.007036E-1,-1.597436E-1,6.0815825E-3,5.1773917E-2,-3.377227E-2,9.847489E-3],"categories":[],"categories_nodes":[],"categories_segments":[],"categories_sizes":[],"default_left":[0,0,0,0,0,0,0,0,0],"id":59,"left_children":[1,-1,3,5,7,-1,-1,-1,-1],"loss_changes":[4.669437E-1,0E0,5.201855E-1,1.3384587E-1,1.729341E-1,0E0,0E0,0E0,0E0],"parents":[2147483647,0,0,2,2,3,3,4,4],"right_children":[2,-1,4,6,8,-1,-1,-1,-1],"split_conditions":[3.51196E1,-2.9096235E-2,5.23143E1,3.52447E1,1.503E-3,6.0815825E-3,5.1773917E-2,-3.377227E-2,9.847489E-3],"split_indices":[0,0,3,3,2,0,0,0,0],"split_type":[0,0,0,0,0,0,0,0,0],"sum_hessian":[7.193254E0,1.9977095E0,5.1955447E0,3.156282E0,2.0392628E0,1.1976815E0,1.9586004E0,1.0249281E0,1.0143346E0],"tree_param":{"num_deleted":"0","num_feature":"9","num_nodes":"9","size_leaf_vector":"1"}},{"base_weights":[7.085276E-2,-2.213333E-1,2.8046933E-1,9.058232E-3,-5.5791564E-2,-8.698013E-2,5.635323E-2,-3.7355408E-2,2.3296915E-2],"categories":[],"categories_nodes":[],"categories_segments":[],"categories_sizes":[],"default_left":[0,0,0,0,0,0,0,0,0],"id":60,"left_children":[1,3,5,-1,-1,7,-1,-1,-1],"loss_changes":[5.6883955E-1,4.7207713E-1,5.959954E-1,0E0,0E0,3.7627047E-1,0E0,0E0,0E0],"parents":[2147483647,0,0,1,1,2,2,5,5],"right_children":[2,4,6,-1,-1,8,-1,-1,-1],"split_conditions":[1.4317E0,5.93927E1,7.31E-1,9.058232E-3,-5.5791564E-2,4.70032E1,5.635323E-2,-3.7355408E-2,2.3296915E-2],"split_indices":[4,3,6,0,0,3,0,0,0],"split_type":[0,0,0,0,0,0,0,0,0],"sum_hessian":[7.2740707E0,3.0152276E0,4.2588434E0,1.9442965E0,1.0709311E0,2.1546147E0,2.1042285E0,1.0482082E0,1.1064066E0],"tree_param":{"num_deleted":"0","num_feature":"9","num_nodes":"9","size_leaf_vector":"1"}},{"base_weights":[2.0500021E-2,3.066949E-1,-1.2631328E-1,4.08427E-3,4.3410514E-2,-4.669529E-2,3.011728E-2,2.1517448E-1,-1.9389952E-2,-1.0981527E-2,4.796247E-2],"categories":[],"categories_nodes":[],"categories_segments":[],"categories_sizes":[],"default_left":[0,0,0,0,0,0,0,0,0,0,0],"id":61,"left_children":[1,3,5,-1,-1,-1,7,9,-1,-1,-1],"loss_changes":[3.9330226E-1,8.906335E-2,3.490051E-1,0E0,0E0,0E0,2.5923967E-1,3.4035188E-1,0E0,0E0,0E0],"parents":[2147483647,0,0,1,1,2,2,6,6,7,7],"right_children":[2,4,6,-1,-1,-1,8,10,-1,-1,-1],"split_conditions":[4.30524E1,2.913779E0,4.76506E1,4.08427E-3,4.3410514E-2,-4.669529E-2,8.104E-1,3.47467E1,-1.9389952E-2,-1.0981527E-2,4.796247E-2],"split_indices":[3,7,3,0,0,0,6,0,0,0,0],"split_type":[0,0,0,0,0,0,0,0,0,0,0],"sum_hessian":[7.438509E0,2.1528242E0,5.2856846E0,1.1253167E0,1.0275075E0,1.0387272E0,4.246958E0,2.3473313E0,1.8996264E0,1.3154643E0,1.0318669E0],"tree_param":{"num_deleted":"0","num_feature":"9","num_nodes":"11","size_leaf_vector":"1"}},{"base_weights":[1.9215675E-2,-1.833715E-1,4.1022696E-2,3.1692512E-2,-4.2031866E-1,-2.3582256E-3,-6.162217E-2],"categories":[],"categories_nodes":[],"categories_segments":[],"categories_sizes":[],"default_left":[0,0,0,0,0,0,0],"id":62,"left_children":[1,3,-1,-1,5,-1,-1],"loss_changes":[6.921197E-1,8.23249E-1,0E0,0E0,3.2589042E-1,0E0,0E0],"parents":[2147483647,0,0,1,1,4,4],"right_children":[2,4,-1,-1,6,-1,-1],"split_conditions":[1.1224E-2,1.342E-3,4.1022696E-2,3.1692512E-2,1.5656E0,-2.3582256E-3,-6.162217E-2],"split_indices":[5,2,0,0,4,0,0],"split_type":[0,0,0,0,0,0,0],"sum_hessian":[6.787725E0,4.820964E0,1.9667611E0,1.4409561E0,3.380008E0,1.487648E0,1.89236E0],"tree_param":{"num_deleted":"0","num_feature":"9","num_nodes":"7","size_leaf_vector":"1"}},{"base_weights":[-3.6694195E-2,-4.6079647E-2,1.6265348E-1,6.02372E-2,-7.09311E-2,3.7172873E-2,-6.1585695E-2],"categories":[],"categories_nodes":[],"categories_segments":[],"categories_sizes":[],"default_left":[0,0,0,0,0,0,0],"id":63,"left_children":[1,-1,3,-1,5,-1,-1],"loss_changes":[7.0788145E-1,0E0,6.417153E-1,0E0,1.3634312E0,0E0,0E0],"parents":[2147483647,0,0,2,2,4,4],"right_children":[2,-1,4,-1,6,-1,-1],"split_conditions":[1.1852E0,-4.6079647E-2,1.349E-3,6.02372E-2,1.6688E0,3.7172873E-2,-6.1585695E-2],"split_indices":[4,0,2,0,4,0,0],"split_type":[0,0,0,0,0,0,0],"sum_hessian":[6.486431E0,1.6546735E0,4.8317575E0,1.1285208E0,3.7032366E0,2.2187304E0,1.4845062E0],"tree_param":{"num_deleted":"0","num_feature":"9","num_nodes":"7","size_leaf_vector":"1"}},{"base_weights":[1.14491574E-1,2.5329196E-1,-2.1097105E-2,5.210651E-2,5.4517567E-2,-2.9341385E-2,2.5492927E-1,-1.207647E-3,4.0721003E-2],"categories":[],"categories_nodes":[],"categories_segments":[],"categories_sizes":[],"default_left":[0,0,0,0,0,0,0,0,0],"id":64,"left_children":[1,3,-1,-1,5,-1,7,-1,-1],"loss_changes":[4.053436E-1,2.8644976E-1,0E0,0E0,3.8941857E-1,0E0,1.4308022E-1,0E0,0E0],"parents":[2147483647,0,0,1,1,4,4,6,6],"right_children":[2,4,-1,-1,6,-1,8,-1,-1],"split_conditions":[7.85058E0,1.349E-3,-2.1097105E-2,5.210651E-2,1.42E-3,-2.9341385E-2,8.277E-3,-1.207647E-3,4.0721003E-2],"split_indices":[7,2,0,0,2,0,5,0,0],"split_type":[0,0,0,0,0,0,0,0,0],"sum_hessian":[6.7899613E0,4.9154234E0,1.8745378E0,1.4034358E0,3.5119877E0,1.1139764E0,2.3980114E0,1.205322E0,1.1926893E0],"tree_param":{"num_deleted":"0","num_feature":"9","num_nodes":"9","size_leaf_vector":"1"}},{"base_weights":[-4.828054E-2,-3.0330765E-1,3.227924E-1,3.7332144E-2,-6.7976706E-2,5.6936163E-2,-7.0178397E-3,6.4587116E-2,-4.5895617E-2],"categories":[],"categories_nodes":[],"categories_segments":[],"categories_sizes":[],"default_left":[0,0,0,0,0,0,0,0,0],"id":65,"left_children":[1,3,5,7,-1,-1,-1,-1,-1],"loss_changes":[8.534344E-1,6.9827545E-1,4.0199557E-1,1.4146649E0,0E0,0E0,0E0,0E0,0E0],"parents":[2147483647,0,0,1,1,2,2,3,3],"right_children":[2,4,6,8,-1,-1,-1,-1,-1],"split_conditions":[2.5398361E1,9.953E-3,2.7632847E1,-4.108431E0,-6.7976706E-2,5.6936163E-2,-7.0178397E-3,6.4587116E-2,-4.5895617E-2],"split_indices":[1,5,1,7,0,0,0,0,0],"split_type":[0,0,0,0,0,0,0,0,0],"sum_hessian":[6.9837227E0,4.2473016E0,2.736421E0,2.7026439E0,1.5446578E0,1.4056083E0,1.3308127E0,1.078637E0,1.6240069E0],"tree_param":{"num_deleted":"0","num_feature":"9","num_nodes":"9","size_leaf_vector":"1"}},{"base_weights":[2.2463322E-1,-1.21650845E-2,3.0933934E-1,4.4031456E-1,7.497645E-4,1.1103074E-2,5.8350988E-2],"categories":[],"categories_nodes":[],"categories_segments":[],"categories_sizes":[],"default_left":[0,0,0,0,0,0,0],"id":66,"left_children":[1,-1,3,5,-1,-1,-1],"loss_changes":[2.6150697E-1,0E0,2.502911E-1,1.4532745E-1,0E0,0E0,0E0],"parents":[2147483647,0,0,2,2,3,3],"right_children":[2,-1,4,6,-1,-1,-1],"split_conditions":[5.101E-3,-1.21650845E-2,1.473E-3,3.47467E1,7.497645E-4,1.1103074E-2,5.8350988E-2],"split_indices":[5,0,2,0,0,0,0],"split_type":[0,0,0,0,0,0,0],"sum_hessian":[6.63237E0,1.2177949E0,5.414575E0,3.4561305E0,1.958445E0,1.5855255E0,1.8706049E0],"tree_param":{"num_deleted":"0","num_feature":"9","num_nodes":"7","size_leaf_vector":"1"}},{"base_weights":[1.874701E-2,-1.3106932E-1,3.0873042E-1,1.9189061E-1,-4.3947974E-1,-1.4169775E-2,6.1247595E-2,4.3868463E-2,-1.4820776E-2,1.8422421E-3,-6.651034E-2],"categories":[],"categories_nodes":[],"categories_segments":[],"categories_sizes":[],"default_left":[0,0,0,0,0,0,0,0,0,0,0],"id":67,"left_children":[1,3,5,7,9,-1,-1,-1,-1,-1,-1],"loss_changes":[4.0046522E-1,6.984618E-1,5.137582E-1,3.7623462E-1,3.6949253E-1,0E0,0E0,0E0,0E0,0E0,0E0],"parents":[2147483647,0,0,1,1,2,2,3,3,4,4],"right_children":[2,4,6,8,10,-1,-1,-1,-1,-1,-1],"split_conditions":[1.1544E-2,-4.108431E0,2.2695946E1,2.4950071E1,1.38E-3,-1.4169775E-2,6.1247595E-2,4.3868463E-2,-1.4820776E-2,1.8422421E-3,-6.651034E-2],"split_indices":[5,7,1,1,2,0,0,0,0,0,0],"split_type":[0,0,0,0,0,0,0,0,0,0,0],"sum_hessian":[7.286485E0,5.165701E0,2.120784E0,2.7078812E0,2.4578197E0,1.0690196E0,1.0517645E0,1.4012104E0,1.3066708E0,1.1144327E0,1.3433871E0],"tree_param":{"num_deleted":"0","num_feature":"9","num_nodes":"11","size_leaf_vector":"1"}},{"base_weights":[-1.5014932E-1,-2.9747173E-1,2.8933039E-2,-7.953584E-2,-6.777634E-2,2.3183034E-1,-4.165902E-2,4.3607593E-2,-7.879323E-3],"categories":[],"categories_nodes":[],"categories_segments":[],"categories_sizes":[],"default_left":[0,0,0,0,0,0,0,0,0],"id":68,"left_children":[1,3,-1,5,-1,7,-1,-1,-1],"loss_changes":[5.6901276E-1,4.499601E-1,0E0,6.210728E-1,0E0,2.3993653E-1,0E0,0E0,0E0],"parents":[2147483647,0,0,1,1,3,3,5,5],"right_children":[2,4,-1,6,-1,8,-1,-1,-1],"split_conditions":[1.0962E0,4.522644E0,2.8933039E-2,2.4950071E1,-6.777634E-2,1.5799E0,-4.165902E-2,4.3607593E-2,-7.879323E-3],"split_indices":[6,7,0,1,0,4,0,0,0],"split_type":[0,0,0,0,0,0,0,0,0],"sum_hessian":[6.4591637E0,5.0795307E0,1.3796332E0,3.9976935E0,1.0818369E0,2.2403116E0,1.757382E0,1.1079344E0,1.1323773E0],"tree_param":{"num_deleted":"0","num_feature":"9","num_nodes":"9","size_leaf_vector":"1"}},{"base_weights":[-5.1100507E-2,-4.2018067E-2,7.61861E-2,3.0198056E-1,-1.8482532E-1,4.901634E-3,4.8544142E-2,-5.8860023E-2,3.6442522E-2],"categories":[],"categories_nodes":[],"categories_segments":[],"categories_sizes":[],"default_left":[0,0,0,0,0,0,0,0,0],"id":69,"left_children":[1,-1,3,5,7,-1,-1,-1,-1],"loss_changes":[4.113223E-1,0E0,4.5952255E-1,1.6427737E-1,1.0567064E0,0E0,0E0,0E0,0E0],"parents":[2147483647,0,0,2,2,3,3,4,4],"right_children":[2,-1,4,6,8,-1,-1,-1,-1],"split_conditions":[1.311E-3,-4.2018067E-2,1.473E-3,2.5738552E1,8.46895E1,4.901634E-3,4.8544142E-2,-5.8860023E-2,3.6442522E-2],"split_indices":[2,0,2,1,0,0,0,0,0],"split_type":[0,0,0,0,0,0,0,0,0],"sum_hessian":[7.074047E0,1.2239686E0,5.8500786E0,3.0524862E0,2.7975924E0,1.8158649E0,1.2366211E0,1.5710278E0,1.2265646E0],"tree_param":{"num_deleted":"0","num_feature":"9","num_nodes":"9","size_leaf_vector":"1"}},{"base_weights":[5.998494E-2,-2.203482E-1,2.7896982E-1,-4.7707822E-2,1.574537E-2,-3.352747E-3,4.4076033E-2],"categories":[],"categories_nodes":[],"categories_segments":[],"categories_sizes":[],"default_left":[0,0,0,0,0,0,0],"id":70,"left_children":[1,3,5,-1,-1,-1,-1],"loss_changes":[4.8689577E-1,4.2409766E-1,2.3380136E-1,0E0,0E0,0E0,0E0],"parents":[2147483647,0,0,1,1,2,2],"right_children":[2,4,6,-1,-1,-1,-1],"split_conditions":[5.26957E1,5.0859E1,1.0797E0,-4.7707822E-2,1.574537E-2,-3.352747E-3,4.4076033E-2],"split_indices":[0,3,4,0,0,0,0],"split_type":[0,0,0,0,0,0,0],"sum_hessian":[5.930023E0,2.597988E0,3.3320353E0,1.3903925E0,1.2075953E0,1.4070668E0,1.9249686E0],"tree_param":{"num_deleted":"0","num_feature":"9","num_nodes":"7","size_leaf_vector":"1"}},{"base_weights":[1.3439594E-2,1.744659E-1,-3.6923807E-2,3.3633536E-1,-1.6589427E-2,5.869589E-2,-5.147193E-3],"categories":[],"categories_nodes":[],"categories_segments":[],"categories_sizes":[],"default_left":[0,0,0,0,0,0,0],"id":71,"left_children":[1,3,-1,5,-1,-1,-1],"loss_changes":[5.183672E-1,3.788718E-1,0E0,4.4857204E-1,0E0,0E0,0E0],"parents":[2147483647,0,0,1,1,3,3],"right_children":[2,4,-1,6,-1,-1,-1],"split_conditions":[7.85058E0,9.953E-3,-3.6923807E-2,2.4950071E1,-1.6589427E-2,5.869589E-2,-5.147193E-3],"split_indices":[7,5,0,1,0,0,0],"split_type":[0,0,0,0,0,0,0],"sum_hessian":[6.3667502E0,4.86409E0,1.5026606E0,3.3043995E0,1.5596905E0,1.6952794E0,1.60912E0],"tree_param":{"num_deleted":"0","num_feature":"9","num_nodes":"7","size_leaf_vector":"1"}},{"base_weights":[1.1229186E-2,2.3575107E-2,-1.08120166E-1,-3.3602676E-1,3.669901E-2,-4.789133E-2,-1.1798026E-2],"categories":[],"categories_nodes":[],"categories_segments":[],"categories_sizes":[],"default_left":[0,0,0,0,0,0,0],"id":72,"left_children":[1,-1,3,5,-1,-1,-1],"loss_changes":[2.2454382E-1,0E0,7.227323E-1,7.632038E-2,0E0,0E0,0E0],"parents":[2147483647,0,0,2,2,3,3],"right_children":[2,-1,4,6,-1,-1,-1],"split_conditions":[1.363E-3,2.3575107E-2,8.46895E1,8.061E-3,3.669901E-2,-4.789133E-2,-1.1798026E-2],"split_indices":[2,0,0,5,0,0,0],"split_type":[0,0,0,0,0,0,0],"sum_hessian":[6.428361E0,1.8926243E0,4.535737E0,3.263163E0,1.2725738E0,1.2485821E0,2.014581E0],"tree_param":{"num_deleted":"0","num_feature":"9","num_nodes":"7","size_leaf_vector":"1"}},{"base_weights":[1.7095007E-2,-1.2903392E-1,3.9298654E-2,2.1733776E-2,-2.6406696E-1,-1.7845958E-2,-5.6086093E-2,-3.2581236E-2,3.1189198E-2],"categories":[],"categories_nodes":[],"categories_segments":[],"categories_sizes":[],"default_left":[0,0,0,0,0,0,0,0,0],"id":73,"left_children":[1,3,-1,-1,5,7,-1,-1,-1],"loss_changes":[4.5582235E-1,3.4099317E-1,0E0,0E0,3.417973E-1,4.737054E-1,0E0,0E0,0E0],"parents":[2147483647,0,0,1,1,4,4,5,5],"right_children":[2,4,-1,-1,6,8,-1,-1,-1],"split_conditions":[1.0962E0,2.12963E1,3.9298654E-2,2.1733776E-2,5.23143E1,5.26957E1,-5.6086093E-2,-3.2581236E-2,3.1189198E-2],"split_indices":[6,0,0,0,3,0,0,0,0],"split_type":[0,0,0,0,0,0,0,0,0],"sum_hessian":[6.375276E0,5.063537E0,1.3117391E0,1.249344E0,3.814193E0,2.6641428E0,1.1500503E0,1.3837047E0,1.2804382E0],"tree_param":{"num_deleted":"0","num_feature":"9","num_nodes":"9","size_leaf_vector":"1"}},{"base_weights":[1.400008E-1,-9.645196E-2,5.608037E-2,2.2685717E-1,-5.1994007E-2,-3.7060396E-3,4.1838974E-2],"categories":[],"categories_nodes":[],"categories_segments":[],"categories_sizes":[],"default_left":[0,0,0,0,0,0,0],"id":74,"left_children":[1,3,-1,5,-1,-1,-1],"loss_changes":[6.4673096E-1,7.5689876E-1,0E0,1.8446787E-1,0E0,0E0,0E0],"parents":[2147483647,0,0,1,1,3,3],"right_children":[2,4,-1,6,-1,-1,-1],"split_conditions":[8.46895E1,1.473E-3,5.608037E-2,4.91291E1,-5.1994007E-2,-3.7060396E-3,4.1838974E-2],"split_indices":[0,2,0,3,0,0,0],"split_type":[0,0,0,0,0,0,0],"sum_hessian":[4.9561834E0,3.6666512E0,1.2895323E0,2.3425558E0,1.3240955E0,1.3242897E0,1.0182661E0],"tree_param":{"num_deleted":"0","num_feature":"9","num_nodes":"7","size_leaf_vector":"1"}},{"base_weights":[-5.7872687E-2,-2.5783846E-1,2.133283E-1,8.564331E-2,-5.8818735E-2,5.111285E-2,-2.0271964E-2,3.7714794E-2,-2.1229845E-2],"categories":[],"categories_nodes":[],"categories_segments":[],"categories_sizes":[],"default_left":[0,0,0,0,0,0,0,0,0],"id":75,"left_children":[1,3,5,7,-1,-1,-1,-1,-1],"loss_changes":[4.7014904E-1,6.017211E-1,5.7395107E-1,3.6277428E-1,0E0,0E0,0E0,0E0,0E0],"parents":[2147483647,0,0,1,1,2,2,3,3],"right_children":[2,4,6,8,-1,-1,-1,-1,-1],"split_conditions":[2.5398361E1,1.349E-3,2.7632847E1,-6.256903E0,-5.8818735E-2,5.111285E-2,-2.0271964E-2,3.7714794E-2,-2.1229845E-2],"split_indices":[1,2,1,7,0,0,0,0,0],"split_type":[0,0,0,0,0,0,0,0,0],"sum_hessian":[6.655131E0,3.8590171E0,2.796114E0,2.2550583E0,1.6039587E0,1.4964485E0,1.2996655E0,1.0054686E0,1.2495897E0],"tree_param":{"num_deleted":"0","num_feature":"9","num_nodes":"9","size_leaf_vector":"1"}},{"base_weights":[-1.18831374E-1,-2.9102376E-1,2.796545E-2,-4.113781E-2,-5.350489E-2,2.5508612E-2,-2.9220302E-2],"categories":[],"categories_nodes":[],"categories_segments":[],"categories_sizes":[],"default_left":[0,0,0,0,0,0,0],"id":76,"left_children":[1,3,-1,5,-1,-1,-1],"loss_changes":[5.485495E-1,2.9776558E-1,0E0,3.4779426E-1,0E0,0E0,0E0],"parents":[2147483647,0,0,1,1,3,3],"right_children":[2,4,-1,6,-1,-1,-1],"split_conditions":[1.2332E-2,8.007E-3,2.796545E-2,-4.517827E0,-5.350489E-2,2.5508612E-2,-2.9220302E-2],"split_indices":[5,5,0,7,0,0,0],"split_type":[0,0,0,0,0,0,0],"sum_hessian":[5.808351E0,4.2440867E0,1.5642644E0,2.6742198E0,1.5698668E0,1.2194334E0,1.4547865E0],"tree_param":{"num_deleted":"0","num_feature":"9","num_nodes":"7","size_leaf_vector":"1"}},{"base_weights":[1.16277404E-1,-2.644125E-2,2.982826E-1,4.5157257E-1,-6.985295E-4,1.2206634E-2,5.4516077E-2],"categories":[],"categories_nodes":[],"categories_segments":[],"categories_sizes":[],"default_left":[0,0,0,0,0,0,0],"id":77,"left_children":[1,-1,3,5,-1,-1,-1],"loss_changes":[5.917609E-1,0E0,2.5949237E-1,4.638183E-2,0E0,0E0,0E0],"parents":[2147483647,0,0,2,2,3,3],"right_children":[2,-1,4,6,-1,-1,-1],"split_conditions":[3E0,-2.644125E-2,1.6688E0,7.032E-3,-6.985295E-4,1.2206634E-2,5.4516077E-2],"split_indices":[8,0,4,5,0,0,0],"split_type":[0,0,0,0,0,0,0],"sum_hessian":[6.402359E0,1.9244087E0,4.4779506E0,2.6619756E0,1.8159747E0,1.0985352E0,1.5634406E0],"tree_param":{"num_deleted":"0","num_feature":"9","num_nodes":"7","size_leaf_vector":"1"}},{"base_weights":[7.206717E-2,2.6831895E-1,-2.549222E-1,-2.4477148E-2,6.547086E-2,-3.7167087E-2,-7.278474E-4],"categories":[],"categories_nodes":[],"categories_segments":[],"categories_sizes":[],"default_left":[0,0,0,0,0,0,0],"id":78,"left_children":[1,3,5,-1,-1,-1,-1],"loss_changes":[5.1146907E-1,1.1122537E0,8.6992174E-2,0E0,0E0,0E0,0E0],"parents":[2147483647,0,0,1,1,2,2],"right_children":[2,4,6,-1,-1,-1,-1],"split_conditions":[1.6688E0,1.107E0,4.45804E1,-2.4477148E-2,6.547086E-2,-3.7167087E-2,-7.278474E-4],"split_indices":[4,4,0,0,0,0,0],"split_type":[0,0,0,0,0,0,0],"sum_hessian":[5.904365E0,3.8019469E0,2.1024182E0,1.7906468E0,2.0113E0,1.0884517E0,1.0139664E0],"tree_param":{"num_deleted":"0","num_feature":"9","num_nodes":"7","size_leaf_vector":"1"}},{"base_weights":[-1.7292852E-2,-1.3344747E-1,3.0331567E-2,-3.0354455E-1,1.5229394E-1,7.2156414E-3,-6.399475E-2,4.3018218E-2,-1.9864528E-2],"categories":[],"categories_nodes":[],"categories_segments":[],"categories_sizes":[],"default_left":[0,0,0,0,0,0,0,0,0],"id":79,"left_children":[1,3,-1,5,7,-1,-1,-1,-1],"loss_changes":[3.2668993E-1,3.5418773E-1,0E0,5.9038365E-1,3.809686E-1,0E0,0E0,0E0,0E0],"parents":[2147483647,0,0,1,1,3,3,4,4],"right_children":[2,4,-1,6,8,-1,-1,-1,-1],"split_conditions":[1.0962E0,2.5738552E1,3.0331567E-2,9.722E-3,2.7632847E1,7.2156414E-3,-6.399475E-2,4.3018218E-2,-1.9864528E-2],"split_indices":[6,1,0,5,1,0,0,0,0],"split_type":[0,0,0,0,0,0,0,0,0],"sum_hessian":[6.685607E0,5.3361273E0,1.3494798E0,3.3058844E0,2.030243E0,1.9328017E0,1.3730825E0,1.0070312E0,1.0232116E0],"tree_param":{"num_deleted":"0","num_feature":"9","num_nodes":"9","size_leaf_vector":"1"}},{"base_weights":[-1.7755488E-1,2.9371414E-2,-3.6268756E-1,-1.11328796E-1,-6.1034184E-2,-3.442144E-2,1.4887484E-2],"categories":[],"categories_nodes":[],"categories_segments":[],"categories_sizes":[],"default_left":[0,0,0,0,0,0,0],"id":80,"left_children":[1,-1,3,5,-1,-1,-1],"loss_changes":[6.832621E-1,0E0,2.5534225E-1,2.8154826E-1,0E0,0E0,0E0],"parents":[2147483647,0,0,2,2,3,3],"right_children":[2,-1,4,6,-1,-1,-1],"split_conditions":[4.14657E1,2.9371414E-2,1.473E-3,5.0859E1,-6.1034184E-2,-3.442144E-2,1.4887484E-2],"split_indices":[3,0,2,3,0,0,0],"split_type":[0,0,0,0,0,0,0],"sum_hessian":[5.6103554E0,1.4169354E0,4.19342E0,2.800531E0,1.392889E0,1.3074663E0,1.4930646E0],"tree_param":{"num_deleted":"0","num_feature":"9","num_nodes":"7","size_leaf_vector":"1"}},{"base_weights":[6.3279666E-2,-2.2142188E-1,3.268588E-1,1.3503814E-2,-5.1063385E-2,-4.1082646E-3,4.7809135E-2],"categories":[],"categories_nodes":[],"categories_segments":[],"categories_sizes":[],"default_left":[0,0,0,0,0,0,0],"id":81,"left_children":[1,3,5,-1,-1,-1,-1],"loss_changes":[5.9454507E-1,4.7527748E-1,2.4317205E-1,0E0,0E0,0E0,0E0],"parents":[2147483647,0,0,1,1,2,2],"right_children":[2,4,6,-1,-1,-1,-1],"split_conditions":[5.26957E1,2.50517E1,1.0797E0,1.3503814E-2,-5.1063385E-2,-4.1082646E-3,4.7809135E-2],"split_indices":[0,0,4,0,0,0,0],"split_type":[0,0,0,0,0,0,0],"sum_hessian":[5.9584455E0,2.9413385E0,3.0171068E0,1.5562764E0,1.3850621E0,1.0910305E0,1.9260764E0],"tree_param":{"num_deleted":"0","num_feature":"9","num_nodes":"7","size_leaf_vector":"1"}},{"base_weights":[-1.06279915E-2,-3.8134247E-2,1.587728E-1,4.945221E-2,-6.2045142E-2,2.2798678E-2,-4.2441264E-2],"categories":[],"categories_nodes":[],"categories_segments":[],"categories_sizes":[],"default_left":[0,0,0,0,0,0,0],"id":82,"left_children":[1,-1,3,-1,5,-1,-1],"loss_changes":[4.770376E-1,0E0,4.2051193E-1,0E0,5.2350545E-1,0E0,0E0],"parents":[2147483647,0,0,2,2,4,4],"right_children":[2,-1,4,-1,6,-1,-1],"split_conditions":[3E0,-3.8134247E-2,1.385E-3,4.945221E-2,1.5656E0,2.2798678E-2,-4.2441264E-2],"split_indices":[8,0,2,0,4,0,0],"split_type":[0,0,0,0,0,0,0],"sum_hessian":[5.6320896E0,1.3740379E0,4.258052E0,1.1976092E0,3.0604427E0,1.9058657E0,1.154577E0],"tree_param":{"num_deleted":"0","num_feature":"9","num_nodes":"7","size_leaf_vector":"1"}},{"base_weights":[2.2889722E-2,-1.8016677E-2,1.3141043E-1,-2.3801481E-2,2.7503622E-1,5.677524E-2,-3.9689556E-2,-8.745413E-3,2.7611575E-3],"categories":[],"categories_nodes":[],"categories_segments":[],"categories_sizes":[],"default_left":[0,0,0,0,0,0,0,0,0],"id":83,"left_children":[1,-1,3,-1,5,-1,7,-1,-1],"loss_changes":[1.8570727E-1,0E0,3.504048E-1,0E0,4.215127E-1,0E0,1.2128057E-2,0E0,0E0],"parents":[2147483647,0,0,2,2,4,4,6,6],"right_children":[2,-1,4,-1,6,-1,8,-1,-1],"split_conditions":[3E0,-1.8016677E-2,1.107E0,-2.3801481E-2,1.6688E0,5.677524E-2,4.50887E1,-8.745413E-3,2.7611575E-3],"split_indices":[8,0,4,0,4,0,3,0,0],"split_type":[0,0,0,0,0,0,0,0,0],"sum_hessian":[6.3530912E0,1.9828019E0,4.370289E0,1.0394624E0,3.3308265E0,1.3092123E0,2.0216143E0,1.0072846E0,1.0143297E0],"tree_param":{"num_deleted":"0","num_feature":"9","num_nodes":"9","size_leaf_vector":"1"}},{"base_weights":[4.604185E-2,-1.4497015E-1,3.060989E-1,1.8607497E-2,-4.5868345E-2,5.1667627E-2,-4.1147256E-3],"categories":[],"categories_nodes":[],"categories_segments":[],"categories_sizes":[],"default_left":[0,0,0,0,0,0,0],"id":84,"left_children":[1,3,5,-1,-1,-1,-1],"loss_changes":[3.877949E-1,5.6976914E-1,2.58834E-1,0E0,0E0,0E0,0E0],"parents":[2147483647,0,0,1,1,2,2],"right_children":[2,4,6,-1,-1,-1,-1],"split_conditions":[2.5738552E1,1.363E-3,2.7632847E1,1.8607497E-2,-4.5868345E-2,5.1667627E-2,-4.1147256E-3],"split_indices":[1,2,1,0,0,0,0],"split_type":[0,0,0,0,0,0,0],"sum_hessian":[5.9134674E0,3.6644628E0,2.2490046E0,1.9809419E0,1.6835208E0,1.0962752E0,1.1527294E0],"tree_param":{"num_deleted":"0","num_feature":"9","num_nodes":"7","size_leaf_vector":"1"}},{"base_weights":[-3.040542E-2,1.4652987E-1,-2.1929309E-1,-8.6016E-3,3.913842E-2,8.318482E-3,-4.232504E-2],"categories":[],"categories_nodes":[],"categories_segments":[],"categories_sizes":[],"default_left":[0,0,0,0,0,0,0],"id":85,"left_children":[1,3,5,-1,-1,-1,-1],"loss_changes":[2.4556105E-1,2.555491E-1,2.5046924E-1,0E0,0E0,0E0,0E0],"parents":[2147483647,0,0,1,1,2,2],"right_children":[2,4,6,-1,-1,-1,-1],"split_conditions":[5.30274E1,2.5398361E1,7.52E-1,-8.6016E-3,3.913842E-2,8.318482E-3,-4.232504E-2],"split_indices":[3,1,6,0,0,0,0],"split_type":[0,0,0,0,0,0,0],"sum_hessian":[5.386067E0,2.8968093E0,2.4892573E0,1.8184631E0,1.0783463E0,1.2409774E0,1.2482799E0],"tree_param":{"num_deleted":"0","num_feature":"9","num_nodes":"7","size_leaf_vector":"1"}},{"base_weights":[-2.4573762E-2,-4.3049943E-2,1.225766E-1,3.984539E-2,-5.960626E-2,-3.2179367E-2,2.607124E-2],"categories":[],"categories_nodes":[],"categories_segments":[],"categories_sizes":[],"default_left":[0,0,0,0,0,0,0],"id":86,"left_children":[1,-1,3,-1,5,-1,-1],"loss_changes":[4.8471752E-1,0E0,3.2962435E-1,0E0,4.6477747E-1,0E0,0E0],"parents":[2147483647,0,0,2,2,4,4],"right_children":[2,-1,4,-1,6,-1,-1],"split_conditions":[5.101E-3,-4.3049943E-2,1.363E-3,3.984539E-2,6.67283E1,-3.2179367E-2,2.607124E-2],"split_indices":[5,0,2,0,0,0,0],"split_type":[0,0,0,0,0,0,0],"sum_hessian":[6.2314277E0,1.1456071E0,5.0858207E0,1.5506225E0,3.535198E0,1.9414647E0,1.5937334E0],"tree_param":{"num_deleted":"0","num_feature":"9","num_nodes":"7","size_leaf_vector":"1"}},{"base_weights":[-1.0625376E-1,2.086462E-2,-2.655664E-1,1.35164065E-2,-4.3651554E-1,-6.4454265E-2,-1.3186513E-2],"categories":[],"categories_nodes":[],"categories_segments":[],"categories_sizes":[],"default_left":[0,0,0,0,0,0,0],"id":87,"left_children":[1,-1,3,-1,5,-1,-1],"loss_changes":[4.1854668E-1,0E0,4.1842318E-1,0E0,1.6307229E-1,0E0,0E0],"parents":[2147483647,0,0,2,2,4,4],"right_children":[2,-1,4,-1,6,-1,-1],"split_conditions":[4.30524E1,2.086462E-2,2.50517E1,1.35164065E-2,2.9766E-2,-6.4454265E-2,-1.3186513E-2],"split_indices":[3,0,0,0,7,0,0],"split_type":[0,0,0,0,0,0,0],"sum_hessian":[6.238489E0,1.9917998E0,4.2466893E0,1.3324823E0,2.914207E0,1.0687462E0,1.8454607E0],"tree_param":{"num_deleted":"0","num_feature":"9","num_nodes":"7","size_leaf_vector":"1"}},{"base_weights":[-8.772615E-2,2.0788077E-2,-2.2354606E-1,-4.47337E-2,6.825174E-2,1.8784419E-2,-8.147024E-3],"categories":[],"categories_nodes":[],"categories_segments":[],"categories_sizes":[],"default_left":[0,0,0,0,0,0,0],"id":88,"left_children":[1,-1,3,-1,5,-1,-1],"loss_changes":[3.1448615E-1,0E0,3.6068177E-1,0E0,7.0132084E-2,0E0,0E0],"parents":[2147483647,0,0,2,2,4,4],"right_children":[2,-1,4,-1,6,-1,-1],"split_conditions":[4.30524E1,2.0788077E-2,2.4791506E1,-4.47337E-2,-1.0686556E1,1.8784419E-2,-8.147024E-3],"split_indices":[3,0,1,0,7,0,0],"split_type":[0,0,0,0,0,0,0],"sum_hessian":[5.6754637E0,1.6196955E0,4.0557685E0,1.9936918E0,2.0620766E0,1.0048327E0,1.0572438E0],"tree_param":{"num_deleted":"0","num_feature":"9","num_nodes":"7","size_leaf_vector":"1"}},{"base_weights":[-1.3107605E-1,-5.1393416E-2,4.4809256E-2,2.5399697E-1,-3.4676265E-2,3.153201E-3,4.1182455E-2],"categories":[],"categories_nodes":[],"categories_segments":[],"categories_sizes":[],"default_left":[0,0,0,0,0,0,0],"id":89,"left_children":[1,-1,3,5,-1,-1,-1],"loss_changes":[4.6387547E-1,0E0,5.308652E-1,1.309905E-1,0E0,0E0,0E0],"parents":[2147483647,0,0,2,2,3,3],"right_children":[2,-1,4,6,-1,-1,-1],"split_conditions":[5.876E-3,-5.1393416E-2,5.93927E1,6.67283E1,-3.4676265E-2,3.153201E-3,4.1182455E-2],"split_indices":[5,0,3,0,0,0,0],"split_type":[0,0,0,0,0,0,0],"sum_hessian":[5.5466623E0,1.1410025E0,4.4056597E0,3.1005871E0,1.3050727E0,1.7847253E0,1.3158618E0],"tree_param":{"num_deleted":"0","num_feature":"9","num_nodes":"7","size_leaf_vector":"1"}},{"base_weights":[-6.508276E-2,-3.927231E-2,7.272422E-2,2.8140572E-1,-2.9493699E-2,-8.829962E-3,4.529952E-2],"categories":[],"categories_nodes":[],"categories_segments":[],"categories_sizes":[],"default_left":[0,0,0,0,0,0,0],"id":90,"left_children":[1,-1,3,5,-1,-1,-1],"loss_changes":[3.2115203E-1,0E0,4.9772006E-1,2.9120868E-1,0E0,0E0,0E0],"parents":[2147483647,0,0,2,2,3,3],"right_children":[2,-1,4,6,-1,-1,-1],"split_conditions":[1.311E-3,-3.927231E-2,1.6688E0,1.0797E0,-2.9493699E-2,-8.829962E-3,4.529952E-2],"split_indices":[2,0,4,4,0,0,0],"split_type":[0,0,0,0,0,0,0],"sum_hessian":[5.4802713E0,1.0748876E0,4.405384E0,2.9599478E0,1.4454361E0,1.0921696E0,1.8677782E0],"tree_param":{"num_deleted":"0","num_feature":"9","num_nodes":"7","size_leaf_vector":"1"}},{"base_weights":[6.894612E-2,-1.6947545E-1,2.763979E-1,1.2034685E-2,-3.7179492E-2,4.1764583E-2,7.705102E-3],"categories":[],"categories_nodes":[],"categories_segments":[],"categories_sizes":[],"default_left":[0,0,0,0,0,0,0],"id":91,"left_children":[1,3,5,-1,-1,-1,-1],"loss_changes":[3.7109584E-1,2.599465E-1,7.722935E-2,0E0,0E0,0E0,0E0],"parents":[2147483647,0,0,1,1,2,2],"right_children":[2,4,6,-1,-1,-1,-1],"split_conditions":[5.26957E1,2.50517E1,8.104E-1,1.2034685E-2,-3.7179492E-2,4.1764583E-2,7.705102E-3],"split_indices":[0,0,6,0,0,0,0],"split_type":[0,0,0,0,0,0,0],"sum_hessian":[5.5557365E0,2.670094E0,2.8856425E0,1.2642385E0,1.4058555E0,1.0480045E0,1.837638E0],"tree_param":{"num_deleted":"0","num_feature":"9","num_nodes":"7","size_leaf_vector":"1"}},{"base_weights":[1.9641571E-1,-1.17148645E-2,3.0474168E-1,4.2357394E-1,-3.633172E-3,9.49059E-3,5.065741E-2],"categories":[],"categories_nodes":[],"categories_segments":[],"categories_sizes":[],"default_left":[0,0,0,0,0,0,0],"id":92,"left_children":[1,-1,3,5,-1,-1,-1],"loss_changes":[2.5463003E-1,0E0,2.2080141E-1,5.6610227E-2,0E0,0E0,0E0],"parents":[2147483647,0,0,2,2,3,3],"right_children":[2,-1,4,6,-1,-1,-1],"split_conditions":[5.101E-3,-1.17148645E-2,1.6688E0,9.341E-1,-3.633172E-3,9.49059E-3,5.065741E-2],"split_indices":[5,0,4,4,0,0,0],"split_type":[0,0,0,0,0,0,0],"sum_hessian":[5.4453387E0,1.3772514E0,4.0680876E0,2.837573E0,1.2305144E0,1.0042675E0,1.8333057E0],"tree_param":{"num_deleted":"0","num_feature":"9","num_nodes":"7","size_leaf_vector":"1"}},{"base_weights":[-2.1507852E-2,2.0071508E-2,-1.5027344E-1,1.5772328E-2,-3.3835056E-1,-4.3769207E-2,-7.491437E-3],"categories":[],"categories_nodes":[],"categories_segments":[],"categories_sizes":[],"default_left":[0,0,0,0,0,0,0],"id":93,"left_children":[1,-1,3,-1,5,-1,-1],"loss_changes":[2.0684612E-1,0E0,3.1294918E-1,0E0,4.8342764E-2,0E0,0E0],"parents":[2147483647,0,0,2,2,4,4],"right_children":[2,-1,4,-1,6,-1,-1],"split_conditions":[2.1834448E1,2.0071508E-2,4.28025E1,1.5772328E-2,2.5738552E1,-4.3769207E-2,-7.491437E-3],"split_indices":[1,0,3,0,1,0,0],"split_type":[0,0,0,0,0,0,0],"sum_hessian":[5.1745944E0,1.6933892E0,3.481205E0,1.381022E0,2.100183E0,1.04474E0,1.055443E0],"tree_param":{"num_deleted":"0","num_feature":"9","num_nodes":"7","size_leaf_vector":"1"}},{"base_weights":[-1.2880821E-2,1.5303046E-1,-3.9119184E-2,-2.0558301E-2,3.1600145E-1,5.136322E-2,-3.089773E-4],"categories":[],"categories_nodes":[],"categories_segments":[],"categories_sizes":[],"default_left":[0,0,0,0,0,0,0],"id":94,"left_children":[1,3,-1,-1,5,-1,-1],"loss_changes":[4.7708872E-1,3.7703067E-1,0E0,0E0,2.5795904E-1,0E0,0E0],"parents":[2147483647,0,0,1,1,4,4],"right_children":[2,4,-1,-1,6,-1,-1],"split_conditions":[6.43337E1,6.76E-2,-3.9119184E-2,-2.0558301E-2,1.422E-3,5.136322E-2,-3.089773E-4],"split_indices":[3,6,0,0,2,0,0],"split_type":[0,0,0,0,0,0,0],"sum_hessian":[5.647294E0,4.339613E0,1.307681E0,1.274231E0,3.065382E0,1.5164742E0,1.5489079E0],"tree_param":{"num_deleted":"0","num_feature":"9","num_nodes":"7","size_leaf_vector":"1"}},{"base_weights":[-2.6618242E-2,1.2042369E-1,-2.6228849E-2,-1.0282422E-1,4.4602424E-2,2.341007E-2,-5.1551282E-2],"categories":[],"categories_nodes":[],"categories_segments":[],"categories_sizes":[],"default_left":[0,0,0,0,0,0,0],"id":95,"left_children":[1,3,-1,5,-1,-1,-1],"loss_changes":[2.747245E-1,4.0973976E-1,0E0,6.4660245E-1,0E0,0E0,0E0],"parents":[2147483647,0,0,1,1,3,3],"right_children":[2,4,-1,6,-1,-1,-1],"split_conditions":[1.6688E0,1.4317E0,-2.6228849E-2,5.93927E1,4.4602424E-2,2.341007E-2,-5.1551282E-2],"split_indices":[4,4,0,3,0,0,0],"split_type":[0,0,0,0,0,0,0],"sum_hessian":[6.0163016E0,4.005908E0,2.0103936E0,2.7823749E0,1.2235332E0,1.7700351E0,1.0123397E0],"tree_param":{"num_deleted":"0","num_feature":"9","num_nodes":"7","size_leaf_vector":"1"}},{"base_weights":[2.6217194E-2,-1.6930728E-1,1.519327E-1,5.931771E-3,-3.1531926E-2,-1.1076814E-1,4.6971675E-2,1.2598366E-2,-2.9448077E-2],"categories":[],"categories_nodes":[],"categories_segments":[],"categories_sizes":[],"default_left":[0,0,0,0,0,0,0,0,0],"id":96,"left_children":[1,3,5,-1,-1,7,-1,-1,-1],"loss_changes":[1.8784268E-1,1.2065436E-1,4.3115577E-1,0E0,0E0,1.8042883E-1,0E0,0E0,0E0],"parents":[2147483647,0,0,1,1,2,2,5,5],"right_children":[2,4,6,-1,-1,8,-1,-1,-1],"split_conditions":[3.51196E1,2.12963E1,1.4317E0,5.931771E-3,-3.1531926E-2,9.957E-1,4.6971675E-2,1.2598366E-2,-2.9448077E-2],"split_indices":[0,0,4,0,0,4,0,0,0],"split_type":[0,0,0,0,0,0,0,0,0],"sum_hessian":[5.595457E0,2.054053E0,3.541404E0,1.0319606E0,1.0220925E0,2.2953527E0,1.2460512E0,1.1402018E0,1.155151E0],"tree_param":{"num_deleted":"0","num_feature":"9","num_nodes":"9","size_leaf_vector":"1"}},{"base_weights":[-1.04996465E-1,-2.62236E-1,2.9441804E-2,1.2820947E-2,-4.1434723E-1,-1.379682E-2,-5.651501E-2],"categories":[],"categories_nodes":[],"categories_segments":[],"categories_sizes":[],"default_left":[0,0,0,0,0,0,0],"id":97,"left_children":[1,3,-1,-1,5,-1,-1],"loss_changes":[4.7602677E-1,3.551502E-1,0E0,0E0,8.440578E-2,0E0,0E0],"parents":[2147483647,0,0,1,1,4,4],"right_children":[2,4,-1,-1,6,-1,-1],"split_conditions":[1.0962E0,2.50517E1,2.9441804E-2,1.2820947E-2,5.23143E1,-1.379682E-2,-5.651501E-2],"split_indices":[6,0,0,0,3,0,0],"split_type":[0,0,0,0,0,0,0],"sum_hessian":[5.3502536E0,4.0853877E0,1.2648661E0,1.1894335E0,2.8959541E0,1.6983145E0,1.1976396E0],"tree_param":{"num_deleted":"0","num_feature":"9","num_nodes":"7","size_leaf_vector":"1"}},{"base_weights":[-1.0011638E-1,-4.813088E-2,8.6815484E-2,-2.5321325E-2,2.83655E-1,-3.3862676E-4,4.0735714E-2],"categories":[],"categories_nodes":[],"categories_segments":[],"categories_sizes":[],"default_left":[0,0,0,0,0,0,0],"id":98,"left_children":[1,-1,3,-1,5,-1,-1],"loss_changes":[4.7569385E-1,0E0,4.0199223E-1,0E0,1.2906325E-1,0E0,0E0],"parents":[2147483647,0,0,2,2,4,4],"right_children":[2,-1,4,-1,6,-1,-1],"split_conditions":[3E0,-4.813088E-2,4.72654E1,-2.5321325E-2,1.4152E0,-3.3862676E-4,4.0735714E-2],"split_indices":[8,0,3,0,4,0,0],"split_type":[0,0,0,0,0,0,0],"sum_hessian":[5.0893493E0,1.1564101E0,3.9329393E0,1.3369836E0,2.5959556E0,1.074737E0,1.5212187E0],"tree_param":{"num_deleted":"0","num_feature":"9","num_nodes":"7","size_leaf_vector":"1"}},{"base_weights":[1.14174165E-1,2.2945572E-1,-1.6379833E-2,3.4359744E-1,-1.0668645E-2,1.0157422E-2,4.679968E-2],"categories":[],"categories_nodes":[],"categories_segments":[],"categories_sizes":[],"default_left":[0,0,0,0,0,0,0],"id":99,"left_children":[1,3,-1,5,-1,-1,-1],"loss_changes":[2.5182012E-1,2.3395005E-1,0E0,7.516977E-2,0E0,0E0,0E0],"parents":[2147483647,0,0,1,1,3,3],"right_children":[2,4,-1,6,-1,-1,-1],"split_conditions":[7.85058E0,2.7506334E1,-1.6379833E-2,3.47467E1,-1.0668645E-2,1.0157422E-2,4.679968E-2],"split_indices":[7,1,0,0,0,0,0],"split_type":[0,0,0,0,0,0,0],"sum_hessian":[5.6854415E0,4.1421394E0,1.5433018E0,3.0755985E0,1.066541E0,1.6608584E0,1.4147401E0],"tree_param":{"num_deleted":"0","num_feature":"9","num_nodes":"7","size_leaf_vector":"1"}}]},"name":"gbtree"},"learner_model_param":{"base_score":"5E-1","boost_from_average":"1","num_class":"0","num_feature":"9","num_target":"1"},"objective":{"name":"binary:logistic","reg_loss_param":{"scale_pos_weight":"1.20000005"}}},"version":[2,1,4]}